svm_type c_svc
kernel_type rbf
gamma 0.0714286
nr_class 32
total_sv 658
rho 0.971427 0.996034 0.984848 0.981816 0.990295 0.888889 0.978721 0.875 0.75 0 0.875 0 0.666667 0.8 0.83333 0 0 0.952381 0 0 0 0.833333 0 -0 0.5 0.666667 0 0 0 0 0 0.861321 0.469697 0.399927 0.660304 -0.742843 0.255223 -0.771416 -0.885708 -0.971427 -0.771417 -0.971427 -0.914281 -0.857135 -0.828562 -0.971427 -0.971427 -0.399966 -0.971427 -0.971427 -0.971427 -0.828562 -0.971427 -0.944439 -0.942854 -0.914281 -0.971427 -0.971427 -0.971427 -0.971427 -0.971427 -0.726966 -0.782071 -0.589096 -0.964338 -0.81377 -0.9683 -0.984149 -0.996034 -0.964478 -0.996034 -0.98811 -0.980187 -0.976224 -0.996034 -0.996034 -0.91679 -0.996034 -0.996034 -0.996034 -0.976224 -0.996034 -0.992099 -0.992071 -0.98811 -0.996034 -0.996034 -0.996034 -0.996034 -0.996034 -0.166667 0.345987 -0.863636 -0.287879 -0.878788 -0.939394 -0.984848 -0.865665 -0.984848 -0.954545 -0.924242 -0.909091 -0.984848 -0.984848 -0.681818 -0.984848 -0.984848 -0.984848 -0.909091 -0.984848 -0.970157 -0.969697 -0.954545 -0.984848 -0.984848 -0.984848 -0.984848 -0.984848 0.466183 -0.836346 -0.888889 -0.854529 -0.927265 -0.981816 -0.839268 -0.981816 -0.945449 -0.909081 -0.890897 -0.981816 -0.981816 -0.618139 -0.981816 -0.981816 -0.981816 -0.890897 -0.981816 -0.964275 -0.963632 -0.945449 -0.981816 -0.981816 -0.981816 -0.981816 -0.981816 -0.912651 -0.543828 -0.922359 -0.961179 -0.990295 -0.91349 -0.990295 -0.970884 -0.951477 -0.941768 -0.990295 -0.990295 -0.796181 -0.990295 -0.990295 -0.990295 -0.941768 -0.990295 -0.980775 -0.98059 -0.970884 -0.990295 -0.990295 -0.990295 -0.990295 -0.990295 0.808486 -0.111111 -0.555556 -0.888889 -0.100053 -0.888889 -0.666667 -0.444444 -0.333333 -0.888889 -0.888889 0.571429 -0.888889 -0.888889 -0.888889 -0.333333 -0.888889 -0.799982 -0.777778 -0.666667 -0.888889 -0.888889 -0.888889 -0.888889 -0.888889 -0.829765 -0.914883 -0.978721 -0.812476 -0.978721 -0.936162 -0.893603 -0.872324 -0.978721 -0.978721 -0.553134 -0.978721 -0.978721 -0.978721 -0.872324 -0.978721 -0.958341 -0.957441 -0.936162 -0.978721 -0.978721 -0.978721 -0.978721 -0.978721 -0.5 -0.875 7.20436e-11 -0.875 -0.625 -0.375 -0.25 -0.875 -0.875 0.619048 -0.875 -0.875 -0.875 -0.25 -0.875 -0.777734 -0.75 -0.625 -0.875 -0.875 -0.875 -0.875 -0.875 -0.75 0.5 -0.75 -0.25 0.2 0.33332 -0.75 -0.75 0.809524 -0.75 -0.75 -0.75 0.333333 -0.75 -0.6 -0.5 -0.25 -0.75 -0.75 -0.75 -0.75 -0.75 0.875 0 0.666667 0.8 0.83333 0 0 0.952381 0 0 0 0.833333 0 -0 0.5 0.666667 0 0 0 0 0 -0.875 -0.625 -0.375 -0.25 -0.875 -0.875 0.590905 -0.875 -0.875 -0.875 -0.25 -0.875 -0.777832 -0.75 -0.625 -0.875 -0.875 -0.875 -0.875 -0.875 0.666667 0.8 0.83333 0 0 0.952381 0 0 0 0.833333 0 -0 0.5 0.666667 0 0 0 0 0 0.4 0.49999 -0.666667 -0.666667 0.857143 -0.666667 -0.666667 -0.666667 0.5 -0.666667 -0.5 -0.333333 -1.45844e-17 -0.666667 -0.666667 -0.666667 -0.666667 -0.666667 0.166651 -0.8 -0.8 0.761905 -0.8 -0.8 -0.8 0.166667 -0.8 -0.666713 -0.6 -0.4 -0.8 -0.8 -0.8 -0.8 -0.8 -0.83333 -0.83333 0.714286 -0.83333 -0.83333 -0.83333 1.77582e-05 -0.83333 -0.714229 -0.66666 -0.49999 -0.83333 -0.83333 -0.83333 -0.83333 -0.83333 0 0.952381 0 0 0 0.833333 0 -0 0.5 0.666667 0 0 0 0 0 0.952381 0 0 0 0.833333 0 -0 0.5 0.666667 0 0 0 0 0 -0.952381 -0.952381 -0.952381 -0.714286 -0.952381 -0.909095 -0.904762 -0.857143 -0.952381 -0.952381 -0.952381 -0.952381 -0.952381 0 0 0.833333 0 -0 0.5 0.666667 0 0 0 0 0 0 0.833333 0 -0 0.5 0.666667 0 0 0 0 0 0.833333 0 -0 0.5 0.666667 0 0 0 0 0 -0.833333 -0.714233 -0.666667 -0.5 -0.833333 -0.833333 -0.833333 -0.833333 -0.833333 -0 0.5 0.666667 0 0 0 0 0 0.333333 0.5 0 0 0 0 0 0.333333 -0.5 -0.5 -0.5 -0.5 -0.5 -0.666667 -0.666667 -0.666667 -0.666667 -0.666667 0 0 0 0 0 0 0 0 0 0
label 23 22 1 15 0 14 6 39 8 24 30 35 38 7 25 2 28 40 16 19 21 17 18 37 31 26 32 10 5 34 12 13
nr_sv 1 35 255 70 55 104 9 47 8 4 1 9 1 3 5 6 1 1 21 1 1 1 6 1 2 2 3 1 1 1 1 1
SV
1 1 1 1 1 1 1 1 1 1 1 1 1 1 1 1 1 1 1 1 1 1 1 1 1 1 1 1 1 1 1 1:216 2:2 3:19 4:18 5:32 6:18 7:19 8:66 9:6 10:19 11:19 12:18 13:4 14:16 
-0.02832003052436194 1 1 1 1 0.2568638922026246 1 0.2285132839593871 0.1142565990893713 0.02832004285255629 0.229489650324586 0.02832004285255807 0.08593671556878435 0.1425766541912402 0.1709191907304515 0.02832004285255807 0.02832004285255807 0.5996424323977219 0.02832004285255807 0.02832004285255807 0.02832004285255807 0.1709120129220517 0.02832004285255807 0.05566349256407455 0.05664008570513257 0.08593671556878435 0.02832004285255807 0.02832004285255807 0.02832004285255807 0.02832004285255807 0.02832004285255807 1:103 2:5 3:19 4:18 5:25 6:4 7:16 8:102 9:4 10:19 11:32 12:1 13:18 14:15 
-0.02832223578390136 1 1 1 1 0.2578125 1 0.2285272456675372 0.115234485310359 0.02929687499999817 0.2294925184746578 0.02929687500000006 0.0859375 0.1435546875000002 0.1709213478849873 0.02929687500000006 0.02929687500000006 0.6006053604116923 0.02929687500000006 0.02929687500000006 0.02929687500000006 0.171875 0.02929687500000006 0.05566979929229615 0.05761724265530499 0.0859375 0.02929687500000006 0.02929687500000006 0.02929687500000006 0.02929687500000006 0.02929687500000006 1:116 2:5 3:18 4:32 5:1 6:32 7:20 8:116 9:5 10:18 11:0 12:32 13:20 14:23 
-0.02832226215879585 1 1 1 1 0.2578125 1 0.2285348417346315 0.1142617179457239 0.02832036765530371 0.2285234358916622 0.02832036765530543 0.0859375 0.1435546875000001 0.1718752840335739 0.02832036765530543 0.02832036765530543 0.5996552508733272 0.02832036765530543 0.02832036765530543 0.02832036765530543 0.171875 0.02832036765530543 0.05566408701357167 0.05664447529075595 0.0859375 0.02832036765530543 0.02832036765530543 0.02832036765530543 0.02832036765530543 0.02832036765530543 1:104 2:5 3:19 4:0 5:23 6:25 7:32 8:104 9:5 10:19 11:25 12:20 13:25 14:32 
-0.02832223578390125 1 1 1 1 0.2578125 1 0.2285367508762605 0.1142683876990391 0.02832223764537661 0.2285234358916622 0.02832223764537822 0.0859375 0.1435546875000001 0.171875206233878 0.02832223764537822 0.02832223764537822 0.5996566377991255 0.02832223764537822 0.02832223764537822 0.02832223764537822 0.171875 0.02832223764537822 0.05566979929229621 0.05761726716810744 0.0859375 0.02832223764537822 0.02832223764537822 0.02832223764537822 0.02832223764537822 0.02832223764537822 1:109 2:4 3:19 4:32 5:1 6:4 7:7 8:109 9:5 10:19 11:25 12:18 13:32 14:0 
-0.02832223578390125 1 1 1 1 0.2578125 1 0.2285348473440707 0.114267433122225 0.02832039216810622 0.2285234358916622 0.02832039216810789 0.0849843568052715 0.1435546875 0.171875206233878 0.02832039216810789 0.02832039216810789 0.6006018849452274 0.02832039216810789 0.02832039216810789 0.02832039216810789 0.170921954859558 0.02832039216810789 0.05566788827718483 0.05664636179229565 0.0849843568052715 0.02832039216810789 0.02832039216810789 0.02832039216810789 0.02832039216810789 0.02832039216810789 1:116 2:5 3:19 4:20 5:25 6:0 7:0 8:116 9:5 10:18 11:32 12:25 13:32 14:32 
-0.02832129252188498 1 1 1 1 0.2578125 1 0.2285272088985642 0.1142636167041913 0.02929687499999828 0.2285367753980124 0.029296875 0.08498292378110345 0.1435546875 0.171875206233878 0.029296875 0.029296875 0.599648100490185 0.029296875 0.029296875 0.029296875 0.1709206198865998 0.029296875 0.05566788827718483 0.05761726716810744 0.08498292378110345 0.029296875 0.029296875 0.029296875 0.029296875 0.029296875 1:116 2:5 3:18 4:18 5:25 6:0 7:32 8:116 9:5 10:19 11:0 12:25 13:23 14:32 
-0.02832228054335939 1 1 1 1 0.2578125 1 0.2285272456675372 0.1142636167041913 0.02929687499999828 0.2285348718538199 0.029296875 0.08498292378110345 0.1426134797328031 0.1709146223918023 0.029296875 0.029296875 0.6006053604382885 0.029296875 0.029296875 0.029296875 0.1709206689149737 0.029296875 0.05470661203009891 0.05761726716810744 0.08498292378110345 0.029296875 0.029296875 0.029296875 0.029296875 0.029296875 1:116 2:5 3:19 4:0 5:25 6:23 7:32 8:116 9:5 10:18 11:20 12:25 13:0 14:32 
-0.02929687502385475 1 1 1 1 0.2578125 1 0.2285234358872248 0.1142674359269429 0.02929687499999828 0.2285348662443806 0.029296875 0.08593779415978275 0.1426125345128903 0.1709205236131172 0.029296875 0.029296875 0.5996556925608394 0.029296875 0.029296875 0.029296875 0.1709141640669633 0.029296875 0.0546989735845923 0.05761726104002218 0.08593779415978275 0.029296875 0.029296875 0.029296875 0.029296875 0.029296875 1:249 2:6 3:19 4:18 5:7 6:32 7:18 8:249 9:6 10:19 11:21 12:16 13:0 14:23 
-0.02832556826398064 1 1 1 1 0.2578125 1 0.2285272456679985 0.1142698088290016 0.02929687499999828 0.2285272334083133 0.029296875 0.0859377451338702 0.1426010459624679 0.1718752062338779 0.029296875 0.029296875 0.5996519270333353 0.029296875 0.029296875 0.029296875 0.1709206689149737 0.029296875 0.05566979929229615 0.05761726104002218 0.0859377451338702 0.029296875 0.029296875 0.029296875 0.029296875 0.029296875 1:249 2:6 3:19 4:4 5:16 6:23 7:18 8:249 9:6 10:19 11:32 12:1 13:25 14:19 
-0.029296875 1 1 1 1 0.2578125 1 0.2294925613195535 0.1142683876990391 0.02929687499999828 0.2285396176579374 0.029296875 0.08593769610549645 0.1425934281087393 0.1718751859771145 0.029296875 0.029296875 0.6006055941469041 0.029296875 0.029296875 0.029296875 0.1709206198865998 0.029296875 0.05566788827718483 0.05761726104002213 0.08593769610549645 0.029296875 0.029296875 0.029296875 0.029296875 0.029296875 1:110 2:5 3:19 4:25 5:0 6:0 7:32 8:102 9:4 10:19 11:0 12:32 13:18 14:21 
-0.029296875 1 1 1 1 0.2578125 1 0.2285395931362033 0.1142674359269429 0.02929687499999828 0.228523448146679 0.029296875 0.08593759805428658 0.1425934281087393 0.1718751961079956 0.029296875 0.029296875 0.6006017871146206 0.029296875 0.029296875 0.029296875 0.170921954859558 0.029296875 0.05566416055336348 0.05761724265530493 0.08593759805428658 0.029296875 0.029296875 0.029296875 0.029296875 0.029296875 1:110 2:4 3:19 4:18 5:30 6:13 7:18 8:102 9:5 10:19 11:18 12:32 13:18 14:32 
-0.02829642489244422 1 1 1 1 0.2566028892716664 1 0.2283159816353135 0.114158003066572 0.02829832551794487 0.2283160061330778 0.0282983255179467 0.08490072106942911 0.1424633853850962 0.170754706124533 0.0282983255179467 0.0282983255179467 0.5990651196749808 0.0282983255179467 0.0282983255179467 0.0282983255179467 0.170754703988129 0.0282983255179467 0.05465307924622309 0.05659665103589273 0.08490072106942911 0.0282983255179467 0.0282983255179467 0.0282983255179467 0.0282983255179467 0.0282983255179467 1:105 2:5 3:19 4:4 5:16 6:13 7:18 8:105 9:5 10:19 11:4 12:16 13:19 14:23 
-0.02829785477488855 1 1 1 1 0.2566167271272204 1 0.2283150280717525 0.1141575262727799 0.02829785104000737 0.2283150525454938 0.02829785104000909 0.08489321822931986 0.1424739512414163 0.1707483204060859 0.02829785104000909 0.02829785104000909 0.5990708010315504 0.02829785104000909 0.02829785104000909 0.02829785104000909 0.1707478546741569 0.02829785104000909 0.05465308486116177 0.05659570208001768 0.08489321822931986 0.02829785104000909 0.02829785104000909 0.02829785104000909 0.02829785104000909 0.02829785104000909 1:111 2:4 3:19 4:4 5:16 6:18 7:18 8:102 9:5 10:19 11:4 12:16 13:18 14:18 
-0.029296875 1 1 1 1 0.2578125 1 0.228523472654836 0.114267433122225 0.02929687499999828 0.2285272579203466 0.029296875 0.08593759805428652 0.1425934281087393 0.171875206233878 0.029296875 0.029296875 0.6006053604382885 0.029296875 0.029296875 0.029296875 0.171875196108573 0.029296875 0.05566413604025333 0.05761724265530499 0.08593759805428652 0.029296875 0.029296875 0.029296875 0.029296875 0.029296875 1:110 2:4 3:19 4:32 5:25 6:13 7:18 8:102 9:5 10:19 11:4 12:16 13:18 14:32 
-0.029296875 1 1 1 1 0.2568516389524322 1 0.2285367508762604 0.1142636167041914 0.02929687499999828 0.2285348718538199 0.029296875 0.08593759805428652 0.142578578495537 0.171875206233878 0.029296875 0.029296875 0.5996519270333353 0.029296875 0.029296875 0.029296875 0.171875196108573 0.029296875 0.05566413603979187 0.05761726104002218 0.08593759805428652 0.029296875 0.029296875 0.029296875 0.029296875 0.029296875 1:110 2:4 3:19 4:4 5:16 6:32 7:4 8:102 9:5 10:19 11:4 12:16 13:18 14:32 
-0.02832509145018919 1 1 1 1 0.2568516389524322 1 0.2285272456679985 0.1142683876990391 0.02832509050752302 0.2285272334083133 0.02832509050752474 0.08593750000000017 0.1426125345128903 0.1709205236131172 0.02832509050752474 0.02832509050752474 0.5996519390839108 0.02832509050752474 0.02832509050752474 0.02832509050752474 0.1718750000000004 0.02832509050752474 0.05566408701357167 0.05761726103979148 0.08593750000000017 0.02832509050752474 0.02832509050752474 0.02832509050752474 0.02832509050752474 0.02832509050752474 1:110 2:4 3:4 4:25 5:13 6:19 7:18 8:102 9:5 10:18 11:25 12:18 13:3 14:19 
-0.02832192510011 1 1 1 1 0.2568484269296802 1 0.2294896932610559 0.1142602900441761 0.02832003672470196 0.2285205800884122 0.02832003672470373 0.0849752913198747 0.1425767890232685 0.1718718314873351 0.02832003672470373 0.02832003672470373 0.5996444130025214 0.02832003672470373 0.02832003672470373 0.02832003672470373 0.1709120068923514 0.02832003672470373 0.05566347417889628 0.05761655628129908 0.0849752913198747 0.02832003672470373 0.02832003672470373 0.02832003672470373 0.02832003672470373 0.02832003672470373 1:111 2:4 3:19 4:18 5:23 6:13 7:18 8:102 9:4 10:19 11:32 12:1 13:18 14:13 
-0.02832227441519708 1 1 1 1 0.2568516389524322 1 0.2285348473440707 0.1142636167041914 0.02832318089614638 0.2285272334083133 0.0283231808961481 0.08593750000000011 0.1425934281087393 0.171875206233878 0.0283231808961481 0.0283231808961481 0.6006053604382885 0.0283231808961481 0.0283231808961481 0.0283231808961481 0.1718750000000003 0.0283231808961481 0.05566408701357162 0.05761724265530505 0.08593750000000011 0.0283231808961481 0.0283231808961481 0.0283231808961481 0.0283231808961481 0.0283231808961481 1:60 2:5 3:19 4:-1 5:-1 6:18 7:18 8:59 9:5 10:18 11:25 12:25 13:32 14:4 
-0.02832226215879585 1 1 1 1 0.2568516389524322 1 0.2285234849042846 0.1142636167041913 0.02832318089614633 1 0.0283231808961481 0.0859375 0.1425934281087393 0.1718749898746952 0.0283231808961481 0.0283231808961481 0.6006053604382885 0.0283231808961481 0.0283231808961481 0.0283231808961481 0.171875 0.0283231808961481 0.05566408701357162 0.05761724265530505 0.0859375 0.0283231808961481 0.0283231808961481 0.0283231808961481 0.0283231808961481 0.0283231808961481 1:259 2:4 3:18 4:25 5:13 6:4 7:18 8:258 9:6 10:18 11:25 12:18 13:18 14:19 
-0.02832223578390125 1 1 1 1 0.256851627084196 1 0.2285367508762605 0.1142636167041914 0.02832222538859064 0.228523448145833 0.02832222538859241 0.0859375 0.1425785662405971 0.1709205236131172 0.02832222538859241 0.02832222538859241 0.5996519510926273 0.02832222538859241 0.02832222538859241 0.02832222538859241 0.171875 0.02832222538859241 0.05566419119348209 0.05761724265530499 0.0859375 0.02832222538859241 0.02832222538859241 0.02832222538859241 0.02832222538859241 0.02832222538859241 1:200 2:6 3:19 4:25 5:18 6:25 7:19 8:200 9:6 10:19 11:18 12:25 13:32 14:25 
-0.02832129252188503 1 1 1 1 0.2568516270841961 1 0.2285348417346314 0.1142636167041914 0.02832038604002085 0.2285367753980124 0.02832038604002257 0.0859375 0.1425934281087393 0.1718739886593585 0.02832038604002257 0.02832038604002257 0.6006055941469041 0.02832038604002257 0.02832038604002257 0.02832038604002257 0.171875 0.02832038604002257 0.05566416055336348 0.05761724265530499 0.0859375 0.02832038604002257 0.02832038604002257 0.02832038604002257 0.02832038604002257 0.02832038604002257 1:200 2:6 3:19 4:19 5:25 6:0 7:0 8:200 9:6 10:19 11:0 12:25 13:18 14:7 
-0.02832129252188503 1 1 1 1 0.2568671098641893 1 0.2285348473440708 0.1142674359269428 0.02832036765530366 0.2285367753980124 0.02832036765530538 0.0859375 0.142578321108573 0.1709219566856193 0.02832036765530538 0.02832036765530538 0.6006053604382885 0.02832036765530538 0.02832036765530538 0.02832036765530538 0.171875 0.02832036765530538 0.05566416055336343 0.05665113278114303 0.0859375 0.02832036765530538 0.02832036765530538 0.02832036765530538 0.02832036765530538 0.02832036765530538 1:244 2:4 3:19 4:32 5:25 6:0 7:0 8:243 9:4 10:19 11:25 12:0 13:23 14:18 
-0.02832129252188498 1 1 1 1 0.2568675740074611 1 0.2285272456679985 0.1142636167041914 0.02832036765536478 0.2285272334083134 0.02832036765530538 0.0859375 0.1435546875 0.1709205236131171 0.02832036765530538 0.02832036765530538 0.6006053604382885 0.02832036765530538 0.02832036765530538 0.02832036765530538 0.171875 0.02832036765530538 0.05566413604025333 0.05665018101504898 0.0859375 0.02832036765530538 0.02832036765530538 0.02832036765530538 0.02832036765530538 0.02832036765530538 1:91 2:5 3:19 4:18 5:25 6:25 7:19 8:90 9:5 10:19 11:19 12:25 13:18 14:3 
-0.02832129252188498 1 1 1 1 0.2568680437299307 1 0.2285272456675372 0.1142617179457239 0.02832038604002085 0.2285160907480925 0.02832038604002263 0.0859375 0.1425783211085731 0.171875206233878 0.02832038604002263 0.02832038604002263 0.5996519270333353 0.02832038604002263 0.02832038604002263 0.02832038604002263 0.171875 0.02832038604002263 0.05566413604025333 0.05665018101504887 0.0859375 0.02832038604002263 0.02832038604002263 0.02832038604002263 0.02832038604002263 0.02832038604002263 1:104 2:5 3:19 4:25 5:23 6:32 7:25 8:104 9:5 10:19 11:32 12:25 13:4 14:18 
-0.02832227441519714 1 1 1 1 0.2568675740074611 1 0.2285272456679986 0.1142617179457239 0.02832556639057004 0.2285272334083134 0.02832556639057182 0.08498435680527139 0.142578321108573 0.1718749898746951 0.02832556639057182 0.02832556639057182 0.5996575247863227 0.02832556639057182 0.02832556639057182 0.02832556639057182 0.170921954859558 0.02832556639057182 0.05566413603979192 0.0566463617922956 0.08498435680527139 0.02832556639057182 0.02832556639057182 0.02832556639057182 0.02832556639057182 0.02832556639057182 1:116 2:5 3:18 4:18 5:32 6:6 7:18 8:116 9:5 10:19 11:20 12:25 13:0 14:18 
-0.02929687499999983 1 1 1 1 0.2568523689681338 1 0.2285234358872227 0.1142636289601424 0.02832509050752269 0.2285272334083112 0.02832509050752458 0.08593749999999954 0.1425781249999991 0.1718752840335724 0.02832509050752458 0.02832509050752458 0.5996519510926217 0.02832509050752458 0.02832509050752458 0.02832509050752458 0.171874999999999 0.02832509050752458 0.05566408701357122 0.05664445077718383 0.08593749999999954 0.02832509050752458 0.02832509050752458 0.02832509050752458 0.02832509050752458 0.02832509050752458 1:116 2:5 3:19 4:20 5:25 6:0 7:18 8:116 9:5 10:18 11:32 12:1 13:10 14:16 
-0.0283250914501893 1 1 1 1 0.2568671158940481 1 0.2285272456679986 0.1142636289601434 0.02832508910516313 0.2285272334083134 0.02832508910516485 0.08593759805428652 0.1435546875000002 0.1709219368518438 0.02832508910516485 0.02832508910516485 0.5996556925608394 0.02832508910516485 0.02832508910516485 0.02832508910516485 0.171875196108573 0.02832508910516485 0.05566979929229615 0.05664445077718433 0.08593759805428652 0.02832508910516485 0.02832508910516485 0.02832508910516485 0.02832508910516485 0.02832508910516485 1:221 2:6 3:19 4:18 5:25 6:30 7:19 8:220 9:6 10:19 11:19 12:30 13:18 14:32 
-0.02929687500000006 1 1 1 1 0.2568671098641893 1 0.2285234358872248 0.114261717945724 0.02832318089614633 0.22853487185382 0.02832318089614805 0.08498292378110345 0.1425785662405972 0.1709205236131173 0.02832318089614805 0.02832318089614805 0.599655740440507 0.02832318089614805 0.02832318089614805 0.02832318089614805 0.1709206689149737 0.02832318089614805 0.05566788827718483 0.05761724265530488 0.08498292378110345 0.02832318089614805 0.02832318089614805 0.02832318089614805 0.02832318089614805 0.02832318089614805 1:116 2:5 3:18 4:18 5:7 6:0 7:32 8:116 9:5 10:18 11:32 12:25 13:0 14:32 
-0.029296875 1 1 1 1 0.25685329442767 1 0.2285234726548359 0.1142617240732371 0.02832318089614633 0.22853487185382 0.02832318089614805 0.08593774513387015 0.1425784191573215 0.1709205236131172 0.02832318089614805 0.02832318089614805 0.599655740440507 0.02832318089614805 0.02832318089614805 0.02832318089614805 0.1709206689149737 0.02832318089614805 0.05566413604025339 0.05664636179229565 0.08593774513387015 0.02832318089614805 0.02832318089614805 0.02832318089614805 0.02832318089614805 0.02832318089614805 1:174 2:4 3:18 4:4 5:16 6:10 7:13 8:173 9:5 10:18 11:4 12:16 13:18 14:0 
-0.02832226215879585 1 1 1 1 0.2568523689681362 1 0.2285272456679986 0.1142617240728866 0.02832318089614633 0.2285272334083133 0.0283231808961481 0.08593759805428652 0.142578321108573 0.1709219566856193 0.0283231808961481 0.0283231808961481 0.5996519270333353 0.0283231808961481 0.0283231808961481 0.0283231808961481 0.1709219342593023 0.0283231808961481 0.05566408701357167 0.05664636179229571 0.08593759805428652 0.0283231808961481 0.0283231808961481 0.0283231808961481 0.0283231808961481 0.0283231808961481 1:116 2:5 3:18 4:16 5:25 6:30 7:19 8:116 9:5 10:18 11:18 12:25 13:32 14:19 
-0.02832129252188503 1 1 1 1 0.2568516389524322 1 0.2285234849042847 0.1142617240732371 0.02832223764537639 0.2285234481466791 0.02832223764537822 0.08593759805428652 0.142578321108573 0.1718749898746951 0.02832223764537822 0.02832223764537822 0.5996566377991255 0.02832223764537822 0.02832223764537822 0.02832223764537822 0.170921954859558 0.02832223764537822 0.05566408701357173 0.05761726103979148 0.08593759805428652 0.02832223764537822 0.02832223764537822 0.02832223764537822 0.02832223764537822 0.02832223764537822 1:116 2:5 3:18 4:18 5:25 6:32 7:18 8:116 9:5 10:18 11:18 12:25 13:0 14:4 
-0.02832037375899743 1 1 1 1 0.2568516389524322 1 0.2285272088985643 0.1142580453739451 0.02832036765530366 0.2285272334083134 0.02832036765530543 0.08593750000000017 0.142578321108573 0.1709146223918022 0.02832036765530543 0.02832036765530543 0.6006017871146206 0.02832036765530543 0.02832036765530543 0.02832036765530543 0.1718750000000003 0.02832036765530543 0.05566408701357167 0.05665017821032931 0.08593750000000017 0.02832036765530543 0.02832036765530543 0.02832036765530543 0.02832036765530543 0.02832036765530543 1:91 2:4 3:19 4:-1 5:20 6:23 7:4 8:90 9:5 10:19 11:0 12:32 13:23 14:18 
-0.02832318848513182 1 1 1 1 0.2568516389524322 1 0.2285272456675372 0.1142636167041913 0.02832038603979009 0.2285234358916622 0.02832038603979187 0.0859375 0.1435546875000002 0.1709146223918023 0.02832038603979187 0.02832038603979187 0.5996552508733272 0.02832038603979187 0.02832038603979187 0.02832038603979187 0.171875 0.02832038603979187 0.05566408701357162 0.05664447529075589 0.0859375 0.02832038603979187 0.02832038603979187 0.02832038603979187 0.02832038603979187 0.02832038603979187 1:94 2:4 3:19 4:18 5:4 6:0 7:23 8:90 9:5 10:19 11:32 12:20 13:32 14:23 
-0.02929687500000006 1 1 1 1 0.2568516389524322 1 0.2285348473440706 0.1142674359269429 0.02832318089614638 0.2285272579203466 0.0283231808961481 0.0859375 0.1435546875000002 0.1718749898746952 0.0283231808961481 0.0283231808961481 0.6006018849452274 0.0283231808961481 0.0283231808961481 0.0283231808961481 0.171875 0.0283231808961481 0.05566408701357162 0.05664636179229565 0.0859375 0.0283231808961481 0.0283231808961481 0.0283231808961481 0.0283231808961481 0.0283231808961481 1:116 2:5 3:18 4:-1 5:-1 6:18 7:18 8:116 9:4 10:18 11:32 12:4 13:20 14:13 
-0.02832226215879591 1 1 1 1 0.256851638949739 1 0.2285234358872248 0.1142636167041914 0.02832222538859069 0.2285348662443806 0.02832222538859241 0.0859375 0.1435546875000001 0.1718751961079955 0.02832222538859241 0.02832222538859241 0.6006053604116923 0.02832222538859241 0.02832222538859241 0.02832222538859241 0.171875 0.02832222538859241 0.05566408701357173 0.05664636179229565 0.0859375 0.02832222538859241 0.02832222538859241 0.02832222538859241 0.02832222538859241 0.02832222538859241 1:107 2:4 3:32 4:-1 5:-1 6:32 7:18 8:102 9:4 10:19 11:16 12:23 13:18 14:7 
-0.003906147711305374 -0.1386976809348909 0.2727459138460184 0.217906428718156 0.4109626193389063 0.03515502250767935 0.1857297070729523 0.03124918169044194 0.01562459084515072 0.003906147690928785 0.03515532939527605 0.003906249999998892 0.01171844312687498 0.01953063625379713 0.02343704236920452 0.003906147711305374 0.003906147711305374 0.08301644176444291 0.003906147711305374 0.003906147711305374 0.003906147711301211 0.02343688625375001 0.003906147711305374 0.007812295422610693 0.007812295422610693 0.01171844312687498 0.003906147711305374 0.003906147711305374 0.003906147711305374 0.003906147711305374 0.003906147711305374 1:100 2:4 3:18 4:25 5:21 6:18 7:32 8:100 9:4 10:18 11:10 12:21 13:13 14:18 
-0.00390625 -0.1386734831961705 0.2727603493990937 0.2179198854766367 0.4110637139362874 0.03613281251213435 0.1865813708997114 0.03222656249957984 0.015625 0.003906249979622856 0.03613281250942996 0.003906249999999001 0.01269531250000228 0.02050781250094674 0.02441394599792085 0.00390625 0.00390625 0.08398440120306716 0.00390625 0.00390625 0.003906249999995837 0.02441406250015477 0.00390625 0.0078125 0.0078125 0.01269531250000228 0.00390625 0.00390625 0.00390625 0.00390625 0.00390625 1:164 2:1 3:19 4:4 5:16 6:3 7:4 8:164 9:1 10:19 11:4 12:16 13:25 14:23 
-0.00390625 -0.1386738450471494 0.2727989263516922 0.2179198834298801 0.4109612775308047 0.03613281251218753 0.1865814325398237 0.03222656249957984 0.015625 0.003906249979622856 0.03613281250814088 0.003906249999999001 0.01269531250000183 0.02050781250098388 0.02344385026076767 0.00390625 0.00390625 0.08301101087580703 0.00390625 0.00390625 0.003906249999995837 0.02441406250015754 0.00390625 0.0078125 0.0078125 0.01269531250000183 0.00390625 0.00390625 0.00390625 0.00390625 0.00390625 1:164 2:1 3:19 4:4 5:16 6:25 7:23 8:164 9:1 10:19 11:4 12:16 13:-1 14:-1 
-0.004882812500000031 -0.1386960408979976 0.2727603493990933 0.2179177636156145 0.4110629904871952 0.03613281251339134 0.1865842946434242 0.03220613603417666 0.015625 0.003906249979622856 0.03613281250964634 0.003906249999999001 0.01171875038107161 0.02050781250096873 0.02343791584907901 0.00390625 0.00390625 0.08398439860700385 0.00390625 0.00390625 0.003906249999995837 0.02343750076214322 0.00390625 0.0078125 0.0078125 0.01171875038107161 0.00390625 0.00390625 0.00390625 0.00390625 0.00390625 1:62 2:6 3:19 4:32 5:32 6:13 7:10 8:62 9:6 10:18 11:32 12:32 13:13 14:13 
-0.00390625 -0.1386863589039234 0.2734374295753526 0.2179203761472918 0.4105971321730119 0.03613281251551181 0.1865820533681494 0.03222656249957984 0.015625 0.003906249979622856 0.03613281250992206 0.003906249999999001 0.01269531250000072 0.02050781250102096 0.02344180626686176 0.00390625 0.00390625 0.08301492782693176 0.00390625 0.00390625 0.003906249999995837 0.02441406250015715 0.00390625 0.0078125 0.0078125 0.01269531250000072 0.00390625 0.00390625 0.00390625 0.00390625 0.00390625 1:36 2:4 3:18 4:0 5:0 6:20 7:23 8:36 9:4 10:18 11:10 12:16 13:20 14:0 
-0.003896360519320297 -0.1380342703386354 0.2711821440650732 0.2168222727870688 0.4083884049050149 0.03503757623184356 0.1856517891059113 0.03117088414784008 0.01558544207721052 0.003896360498994722 0.03503757623182574 0.003896360519319242 0.01168913163249691 0.01947191311592178 0.0233778402343517 0.003896360519320297 0.003896360519320297 0.08265293553417705 0.003896360519320297 0.003896360519320297 0.003896360519316133 0.02337826326499376 0.003896360519320297 0.007792721038640593 0.007792721038640593 0.01168913163249691 0.003896360519320297 0.003896360519320297 0.003896360519320297 0.003896360519320297 0.003896360519320297 1:258 2:6 3:19 4:-1 5:-1 6:13 7:18 8:258 9:5 10:19 11:18 12:30 13:18 14:7 
-0.00390625 -0.1386869293489524 0.2734374325215314 0.2179203757607961 0.4109817304598188 0.03613281251804557 0.1865843549134834 0.03222656249957984 0.015625 0.003906249979622856 0.03613281251347084 0.003906249999999001 0.0126953125000005 0.02050781250102462 0.02344140997643618 0.00390625 0.00390625 0.08301325587806518 0.00390625 0.00390625 0.003906249999995837 0.0244140625002629 0.00390625 0.0078125 0.0078125 0.0126953125000005 0.00390625 0.00390625 0.00390625 0.00390625 0.00390625 1:239 2:3 3:19 4:32 5:6 6:18 7:25 8:239 9:3 10:19 11:32 12:32 13:18 14:25 
-0.00390625 -0.1387091739137186 0.2734375294748799 0.2179203789063792 0.4111258129922766 0.03613281251870271 0.1857078848084497 0.03222656249957984 0.015625 0.003906249979622856 0.03613281251579537 0.003906249999999001 0.0126953125000005 0.02050781250107642 0.02344040545335563 0.00390625 0.00390625 0.08301541168055837 0.00390625 0.00390625 0.003906249999995837 0.02441406250041916 0.00390625 0.0078125 0.0078125 0.0126953125000005 0.00390625 0.00390625 0.00390625 0.00390625 0.00390625 1:74 2:4 3:19 4:15 5:25 6:0 7:32 8:74 9:5 10:19 11:18 12:25 13:18 14:32 
-0.0039062499882207 -0.1386797871886912 0.2726538936814026 0.2179154695819243 0.4109606643953966 0.03613281154711562 0.1857395530913647 0.03124999989902677 0.0156249999528244 0.003906249961663888 0.03515624937778089 0.003906249982040033 0.01171874982601739 0.01953124966835279 0.02441394512070816 0.003906249982041032 0.003906249982041032 0.08328501251454568 0.003906249982041032 0.003906249982041032 0.003906249982036869 0.0234374996520349 0.003906249982041032 0.00781249996408212 0.00781249996408212 0.01171874982601739 0.003906249982041032 0.003906249982041032 0.003906249982041032 0.003906249982041032 0.003906249982041032 1:154 2:6 3:19 4:18 5:18 6:32 7:25 8:154 9:6 10:19 11:18 12:18 13:23 14:19 
-0.003906246751841036 -0.1386868945404831 0.2734373088865519 0.2179175821100742 0.410960336750223 0.03515623538328994 0.1865271275858292 0.03124998700736348 0.01562499350361179 0.003906249979622783 0.03515623051103317 0.00390624999999889 0.01171874512776272 0.01953124187960503 0.02343748375073001 0.003906249999999944 0.003906249999999944 0.08301485839413048 0.003906249999999944 0.003906249999999944 0.003906250001057349 0.02343749025552549 0.003906249999999944 0.0078125 0.0078125 0.01171874512776272 0.003906249999999944 0.003906249999999944 0.003906249999999944 0.003906249999999944 0.003906249999999944 1:41 2:3 3:19 4:18 5:25 6:18 7:30 8:41 9:3 10:19 11:18 12:23 13:18 14:32 
-0.00390625 -0.1387480525595108 0.2725763230083849 0.2179321296033352 0.4109815928042296 0.03613281251869904 0.1857122109293108 0.03222656249957984 0.015625 0.003906249979622856 0.0361328125167123 0.003906249999999001 0.01269531250000039 0.02050781250129863 0.0234388506764831 0.00390625 0.00390625 0.08301526873641035 0.00390625 0.00390625 0.003906249999995837 0.02441406250052269 0.00390625 0.0078125 0.0078125 0.01269531250000039 0.00390625 0.00390625 0.00390625 0.00390625 0.00390625 1:73 2:3 3:19 4:0 5:23 6:32 7:18 8:73 9:3 10:19 11:20 12:32 13:18 14:25 
-0.00390625 -0.1389007857125076 0.2734375551483369 0.2179192447642306 0.4110613584509175 0.03613281252682843 0.1857652716412556 0.03222656249957984 0.015625 0.003906249979622856 0.03613281251690031 0.003906249999999001 0.01269531250000039 0.02050781250195532 0.02343868958289153 0.00390625 0.00390625 0.08301788725874093 0.00390625 0.00390625 0.003906249999995837 0.02441406250050088 0.00390625 0.0078125 0.0078125 0.01269531250000039 0.00390625 0.00390625 0.00390625 0.00390625 0.00390625 1:179 2:5 3:18 4:4 5:16 6:18 7:18 8:179 9:5 10:18 11:4 12:16 13:15 14:32 
-0.00390625 -0.1386734832053217 0.2734375549102523 0.2179327354004179 0.4111284054895475 0.03613281252958989 0.1857122902015446 0.03222656249957984 0.015625 0.003906249979622856 0.03567648552411073 0.003906249999999001 0.01269531250000333 0.02050781250211337 0.02343844199997458 0.00390625 0.00390625 0.08301541571597471 0.00390625 0.00390625 0.003906249999995837 0.02412077395060613 0.00390625 0.0078125 0.0078125 0.01269531250000333 0.00390625 0.00390625 0.00390625 0.00390625 0.00390625 1:217 2:6 3:19 4:19 5:23 6:32 7:1 8:217 9:6 10:19 11:0 12:32 13:4 14:16 
-0.00390625 -0.1386735982514185 0.2734375556709901 0.2179329000722339 0.4104269146273984 0.03613281252958656 0.1857393861013437 0.03222656249957984 0.015625 0.003906249979622856 0.03567637727490397 0.003906249999999001 0.01240202394675455 0.02050781250246958 0.02343843658455441 0.00390625 0.00390625 0.08302492599167471 0.00390625 0.00390625 0.003906249999995837 0.02412077395009643 0.00390625 0.0078125 0.0078125 0.01240202394675455 0.00390625 0.00390625 0.00390625 0.00390625 0.00390625 1:18 2:4 3:16 4:30 5:4 6:25 7:32 8:18 9:4 10:18 11:30 12:18 13:25 14:32 
-0.003906249999999889 -0.1386799490181219 0.2734375059089817 0.2179152771805943 0.4109122627554728 0.0351563567186654 0.1865272820721214 0.03213847988691088 0.01562499999999967 0.003906249979622745 0.03517080255761695 0.003906249999998834 0.01269531249999983 0.01953125095268926 0.02347663369619934 0.003906249999999889 0.003906249999999889 0.08319906032475471 0.003906249999999889 0.003906249999999889 0.003906249999995726 0.02441406250096198 0.003906249999999889 0.007812499999999833 0.007812499999999833 0.01269531249999983 0.003906249999999889 0.003906249999999889 0.003906249999999889 0.003906249999999889 0.003906249999999889 1:258 2:6 3:19 4:16 5:25 6:10 7:16 8:258 9:5 10:13 11:23 12:19 13:7 14:18 
-0.00390625 -0.1386797919558195 0.2734375569361777 0.2179336135872293 0.410429994234589 0.03613281253405864 0.1857395569799344 0.03222656249957984 0.015625 0.003906249979622856 0.03539280762575614 0.003906249999999001 0.01240202394615492 0.02050781250322448 0.02343817763314626 0.00390625 0.00390625 0.08302660196849854 0.00390625 0.00390625 0.003906249999995837 0.02439363603930195 0.00390625 0.0078125 0.0078125 0.01240202394615492 0.00390625 0.00390625 0.00390625 0.00390625 0.00390625 1:258 2:6 3:19 4:10 5:16 6:32 7:6 8:258 9:6 10:19 11:32 12:1 13:13 14:7 
-0.00390625 -0.1386797919895965 0.2734375388681036 0.2179480873185385 0.4109835159913278 0.03613281253731854 0.18573988740066 0.03222656249957989 0.015625 0.003906249979622856 0.03539267921878564 0.003906249999999001 0.01267488603712696 0.02050781250405059 0.02343815119894188 0.00390625 0.00390625 0.0830572794603876 0.00390625 0.00390625 0.003906249999995837 0.0243936360375846 0.00390625 0.0078125 0.0078125 0.01267488603712696 0.00390625 0.00390625 0.00390625 0.00390625 0.00390625 1:168 2:6 3:19 4:-1 5:-1 6:4 7:16 8:168 9:5 10:19 11:18 12:25 13:0 14:32 
-0.00390625 -0.1380587164207868 0.2712088789345533 0.2168243305622093 0.4084197403598395 0.03506754512109861 0.1856051797391768 0.03125 0.015625 0.003906249979622856 0.03506754512108912 0.003906249999999001 0.01169897103864059 0.01948195282020948 0.02339751809572143 0.00390625 0.00390625 0.08265565650312154 0.00390625 0.00390625 0.003906249999995837 0.02339794207728119 0.00390625 0.0078125 0.0078125 0.01169897103864059 0.00390625 0.00390625 0.00390625 0.00390625 0.00390625 1:258 2:0 3:19 4:-1 5:-1 6:19 7:18 8:258 9:6 10:19 11:19 12:30 13:18 14:7 
-0.00390625 -0.1386799490180575 0.2734375407402858 0.2179634920165438 0.4109817304598188 0.03613281253686768 0.1857414112015873 0.03222656249957989 0.015625 0.003906249979622856 0.03539216740862022 0.003906249999999001 0.01267488603501699 0.02050781250350558 0.02343812759349917 0.00390625 0.00390625 0.08301541571597471 0.00390625 0.00390625 0.003906249999995837 0.02378612377042105 0.00390625 0.0078125 0.0078125 0.01267488603501699 0.00390625 0.00390625 0.00390625 0.00390625 0.00390625 1:30 2:5 3:18 4:-1 5:-1 6:18 7:4 8:30 9:5 10:18 11:18 12:4 13:18 14:4 
-0.00390625 -0.1386817162139667 0.2734375294755162 0.2179687732619242 0.4105968773618727 0.03613281253994549 0.1857644666298272 0.03222656249957989 0.015625 0.003906249979622856 0.03539216733912753 0.003906249999999001 0.01189306188521061 0.02050781250425837 0.0234379958334931 0.00390625 0.00390625 0.08301325587807878 0.00390625 0.00390625 0.003906249999995837 0.02378603253730821 0.00390625 0.0078125 0.0078125 0.01189306188521061 0.00390625 0.00390625 0.00390625 0.00390625 0.00390625 1:18 2:4 3:4 4:18 5:32 6:18 7:25 8:18 9:4 10:4 11:18 12:32 13:16 14:25 
-0.003906249999999944 -0.13869351674061 0.2726537896438138 0.2179154777484431 0.410971356305837 0.03613281258588541 0.1857078848084489 0.03222656249957967 0.015625 0.0039062499796228 0.03524495487889157 0.003906249999998908 0.01172129551163218 0.02048738604145556 0.02441394516156364 0.003906249999999944 0.003906249999999944 0.08301077031759285 0.003906249999999944 0.003906249999999944 0.003906249999995781 0.02441406250077371 0.003906249999999944 0.0078125 0.0078125 0.01172129551163218 0.003906249999999944 0.003906249999999944 0.003906249999999944 0.003906249999999944 0.003906249999999944 1:26 2:5 3:19 4:32 5:25 6:0 7:23 8:26 9:5 10:19 11:32 12:1 13:18 14:18 
-0.003906249999784728 -0.1382813954422398 0.2734375214511877 0.2179141569129711 0.4110612631742088 0.03613281269285751 0.1865808164729404 0.03124999999827788 0.01562499999913769 0.003906249979407583 0.03613281249996825 0.003906249999783673 0.01171874999935416 0.02050781249864664 0.02343749999597861 0.003906249999784728 0.003906249999784728 0.08312613206189168 0.003906249999784728 0.003906249999784728 0.003906249999780564 0.0244140624980629 0.003906249999784728 0.007812499999569456 0.007812499999569456 0.01171874999935416 0.003906249999784728 0.003906249999784728 0.003906249999784728 0.003906249999784728 0.003906249999784728 1:172 2:4 3:19 4:32 5:4 6:25 7:18 8:172 9:4 10:19 11:18 12:30 13:18 14:-1 
-0.00390625 -0.1384841056785411 0.2734375845133827 0.217948090039027 0.411064025601706 0.03613281278303076 0.1865792642082251 0.03125 0.015625 0.003906249979622856 0.03613281250278044 0.003906249999999001 0.01171874999956948 0.02050781249864663 0.0244139479985534 0.00390625 0.00390625 0.08305727945111802 0.00390625 0.00390625 0.003906249999995837 0.02441406249822435 0.00390625 0.0078125 0.0078125 0.01171874999956948 0.00390625 0.00390625 0.00390625 0.00390625 0.00390625 1:172 2:4 3:19 4:32 5:4 6:25 7:32 8:172 9:4 10:19 11:23 12:20 13:18 14:-1 
-0.00390625 -0.1386820573034461 0.273437537523595 0.2179177618837462 0.4105970312058451 0.03613281257370055 0.1857891194954807 0.03222656249957989 0.015625 0.003906249979622856 0.03515668265426347 0.003906249999999001 0.01189301626865408 0.02048738603994416 0.02343795963496476 0.00390625 0.00390625 0.08398439860700396 0.00390625 0.00390625 0.003906249999995837 0.0235559714761181 0.00390625 0.0078125 0.0078125 0.01189301626865408 0.00390625 0.00390625 0.00390625 0.00390625 0.00390625 1:172 2:2 3:19 4:10 5:16 6:18 7:0 8:172 9:4 10:19 11:32 12:25 13:18 14:18 
-0.00390625 -0.1387113280252204 0.2726537696041542 0.2179480716636139 0.4109877262627002 0.03609195760487294 0.1857122751954361 0.03125 0.015625 0.003906249979622856 0.03515624871134682 0.003906249999999001 0.0117187495704506 0.01953124928408406 0.02441395084107728 0.00390625 0.00390625 0.08398439972984817 0.00390625 0.00390625 0.003906249999995837 0.02343749914090121 0.00390625 0.0078125 0.0078125 0.0117187495704506 0.00390625 0.00390625 0.00390625 0.00390625 0.00390625 1:36 2:5 3:18 4:15 5:25 6:0 7:32 8:36 9:4 10:18 11:32 12:25 13:21 14:16 
-0.003906249999869438 -0.1386733268323371 0.2727212511387681 0.2179142275551844 0.410942254440196 0.03613281251355227 0.1865813480699775 0.03124999999895545 0.01562499999947653 0.003906249979492238 0.03613281250129102 0.003906249999868328 0.01171874999973889 0.02050781249966266 0.02343749999881095 0.003906249999869382 0.003906249999869382 0.08301185411762735 0.003906249999869382 0.003906249999869382 0.003906249999865219 0.02441406249895598 0.003906249999869382 0.007812499999738876 0.007812499999738876 0.01171874999973889 0.003906249999869382 0.003906249999869382 0.003906249999869382 0.003906249999869382 0.003906249999869382 1:258 2:6 3:19 4:25 5:23 6:18 7:18 8:258 9:6 10:19 11:18 12:25 13:0 14:32 
-0.00390625 -0.1386863575164201 0.2734375214819155 0.2179845149897944 0.4111277157031043 0.03613281259016726 0.1857660892525452 0.03222656249957989 0.015625 0.003906249979622856 0.03515635671834016 0.003906249999999001 0.0117779857380591 0.01982086976475955 0.02343749912646992 0.00390625 0.00390625 0.08398439958034237 0.00390625 0.00390625 0.003906249999995837 0.02355571460982941 0.00390625 0.0078125 0.0078125 0.0117779857380591 0.00390625 0.00390625 0.00390625 0.00390625 0.00390625 1:14 2:4 3:16 4:7 5:4 6:18 7:25 8:14 9:4 10:16 11:25 12:4 13:29 14:18 
-0.00390625 -0.1386732751201792 0.2725763194793788 0.2179153338834502 0.4109825367269391 0.03613281238781293 0.1858392352808978 0.03125000000000002 0.015625 0.003906249979622858 0.03515624992598523 0.003906249999999001 0.01171874997532993 0.0195312499588834 0.02441395244725397 0.003906250000000003 0.003906250000000003 0.08301076996398464 0.003906250000000003 0.003906250000000003 0.003906249999995839 0.02343749995065975 0.003906250000000003 0.007812500000000005 0.007812500000000005 0.01171874997532993 0.003906250000000003 0.003906250000000003 0.003906250000000003 0.003906250000000003 0.003906250000000003 1:14 2:4 3:16 4:25 5:4 6:29 7:18 8:14 9:4 10:16 11:25 12:4 13:18 14:25 
-0.003906249999999984 -0.1384841056937747 0.2727224863390141 0.2179141586872589 0.4110626356210212 0.03515626856959524 0.1857890136159228 0.0322265624995785 0.01660156249999006 0.00390624997962284 0.03613281250363948 0.003906249999998834 0.01269531249999952 0.01953125008507694 0.02345890846021031 0.003906249999999984 0.003906249999999984 0.08301699805497342 0.003906249999999984 0.003906249999999984 0.003906249999995821 0.02441406250092187 0.003906249999999984 0.007812500000000024 0.007812500000000024 0.01269531249999952 0.003906249999999984 0.003906249999999984 0.003906249999999984 0.003906249999999984 0.003906249999999984 1:258 2:6 3:19 4:0 5:20 6:7 7:18 8:258 9:1 10:19 11:0 12:32 13:7 14:18 
-0.003906249999645062 -0.1387049719177039 0.2734375382351499 0.2179153857767217 0.4109422535149512 0.03593622219281795 0.1865359999024793 0.03124999999716066 0.01562499999857914 0.003906249979267917 0.0361328124975025 0.003906249999644007 0.01171874999893526 0.02050781249752735 0.02343749999430284 0.003906249999645062 0.003906249999645062 0.08329746175323449 0.003906249999645062 0.003906249999645062 0.003906249999640898 0.02441406249680604 0.003906249999645062 0.007812499999290179 0.007812499999290179 0.01171874999893526 0.003906249999645062 0.003906249999645062 0.003906249999645062 0.003906249999645062 0.003906249999645062 1:258 2:6 3:19 4:32 5:25 6:18 7:32 8:258 9:6 10:18 11:4 12:16 13:19 14:12 
-0.003906253248158971 -0.138682057303432 0.2732342185695067 0.2179179529477393 0.4110640523149732 0.03595664813653718 0.1858397654070133 0.0319332739457282 0.015625 0.003906249979622859 0.03515628446062025 0.003906249999999001 0.01172072917734407 0.01953125002479573 0.02343749999985469 0.003906250000000003 0.003906250000000003 0.08301076493999349 0.003906250000000003 0.003906250000000003 0.00390624999999584 0.02344145835468814 0.003906250000000003 0.007812500000000007 0.007812500000000007 0.01172072917734407 0.003906250000000003 0.003906250000000003 0.003906250000000003 0.003906250000000003 0.003906250000000003 1:73 2:3 3:19 4:20 5:23 6:18 7:32 8:73 9:3 10:19 11:32 12:32 13:18 14:19 
-0.00390625 -0.138698879752077 0.2734375232730641 0.2179835232293068 0.4110644124815107 0.03613281269220481 0.1857669047531821 0.03222656249957989 0.015625 0.003906249979622856 0.03515627037068675 0.003906249999999001 0.01177785730491476 0.01982080327074282 0.02412067150043212 0.00390625 0.00390625 0.08323553740836231 0.00390625 0.00390625 0.003906249999995837 0.02355545880855858 0.00390625 0.0078125 0.0078125 0.01177785730491476 0.00390625 0.00390625 0.00390625 0.00390625 0.00390625 1:18 2:4 3:16 4:32 5:4 6:25 7:13 8:18 9:4 10:16 11:32 12:4 13:25 14:3 
-0.00390625 -0.1387113384568317 0.2734375615221601 0.2179845149518082 0.4110612631482161 0.03613281253019568 0.1865314887026683 0.03125 0.015625 0.003906249979622856 0.03613281249592804 0.003906249999999001 0.01171874999929016 0.02050781249757207 0.02439353060431465 0.00390625 0.00390625 0.08305727944517349 0.00390625 0.00390625 0.003906249999995837 0.02441406249707224 0.00390625 0.0078125 0.0078125 0.01171874999929016 0.00390625 0.00390625 0.00390625 0.00390625 0.00390625 1:258 2:6 3:19 4:30 5:20 6:18 7:32 8:258 9:6 10:19 11:0 12:30 13:13 14:18 
-0.00390625 -0.1387118311839122 0.2734375294518868 0.2179319361314864 0.4109717439860868 0.03595664826712724 0.1865807779777896 0.03125 0.015625 0.003906249979622856 0.0361328125052966 0.003906249999999001 0.01171874999965313 0.02033164727794881 0.0243935306062491 0.00390625 0.00390625 0.08323553740097722 0.00390625 0.00390625 0.003906249999995837 0.02441406249861092 0.00390625 0.0078125 0.0078125 0.01171874999965313 0.00390625 0.00390625 0.00390625 0.00390625 0.00390625 1:108 2:5 3:19 4:-1 5:25 6:18 7:18 8:108 9:5 10:19 11:0 12:25 13:4 14:16 
-0.003906249999825917 -0.1386820572060368 0.2727976786839142 0.2181473491892889 0.4110639445176753 0.03595664810586718 0.1865266936860926 0.03124999999860988 0.01562499999930134 0.003906249979448773 0.03613281247863387 0.00390624999834388 0.01171874999651555 0.02033164726304895 0.02343749999054995 0.003906249999825917 0.003906249999825917 0.08301826541042767 0.003906249999825917 0.003906249999825917 0.003906249999821754 0.02343749999303121 0.003906249999825917 0.007812499999651945 0.007812499999651945 0.01171874999651555 0.003906249999825917 0.003906249999825917 0.003906249999825917 0.003906249999825917 0.003906249999825917 1:108 2:5 3:19 4:-1 5:25 6:18 7:18 8:108 9:5 10:19 11:18 12:25 13:4 14:16 
-0.00390625 -0.1387044668906152 0.2725763206307101 0.2179845346653942 0.4109717440229136 0.03613281262837476 0.1857891010507959 0.03222656249957989 0.015625 0.003906249979622856 0.03515627037066776 0.003906249999999001 0.01177772940427924 0.02050781250268069 0.02412067142332341 0.00390625 0.00390625 0.08398441334182893 0.00390625 0.00390625 0.003906249999995837 0.0235554586695732 0.00390625 0.0078125 0.0078125 0.01177772940427924 0.00390625 0.00390625 0.00390625 0.00390625 0.00390625 1:26 2:4 3:0 4:0 5:32 6:32 7:19 8:26 9:5 10:0 11:29 12:25 13:23 14:19 
-0.00390625 -0.1387091399826698 0.2727204268883084 0.2179846158866855 0.411062635591175 0.03613281272709568 0.1858392308102917 0.03222656249957989 0.015625 0.003906249979622856 0.03515625804878214 0.003906249999999001 0.01177772933478655 0.02050781250159395 0.02412067142332341 0.00390625 0.00390625 0.08398441813084978 0.00390625 0.00390625 0.003906249999995837 0.02349673673500624 0.00390625 0.0078125 0.0078125 0.01177772933478655 0.00390625 0.00390625 0.00390625 0.00390625 0.00390625 1:117 2:5 3:32 4:18 5:0 6:32 7:32 8:117 9:5 10:19 11:25 12:20 13:0 14:32 
-0.00390625 -0.1387125239741472 0.2734375641760577 0.2179177615092306 0.4110640523149946 0.03515626363971452 0.1858411670160243 0.03197210182931753 0.015625 0.003906249979622856 0.03613281251315276 0.003906249999999001 0.01171875000015093 0.01953125002474465 0.02441394515756395 0.00390625 0.00390625 0.0830159191074395 0.00390625 0.00390625 0.003906249999995837 0.02441406250092218 0.00390625 0.0078125 0.0078125 0.01171875000015093 0.00390625 0.00390625 0.00390625 0.00390625 0.00390625 1:258 2:6 3:19 4:25 5:23 6:13 7:13 8:258 9:6 10:19 11:18 12:7 13:18 14:19 
-0.00390625 -0.1389007857125603 0.2734375059089932 0.2179845346633726 0.4110639699066343 0.03613281274594976 0.1858397654070307 0.03222656249957989 0.015625 0.003906249979622856 0.03515625804878214 0.003906249999999001 0.01174836836750309 0.02050781250195555 0.02441394510044054 0.00390625 0.00390625 0.08300949203707636 0.00390625 0.00390625 0.003906249999995837 0.02347705792271881 0.00390625 0.0078125 0.0078125 0.01174836836750309 0.00390625 0.00390625 0.00390625 0.00390625 0.00390625 1:108 2:5 3:19 4:0 5:32 6:18 7:25 8:108 9:5 10:19 11:4 12:16 13:18 14:32 
-0.00390625 -0.1389007857125457 0.273437506394604 0.2179860714380841 0.411063948052906 0.03613281275232799 0.1858648407431482 0.03222656249957989 0.015625 0.003906249979622856 0.03515625649631643 0.003906249999999001 0.01173852896135941 0.02050781250096873 0.02441394513014533 0.00390625 0.00390625 0.08301178641011131 0.00390625 0.00390625 0.003906249999995837 0.02345930874770003 0.00390625 0.0078125 0.0078125 0.01173852896135941 0.00390625 0.00390625 0.00390625 0.00390625 0.00390625 1:236 2:6 3:19 4:-1 5:23 6:22 7:9 8:236 9:6 10:19 11:18 12:3 13:18 14:18 
-0.004628351829523846 -0.1385914914580862 0.2734375382862488 0.217916850117139 0.4111271638076848 0.03515627037079115 0.1857652691464853 0.03213847988691571 0.01562499999999961 0.0039062499796228 0.03613281250374589 0.003906249999998945 0.0126953124999998 0.01953125082284751 0.02439353060857023 0.003906249999999944 0.003906249999999944 0.08301832787071467 0.003906249999999944 0.003906249999999944 0.003906249999995849 0.02441406250071004 0.003906249999999944 0.007812499999999833 0.007812499999999833 0.0126953124999998 0.003906249999999944 0.003906249999999944 0.003906249999999944 0.003906249999999944 0.003906249999999944 1:236 2:6 3:19 4:18 5:25 6:18 7:32 8:236 9:6 10:19 11:25 12:23 13:7 14:18 
-0.00390625 -0.1389006944935416 0.2725465878572002 0.218165073118287 0.4111463506491387 0.03613281278703084 0.1863408236483043 0.03222656249957989 0.015625 0.003906249979622856 0.03515625649631643 0.003906249999999001 0.01172965437384998 0.0202429249769458 0.02441394508169231 0.00390625 0.00390625 0.08301325727862535 0.00390625 0.00390625 0.003906249999995837 0.02345780637787181 0.00390625 0.0078125 0.0078125 0.01172965437384998 0.00390625 0.00390625 0.00390625 0.00390625 0.00390625 1:108 2:5 3:19 4:16 5:7 6:25 7:0 8:108 9:5 10:19 11:4 12:16 13:0 14:32 
-0.00390625 -0.1389001878911305 0.2724962423488023 0.218217454980123 0.4109836056315409 0.0361328127870133 0.18634082685849 0.03222656249957989 0.015625 0.003906249979622856 0.03515625649631376 0.003906249999999001 0.01172890318893599 0.02050781250096867 0.02441394562954524 0.00390625 0.00390625 0.08305727946038755 0.00390625 0.00390625 0.003906249999995837 0.02345277484182462 0.00390625 0.0078125 0.0078125 0.01172890318893599 0.00390625 0.00390625 0.00390625 0.00390625 0.00390625 1:129 2:6 3:19 4:-1 5:-1 6:0 7:32 8:129 9:6 10:19 11:18 12:25 13:0 14:0 
-0.003902611860610194 -0.1384391857444789 0.2722170848217086 0.2173770589518547 0.4101586557357282 0.03511259232453023 0.1853690909330733 0.03122089487816365 0.01561044744236806 0.003902611840252035 0.03511259232451758 0.00390261186060914 0.0117078355790432 0.01950942116087206 0.02341527124306586 0.003902611860610194 0.003902611860610194 0.0828735470758285 0.003902611860610194 0.003902611860610194 0.003902611860606031 0.02341567115808624 0.003902611860610194 0.007805223721220389 0.007805223721220389 0.0117078355790432 0.003902611860610194 0.003902611860610194 0.003902611860610194 0.003902611860610194 0.003902611860610194 1:57 2:3 3:19 4:-1 5:18 6:21 7:18 8:57 9:3 10:19 11:23 12:25 13:21 14:18 
-0.00390625 -0.1384599931302302 0.2727744961983985 0.2180963524880629 0.4110639709735415 0.03613281293018583 0.1865147400889144 0.03222656249957989 0.015625 0.003906249979622856 0.03515625282725698 0.003906249999999001 0.01172638742091225 0.02050781250107669 0.02441394576423178 0.00390625 0.00390625 0.08312587622128559 0.00390625 0.00390625 0.003906249999995837 0.02344818286871736 0.00390625 0.0078125 0.0078125 0.01172638742091225 0.00390625 0.00390625 0.00390625 0.00390625 0.00390625 1:121 2:6 3:19 4:25 5:18 6:19 7:0 8:121 9:6 10:19 11:18 12:25 13:25 14:0 
-0.00390625 -0.13828097220501 0.272722680277793 0.2179152518784087 0.4110629904871961 0.03613281314493788 0.1865147400889144 0.03222656249957989 0.015625 0.003906249979622856 0.03515625171481562 0.003906249999999001 0.01172409143435871 0.02050781250159389 0.02441394585579187 0.00390625 0.00390625 0.0831262604440145 0.00390625 0.00390625 0.003906249999995837 0.02344818075151661 0.00390625 0.0078125 0.0078125 0.01172409143435871 0.00390625 0.00390625 0.00390625 0.00390625 0.00390625 1:263 2:2 3:19 4:19 5:32 6:18 7:18 8:263 9:5 10:19 11:25 12:0 13:18 14:0 
-0.00390625 -0.1385914335559095 0.2734374325215314 0.2179139055621461 0.4111291551763537 0.03613281261560847 0.1865266938445036 0.03222656249957989 0.015625 0.003906249979622856 0.03515625164569192 0.003906249999999001 0.01172409037575822 0.02050781250211331 0.02441394641752043 0.00390625 0.00390625 0.08390368590448621 0.00390625 0.00390625 0.003906249999995837 0.0234447762843526 0.00390625 0.0078125 0.0078125 0.01172409037575822 0.00390625 0.00390625 0.00390625 0.00390625 0.00390625 1:263 2:6 3:18 4:10 5:16 6:18 7:0 8:263 9:2 10:19 11:25 12:23 13:18 14:32 
-0.00390625 -0.1386732757040255 0.2727603493990937 0.217914192897696 0.4110612624058682 0.03613281280722996 0.1857395569799351 0.03222656249957989 0.015625 0.003906249979622856 0.03515625152427632 0.003906249999999001 0.01172238814217624 0.02050781250322464 0.02343750002328049 0.00390625 0.00390625 0.08301180214353943 0.00390625 0.00390625 0.003906249999995837 0.02344477627878072 0.00390625 0.0078125 0.0078125 0.01172238814217624 0.00390625 0.00390625 0.00390625 0.00390625 0.00390625 1:178 2:5 3:19 4:18 5:32 6:7 7:25 8:178 9:5 10:19 11:25 12:32 13:13 14:18 
-0.00390625 -0.1386733268475585 0.2727230953966666 0.2179203761472919 0.4104270488941257 0.03613281253540485 0.1865266938575872 0.03176361208431877 0.015625 0.003906249979622856 0.03515625128864447 0.003906249999999001 0.01172238813939031 0.02050781250350564 0.02343750001389172 0.00390625 0.00390625 0.08301213627117526 0.00390625 0.00390625 0.003906249999995837 0.02344462407791598 0.00390625 0.0078125 0.0078125 0.01172238813939031 0.00390625 0.00390625 0.00390625 0.00390625 0.00390625 1:181 2:6 3:19 4:18 5:18 6:32 7:25 8:181 9:6 10:19 11:18 12:18 13:32 14:18 
-0.00390625 -0.1386738451212385 0.2727221717118531 0.2179177633147819 0.4104269183349831 0.03613281256004752 0.1865272813113991 0.0318073384169334 0.015625 0.003906249979622856 0.03515625125661104 0.003906249999999001 0.01172231203895802 0.02048738604145545 0.02343750000966732 0.00390625 0.00390625 0.08301325587807878 0.00390625 0.00390625 0.003906249999995837 0.0234442746673269 0.00390625 0.0078125 0.0078125 0.01172231203895802 0.00390625 0.00390625 0.00390625 0.00390625 0.00390625 1:155 2:6 3:19 4:15 5:25 6:32 7:25 8:155 9:6 10:19 11:15 12:25 13:0 14:32 
-0.00390625 -0.1386738451212375 0.2725440070950408 0.217779271913233 0.4104269146221392 0.03613281252655498 0.186527281364064 0.0319332739457478 0.015625 0.003906249979622856 0.03515625125659932 0.003906249999999001 0.01172213733366345 0.02024292497631797 0.02343750000720929 0.00390625 0.00390625 0.08301492784764086 0.00390625 0.00390625 0.003906249999995837 0.02344427466732679 0.00390625 0.0078125 0.0078125 0.01172213733366345 0.00390625 0.00390625 0.00390625 0.00390625 0.00390625 1:99 2:6 3:19 4:32 5:1 6:32 7:18 8:99 9:6 10:32 11:32 12:17 13:3 14:19 
-0.00390625 -0.1386738451211288 0.2727226802777931 0.2179188667936126 0.4110678915426286 0.0361328125159025 0.1865272820721293 0.03193327394574741 0.015625 0.003906249979622856 0.0351562505728813 0.003906249999999001 0.0117221373336634 0.01953125001644729 0.02343750000572581 0.00390625 0.00390625 0.08301325587964026 0.00390625 0.00390625 0.003906249999995837 0.02344259103040869 0.00390625 0.0078125 0.0078125 0.0117221373336634 0.00390625 0.00390625 0.00390625 0.00390625 0.00390625 1:30 2:5 3:32 4:-1 5:23 6:15 7:25 8:30 9:5 10:32 11:2 12:2 13:7 14:18 
-0.003906249999996558 -0.1386862436542166 0.2734373171550279 0.2179137196960405 0.4111273632828133 0.03515623639426374 0.1857121325820673 0.03124999999999551 0.01562499999999656 0.003906249979622592 0.03515623639424981 0.003906248592117634 0.01171874659856451 0.01953124319713096 0.02343748535087598 0.003906249999999459 0.003906249999999459 0.08302730240631701 0.003906249999999459 0.003906249999999459 0.003906249999995296 0.02343749319712923 0.003906249999999459 0.007812499999998863 0.007812499999998863 0.01171874659856451 0.003906249999999459 0.003906249999999459 0.003906249999999459 0.003906249999999459 0.003906249999999459 1:100 2:4 3:18 4:20 5:21 6:32 7:6 8:100 9:4 10:18 11:20 12:21 13:25 14:19 
-0.00390625 -0.1386743362915713 0.2734375492466852 0.2179142069504032 0.4110615157492589 0.03613281251218753 0.1865272833549145 0.03193327394574358 0.015625 0.003906249979622856 0.03515625057272875 0.003906249999999001 0.0117212955152044 0.01953125001644723 0.02343750000518124 0.00390625 0.00390625 0.08390365700261837 0.00390625 0.00390625 0.003906249999995837 0.0234425910232644 0.00390625 0.0078125 0.0078125 0.0117212955152044 0.00390625 0.00390625 0.00390625 0.00390625 0.00390625 1:100 2:4 3:18 4:4 5:21 6:0 7:0 8:100 9:4 10:18 11:25 12:21 13:32 14:18 
-0.00390625 -0.1386738451198384 0.2734375063918787 0.2179198854552349 0.4109855923766763 0.03515627037045087 0.1865808018703046 0.03180733841638845 0.015625 0.003906249979622856 0.036132812506678 0.003906249999999001 0.01171885228861875 0.01953130335920045 0.02343749999900807 0.003906250000000001 0.003906250000000001 0.083011786344607 0.003906250000000001 0.003906250000000001 0.003906249999995837 0.02343770457723744 0.003906250000000001 0.007812500000000002 0.007812500000000002 0.01171885228861875 0.003906250000000001 0.003906250000000001 0.003906250000000001 0.003906250000000001 0.003906250000000001 1:229 2:6 3:19 4:4 5:25 6:25 7:18 8:229 9:6 10:19 11:18 12:18 13:32 14:25 
-0.00390625 -0.138712523972838 0.2727227982133448 0.2179188714676132 0.4111274236788105 0.03613281251159339 0.186527283931655 0.03193327394573642 0.015625 0.003906249979622856 0.036132812507844 0.003906249999999001 0.01172092732378471 0.01953125001532596 0.02343792358678692 0.00390625 0.00390625 0.08300957542270704 0.00390625 0.00390625 0.003906249999995837 0.02344185464756948 0.00390625 0.0078125 0.0078125 0.01172092732378471 0.00390625 0.00390625 0.00390625 0.00390625 0.00390625 1:63 2:6 3:19 4:18 5:30 6:18 7:32 8:63 9:6 10:19 11:18 12:25 13:25 14:32 
-0.003906247678800144 -0.1386861904069661 0.2734372465912477 0.2179152182969342 0.4111164079703692 0.03515623143009872 0.1865270628302276 0.03124998143025087 0.01562499071505491 0.003906247658423222 0.03515622214535175 0.003906247678799311 0.01171874535752448 0.01953124071504908 0.0244139181120954 0.003906247678800366 0.003906247678800366 0.08398429899114632 0.003906247678800366 0.003906247678800366 0.003906247678796203 0.02343749071504897 0.003906247678800366 0.007812495357600677 0.007812495357600677 0.01171874535752448 0.003906247678800366 0.003906247678800366 0.003906247678800366 0.003906247678800366 0.003906247678800366 1:73 2:3 3:19 4:16 5:32 6:18 7:25 8:73 9:3 10:19 11:25 12:32 13:18 14:4 
-0.003906249999371558 -0.1385914335242196 0.2734375465655456 0.2179487331270077 0.4110615156467028 0.03613281312022121 0.1865300557326858 0.03124999999497213 0.01562499999748485 0.003906249978994414 0.03613281249903028 0.003906249999370504 0.0117187499980706 0.02050781249590639 0.0234374999946611 0.003906249999371558 0.003906249999371558 0.08312613204834106 0.003906249999371558 0.003906249999371558 0.003906249999367395 0.02441406249536832 0.003906249999371558 0.007812499998743005 0.007812499998743005 0.0117187499980706 0.003906249999371558 0.003906249999371558 0.003906249999371558 0.003906249999371558 0.003906249999371558 1:229 2:6 3:19 4:24 5:23 6:7 7:18 8:229 9:6 10:19 11:18 12:25 13:25 14:32 
-0.00390625 -0.1386630102081902 0.2726539033099702 0.2179152685173181 0.4111279889737504 0.03613281251339145 0.1865272839316548 0.0319721018293177 0.015625 0.003906249979622856 0.03613281250988171 0.003906249999999001 0.01172072917734518 0.01953125004111717 0.02343750000406869 0.00390625 0.00390625 0.08323509099659432 0.00390625 0.00390625 0.003906249999995837 0.02344145835469041 0.00390625 0.0078125 0.0078125 0.01172072917734518 0.00390625 0.00390625 0.00390625 0.00390625 0.00390625 1:241 2:1 3:19 4:24 5:23 6:25 7:23 8:241 9:1 10:19 11:25 12:0 13:25 14:24 
-0.00390625 -0.1389006949372659 0.27343879427826 0.2179319376552142 0.4110055921858402 0.03613281251218753 0.1865272929832443 0.03197210182931892 0.015625 0.003906249979622856 0.03595664730776432 0.003906249999999001 0.01172022691927532 0.01953125003828271 0.0234375000036971 0.00390625 0.00390625 0.08312626044401461 0.00390625 0.00390625 0.003906249999995837 0.02344045383855059 0.00390625 0.0078125 0.0078125 0.01172022691927532 0.00390625 0.00390625 0.00390625 0.00390625 0.00390625 1:128 2:6 3:19 4:24 5:23 6:7 7:18 8:128 9:6 10:19 11:18 12:25 13:25 14:32 
-0.00390625 -0.1389001866362432 0.2734374821290877 0.2179168501171461 0.4104476427525108 0.03613281251869899 0.1865299698125863 0.03197210182931892 0.015625 0.003906249979622856 0.03613281250650235 0.003906249999999001 0.01171944952986242 0.01953125008506168 0.0234375000036971 0.00390625 0.00390625 0.08305727946066321 0.00390625 0.00390625 0.003906249999995837 0.02343889905972502 0.00390625 0.0078125 0.0078125 0.01171944952986242 0.00390625 0.00390625 0.00390625 0.00390625 0.00390625 1:235 2:6 3:19 4:-1 5:-1 6:32 7:25 8:235 9:6 10:19 11:18 12:25 13:32 14:13 
-0.003906249809464357 -0.1387113249524212 0.2734375289960001 0.2182174752178997 0.4111288209050415 0.03595664476260224 0.1865891378981238 0.03125 0.015625 0.003906249979622856 0.03515624847570592 0.003906249999999001 0.01171874942840073 0.01953124923786559 0.02441394295537275 0.00390625 0.00390625 0.08302159884520177 0.00390625 0.00390625 0.003906249999995837 0.02343749885680158 0.00390625 0.0078125 0.0078125 0.01171874942840073 0.00390625 0.00390625 0.00390625 0.00390625 0.00390625 1:56 2:4 3:18 4:29 5:25 6:25 7:23 8:56 9:4 10:18 11:29 12:25 13:25 14:25 
-0.003906249999999833 -0.1386807665435095 0.2734374219150513 0.2179142069503697 0.4109848649321313 0.03613281312891552 0.1865813480824181 0.03222656249957495 0.01660156249998879 0.003906249979622578 0.03613281250352868 0.003906249999998668 0.01269531249999871 0.02033164727968309 0.02343749999985317 0.003906249999999722 0.003906249999999722 0.08312589173701683 0.003906249999999722 0.003906249999999722 0.003906249999995559 0.02441406250042735 0.003906249999999722 0.007812499999999389 0.007812499999999389 0.01269531249999871 0.003906249999999722 0.003906249999999722 0.003906249999999722 0.003906249999999722 0.003906249999999722 1:238 2:6 3:19 4:-1 5:-1 6:32 7:25 8:238 9:6 10:19 11:0 12:25 13:0 14:32 
-0.00390625 -0.138686358904353 0.273437561570895 0.2179152522085651 0.4104875799707825 0.03613281252669648 0.1865300047347025 0.03210177530963065 0.015625 0.003906249979622856 0.03613281251347078 0.003906249999999001 0.01171924248367984 0.01953125007339657 0.02343750000291184 0.00390625 0.00390625 0.08329746176858949 0.00390625 0.00390625 0.003906249999995837 0.02343848496735967 0.00390625 0.0078125 0.0078125 0.01171924248367984 0.00390625 0.00390625 0.00390625 0.00390625 0.00390625 1:18 2:4 3:16 4:32 5:4 6:25 7:13 8:18 9:-1 10:4 11:18 12:32 13:16 14:25 
-0.003906249998549993 -0.1384599218675679 0.2734374294810219 0.2179849880334648 0.411064141052308 0.0361328125132842 0.1865300046652834 0.03124999999999999 0.01562499999999878 0.003906249979622841 0.03613281249100846 0.003906249999998931 0.0117187499978251 0.02050781249470529 0.02343749999421179 0.003906249999999985 0.003906249999999985 0.0832350909654193 0.003906249999999985 0.003906249999999985 0.003906249999995822 0.0243936360306019 0.003906249999999985 0.007812500000000026 0.007812500000000026 0.0117187499978251 0.003906249999999985 0.003906249999999985 0.003906249999999985 0.003906249999999985 0.003906249999999985 1:208 2:6 3:19 4:18 5:18 6:25 7:19 8:208 9:6 10:19 11:19 12:25 13:23 14:18 
-0.00390625 -0.1386789993449124 0.2734375450281623 0.2179141076202434 0.410597132173012 0.03613281252958661 0.1865300047364822 0.03213847988691215 0.01613861208398765 0.003906249979622856 0.03613281251578859 0.003906249999999001 0.01171924242710559 0.01953125021267493 0.02343750000239359 0.00390625 0.00390625 0.08312613207099867 0.00390625 0.00390625 0.003906249999995837 0.02343848485421118 0.00390625 0.0078125 0.0078125 0.01171924242710559 0.00390625 0.00390625 0.00390625 0.00390625 0.00390625 1:82 2:6 3:19 4:25 5:7 6:25 7:20 8:82 9:6 10:19 11:20 12:25 13:0 14:0 
-0.00390625 -0.1384591620793789 0.273437507942968 0.2181473495705939 0.4110626353735345 0.03595664811707359 0.1865268069264882 0.03125 0.015625 0.003906249979622856 0.03613281248919251 0.003906249999999001 0.01171874999896813 0.02050781249388616 0.0234374999957792 0.00390625 0.00390625 0.08301493909286824 0.00390625 0.00390625 0.003906249999995837 0.0241207739389057 0.00390625 0.0078125 0.0078125 0.01171874999896813 0.00390625 0.00390625 0.00390625 0.00390625 0.00390625 1:155 2:6 3:19 4:-1 5:23 6:32 7:25 8:155 9:6 10:19 11:20 12:25 13:32 14:25 
-0.003906247754552783 -0.1388999222505415 0.2734369033219811 0.2179148187312759 0.4109114456381277 0.03515620355614185 0.1865261932762975 0.0312499996578443 0.0156249845218277 0.003906246110097433 0.03515620355613236 0.003906246130473523 0.0117187383890357 0.01953122677807073 0.02441389959718487 0.003906246130474578 0.003906246130474578 0.08328062115804935 0.003906246130474578 0.003906246130474578 0.003906246130470414 0.0234374767780714 0.003906246130474578 0.007812492260949211 0.007812492260949211 0.0117187383890357 0.003906246130474578 0.003906246130474578 0.003906246130474578 0.003906246130474578 0.003906246130474578 1:57 2:3 3:19 4:0 5:32 6:18 7:18 8:57 9:3 10:19 11:32 12:26 13:18 14:18 
-0.00390625 -0.1386863612638879 0.2734375106083849 0.2179142385883401 0.4109877564022518 0.03613281253686762 0.186530056057244 0.03213847988691459 0.01618233841776778 0.003906249979622856 0.03613281251690031 0.003906249999999001 0.01171911305471274 0.0195312501961909 0.02343750000146183 0.00390625 0.00390625 0.08312589173703039 0.00390625 0.00390625 0.003906249999995837 0.02343822610942548 0.00390625 0.0078125 0.0078125 0.01171911305471274 0.00390625 0.00390625 0.00390625 0.00390625 0.00390625 1:51 2:5 3:19 4:18 5:32 6:23 7:18 8:51 9:5 10:19 11:0 12:32 13:-1 14:-1 
-0.003906249999868938 -0.1382714824108197 0.2727029385337171 0.2178983808109058 0.4105664640026314 0.03515510968189484 0.1865681616656632 0.03124999999790695 0.01562499999947453 0.003906249979491794 0.03515510968240219 0.003906132003272944 0.01171846492061297 0.01953067984099677 0.02343676903329595 0.003906249999868938 0.003906249999868938 0.08300508658176708 0.003906249999868938 0.003906249999868938 0.003906249999864775 0.02343692984122623 0.003906249999868938 0.007812499999737876 0.007812499999737821 0.01171846492061297 0.003906249999868938 0.003906249999868938 0.003906249999868938 0.003906249999868938 0.003906249999868938 1:100 2:4 3:18 4:23 5:21 6:32 7:25 8:100 9:4 10:18 11:20 12:21 13:25 14:13 
-0.00390625 -0.1386869302219903 0.2734375066709008 0.217917841287861 0.4109122539364533 0.03613281254838124 0.1865300562733685 0.03213847988691698 0.01630827394614087 0.003906249979622856 0.0351573119262899 0.003906249999999001 0.01171910398906062 0.01953125076215079 0.02343750000107586 0.00390625 0.00390625 0.08302080524953442 0.00390625 0.00390625 0.003906249999995837 0.02343820797812124 0.00390625 0.0078125 0.0078125 0.01171910398906062 0.00390625 0.00390625 0.00390625 0.00390625 0.00390625 1:51 2:5 3:19 4:-1 5:25 6:0 7:31 8:51 9:5 10:19 11:32 12:6 13:18 14:18 
-0.00390624999999778 -0.1387528740411754 0.2725797648467892 0.218217496463583 0.4111279889732812 0.03613281261556726 0.1865820533679356 0.03193327394571137 0.01660156249997302 0.003906249979620635 0.03515625928484815 0.003906249999998957 0.01243106466119828 0.02050781250193223 0.02343749999983769 0.00390624999999778 0.00390624999999778 0.08329746176849476 0.00390624999999778 0.00390624999999778 0.003906249999993616 0.02414981466429705 0.00390624999999778 0.007812499999995504 0.007812499999995504 0.01243106466119828 0.00390624999999778 0.00390624999999778 0.00390624999999778 0.00390624999999778 0.00390624999999778 1:129 2:6 3:19 4:18 5:25 6:23 7:10 8:129 9:6 10:19 11:32 12:32 13:23 14:19 
-0.00390625 -0.138591897999535 0.2725763206378915 0.2179142358734592 0.4110625107215408 0.03613281258586692 0.1865316113757631 0.03213847988691704 0.01630827394614087 0.003906249979622856 0.03519580792270111 0.003906249999999001 0.01171909978891877 0.01953125071591616 0.02343750000087186 0.00390625 0.00390625 0.08312589171544071 0.00390625 0.00390625 0.003906249999995837 0.02343819957783749 0.00390625 0.0078125 0.0078125 0.01171909978891877 0.00390625 0.00390625 0.00390625 0.00390625 0.00390625 1:129 2:6 3:19 4:25 5:32 6:32 7:18 8:129 9:6 10:19 11:25 12:0 13:0 14:32 
-0.003904468980519715 -0.1385579459882098 0.2722966755583008 0.2177864388540472 0.4107551275991005 0.0351348777662337 0.1855713107299571 0.03126583341201405 0.01561787591272029 0.003904468960151897 0.03513487776622304 0.003904468980518661 0.01171340856563601 0.01952056388311557 0.02342641739794245 0.003904468980519715 0.003904468980519715 0.08294224554967444 0.003904468980519715 0.003904468980519715 0.003904468980515552 0.02342681713127208 0.003904468980519715 0.007808937961039375 0.007808937961039375 0.01171340856563601 0.003904468980519715 0.003904468980519715 0.003904468980519715 0.003904468980519715 0.003904468980519715 1:148 2:2 3:19 4:18 5:20 6:18 7:23 8:148 9:2 10:19 11:18 12:25 13:18 14:18 
-0.00390625 -0.1386734831961702 0.272722433960663 0.2179153348009547 0.4110627027065283 0.03613281258587403 0.1865807775901182 0.03222656249957984 0.01630827394614087 0.003906249979622856 0.03519580792270099 0.003906249999999001 0.01171908988102888 0.01953125062830785 0.0234375000000932 0.00390625 0.00390625 0.08304749012714724 0.00390625 0.00390625 0.003906249999995837 0.0234381797620577 0.00390625 0.0078125 0.0078125 0.01171908988102888 0.00390625 0.00390625 0.00390625 0.00390625 0.00390625 1:263 2:2 3:19 4:0 5:25 6:18 7:18 8:263 9:6 10:18 11:32 12:25 13:32 14:18 
-0.003906249999999944 -0.138280972205002 0.2734375615718333 0.2179140547379106 0.4104269146273752 0.03515627037077157 0.1863408184364246 0.03197210182931687 0.01660156249999001 0.003906249979622745 0.03613281250469802 0.003906249999998945 0.01269531249999956 0.01953125004807282 0.02345234202980467 0.003906249999999889 0.003906249999999889 0.08398441114703842 0.003906249999999889 0.003906249999999889 0.003906249999995726 0.02441406250091371 0.003906249999999889 0.007812499999999778 0.007812499999999778 0.01269531249999956 0.003906249999999889 0.003906249999999889 0.003906249999999889 0.003906249999999889 0.003906249999999889 1:263 2:6 3:18 4:32 5:25 6:32 7:18 8:263 9:6 10:19 11:25 12:30 13:13 14:18 
-0.003906244121069269 -0.1387234355752403 0.273436493463997 0.217913406791254 0.4105953864368086 0.03515616953717654 0.1863401517161149 0.03124999996065247 0.01562497648420674 0.00390624410069218 0.03515619305467706 0.003906248775259525 0.01171872988605698 0.01953120976789835 0.02343742291797601 0.003906244121069269 0.003906244121069269 0.08340616224794895 0.003906244121069269 0.003906244121069269 0.003906244121065106 0.02343745977211396 0.003906244121069269 0.007812488242138704 0.007812488242138704 0.01171872988605698 0.003906244121069269 0.003906244121069269 0.003906244121069269 0.003906244121069269 0.003906244121069269 1:100 2:4 3:18 4:18 5:21 6:18 7:18 8:100 9:4 10:18 11:18 12:21 13:18 14:18 
-0.003906249685849017 -0.1386733042228147 0.2727013074678736 0.2179319120994696 0.4109121877488465 0.03595664256646619 0.1865866328676739 0.03124999748679318 0.01562499874332923 0.003906249665471984 0.03515624623017288 0.003906249685848018 0.01171874905754422 0.01953124811508866 0.02441394878011793 0.003906249685849128 0.003906249685849128 0.08301590591003821 0.003906249685849128 0.003906249685849128 0.003906249685844909 0.02343749811508861 0.003906249685849128 0.00781249937169809 0.00781249937169809 0.01171874905754422 0.003906249685849128 0.003906249685849128 0.003906249685849128 0.003906249685849128 0.003906249685849128 1:33 2:3 3:19 4:32 5:23 6:18 7:18 8:33 9:3 10:19 11:25 12:23 13:18 14:18 
-0.003904270822655376 -0.1385448863153446 0.2724462671053464 0.2175602246776113 0.4107119623785623 0.03513230175978388 0.1855246488675427 0.03123416657454142 0.01561708329055062 0.003904270802288501 0.03513230175977206 0.003904270822654321 0.01171261432152604 0.01951917680094534 0.0234251802672531 0.003904270822655376 0.003904270822655376 0.08293454222962898 0.003904270822655376 0.003904270822655376 0.003904270822651212 0.02342522864305191 0.003904270822655376 0.00780854164531064 0.00780854164531064 0.01171261432152604 0.003904270822655376 0.003904270822655376 0.003904270822655376 0.003904270822655376 0.003904270822655376 1:28 2:4 3:10 4:25 5:23 6:10 7:18 8:28 9:4 10:10 11:25 12:23 13:10 14:18 
-0.003906249987627342 -0.1389001857228587 0.2725778687583887 0.2179154770561531 0.4104476414637377 0.03613281241810984 0.1857890996556758 0.03124999999989375 0.01562499997522693 0.003906249979609575 0.03595664719194902 0.003906249999985664 0.01171874998758762 0.0195312499690089 0.02441395248023936 0.003906249999986719 0.003906249999986719 0.08301541141606222 0.003906249999986719 0.003906249999986719 0.003906249999982556 0.02343749997517502 0.003906249999986719 0.007812499987614019 0.007812499987614019 0.01171874998758762 0.003906249999986719 0.003906249999986719 0.003906249999986719 0.003906249999986719 0.003906249999986719 1:123 2:6 3:19 4:25 5:25 6:32 7:25 8:123 9:6 10:19 11:25 12:25 13:32 14:25 
-0.00390625 -0.1386820573233613 0.272722535019487 0.217933178024422 0.4109883810034857 0.03613281272709013 0.1865855011232985 0.03126425536820227 0.01562500649624626 0.003906249979622856 0.03515626461669341 0.003906249999999001 0.01269531249999879 0.02050781250331516 0.02343755693348304 0.00390625 0.00390625 0.08302618998391527 0.00390625 0.00390625 0.003906249999995892 0.02441406250034481 0.00390625 0.0078125 0.0078125 0.01269531249999879 0.00390625 0.00390625 0.00390625 0.00390625 0.00390625 1:240 2:1 3:19 4:-1 5:-1 6:23 7:32 8:240 9:1 10:19 11:15 12:25 13:0 14:32 
-0.00390625 -0.138676059664489 0.2734375080851817 0.2179177384724456 0.4110627027065282 0.03613281269694762 0.1865808018721152 0.03222656249958006 0.01660156249999101 0.003906249979622856 0.03518895295619129 0.003906249999999001 0.01171908798584059 0.01953125062830197 0.02343750000002204 0.00390625 0.00390625 0.08329746176832742 0.00390625 0.00390625 0.003906249999995892 0.02343817597168113 0.00390625 0.0078125 0.0078125 0.01171908798584059 0.00390625 0.00390625 0.00390625 0.00390625 0.00390625 1:232 2:6 3:19 4:23 5:23 6:32 7:0 8:232 9:6 10:19 11:18 12:32 13:23 14:19 
-0.00390625 -0.1387026649765989 0.2727603493990934 0.2179198854572043 0.4110649739858189 0.03613281275232805 0.186535999936375 0.03220613603417692 0.0166015624999909 0.003906249979622861 0.03595664730342911 0.003906249999999006 0.01171876527797563 0.01953127546330088 0.02441394592418089 0.003906250000000005 0.003906250000000005 0.08312626045813415 0.003906250000000005 0.003906250000000005 0.003906249999995892 0.02343753055595116 0.003906250000000005 0.00781250000000001 0.00781250000000001 0.01171876527797563 0.003906250000000005 0.003906250000000005 0.003906250000000005 0.003906250000000005 0.003906250000000005 1:232 2:6 3:19 4:18 5:32 6:23 7:19 8:232 9:6 10:19 11:32 12:20 13:25 14:23 
-0.00390625 -0.1387477768907873 0.2734369088139457 0.2179149204453406 0.4110621860641393 0.03515621553975351 0.1865263281661128 0.03125000032871117 0.01562500000013184 0.003906249979622856 0.03515621553972492 0.003906249999999001 0.01171873851468008 0.01953123085637104 0.02441390001345423 0.00390625 0.00390625 0.0839842370653503 0.00390625 0.00390625 0.003906249999995892 0.02343747702936011 0.00390625 0.0078125 0.0078125 0.01171873851468008 0.00390625 0.00390625 0.00390625 0.00390625 0.00390625 1:51 2:5 3:19 4:0 5:30 6:18 7:18 8:51 9:5 10:19 11:24 12:32 13:18 14:18 
-0.003902862666336659 -0.1384759944164986 0.2723246177450863 0.2175381316846225 0.4102768356818322 0.03511560199603991 0.1854462821051278 0.03122288366512987 0.0156114506596427 0.003902862645977168 0.03512915133066517 0.003902862666335605 0.01170858799901003 0.01951092599801996 0.02341677352064736 0.003902862666336659 0.003902862666336659 0.0828828398685843 0.003902862666336659 0.003902862666336659 0.003902862666332496 0.02341717599802001 0.003902862666336659 0.007805725332673319 0.007805725332673319 0.01170858799901003 0.003902862666336659 0.003902862666336659 0.003902862666336659 0.003902862666336659 0.003902862666336659 1:156 2:6 3:19 4:-1 5:-1 6:32 7:25 8:156 9:6 10:19 11:25 12:25 13:23 14:18 
-0.00390625 -0.1386817162139411 0.2726539812222291 0.217779360394348 0.4109122539033825 0.03613281312890929 0.1865272833539569 0.03193327394572659 0.01562499999999989 0.003906249979622832 0.03515626548764017 0.003906249999999001 0.01171875201219558 0.02050781250404695 0.0234438756064218 0.003906249999999977 0.003906249999999977 0.08302791584809134 0.003906249999999977 0.003906249999999977 0.003906249999995813 0.02343750402439099 0.003906249999999977 0.007812500000000009 0.007812500000000009 0.01171875201219558 0.003906249999999977 0.003906249999999977 0.003906249999999977 0.003906249999999977 0.003906249999999977 1:156 2:6 3:19 4:25 5:25 6:25 7:24 8:156 9:6 10:19 11:25 12:25 13:32 14:6 
-0.003906249999999833 -0.1386789993299295 0.2734375552898997 0.2177795048996482 0.4110629904871649 0.03515625649631629 0.1857393861013297 0.03222656249957739 0.01660156249998979 0.003906249979622689 0.0351867125041274 0.003906249999998779 0.01269531249999937 0.01953125003591701 0.02343749999985484 0.003906249999999833 0.003906249999999833 0.08301232275338466 0.003906249999999833 0.003906249999999833 0.003906249999995854 0.0244140625007085 0.003906249999999833 0.007812499999999722 0.007812499999999722 0.01269531249999937 0.003906249999999833 0.003906249999999833 0.003906249999999833 0.003906249999999833 0.003906249999999833 1:156 2:6 3:19 4:-1 5:-1 6:7 7:18 8:156 9:6 10:19 11:25 12:25 13:32 14:25 
-0.00384727066521362 -0.1347951667875404 0.2647999748752902 0.2114089921735643 0.398948559447895 0.03444849791306936 0.1804160024284502 0.03077816531498617 0.01538908266078348 0.003847270645144063 0.03444849791305171 0.00384727066521251 0.01154181192614778 0.01917737392178837 0.02308322393723217 0.003847270665213509 0.003847270665213509 0.08086144338990692 0.003847270665213509 0.003847270665213509 0.003847270665209457 0.02308362385229534 0.003847270665213509 0.007694541330427074 0.007694541330427074 0.01154181192614778 0.003847270665213509 0.003847270665213509 0.003847270665213509 0.003847270665213509 0.003847270665213509 1:156 2:6 3:19 4:25 5:25 6:32 7:25 8:156 9:6 10:19 11:25 12:25 13:25 14:25 
-0.003906249999286016 -0.1342994434699066 0.2645536731765774 0.2115794932813828 0.3989945400524815 0.03463612271938643 0.1804405221136665 0.03124999999428729 0.01562499999714295 0.003906249978911813 0.03463612271936528 0.003906249999287958 0.01154448372992925 0.01924169672641318 0.02308857358403776 0.003906249999288958 0.003906249999288958 0.0808922204413744 0.003906249999288958 0.003906249999288958 0.003906249999284794 0.02308896745985839 0.003906249999288958 0.007812499998578026 0.007812499998578026 0.01154448372992925 0.003906249999288958 0.003906249999288958 0.003906249999288958 0.003906249999288958 0.003906249999288958 1:156 2:6 3:19 4:25 5:25 6:25 7:25 8:156 9:6 10:19 11:25 12:25 13:25 14:25 
-0.00390625 -0.1384723430016971 0.2727654519634719 0.2173491248909268 0.410274597840439 0.03512579924524681 0.1862606817912471 0.03127036405569883 0.01562500649624687 0.003906249979622856 0.03512578749581166 0.003906249999999001 0.01170859681106403 0.01951433095579168 0.02341777901892572 0.00390625 0.00390625 0.08288362815340528 0.00390625 0.00390625 0.003906249999995819 0.02341719362212817 0.00390625 0.007812500000000056 0.007812500000000056 0.01170859681106403 0.00390625 0.00390625 0.00390625 0.00390625 0.00390625 1:156 2:6 3:19 4:-1 5:-1 6:25 7:25 8:156 9:6 10:19 11:25 12:25 13:25 14:24 
-0.003906250001280864 -0.1386733264135678 0.272576319767784 0.2178051918906934 0.4104269130477263 0.03613281242097423 0.1857890939837136 0.03125000008752871 0.01562500004703427 0.003906249979622823 0.03515624999748779 0.003906249999999001 0.01171874998830993 0.01953124997520354 0.02441394910919131 0.003906250000000023 0.003906250000000023 0.08300953302028057 0.003906250000000023 0.003906250000000023 0.00390624999999586 0.02343749997661998 0.003906250000000023 0.007812499999999991 0.007812499999999991 0.01171874998830993 0.003906250000000023 0.003906250000000023 0.003906250000000023 0.003906250000000023 0.003906250000000023 1:156 2:6 3:19 4:25 5:25 6:25 7:24 8:156 9:6 10:19 11:10 12:16 13:30 14:18 
-0.003906249997923272 -0.138900187027362 0.2727205195758369 0.2179142262036792 0.4109848623416981 0.03613281233817025 0.1857661299092468 0.03124999998338596 0.01562499999169181 0.003906249977546128 0.03515624989654078 0.003906249997922218 0.0117187499733634 0.01953124994776435 0.0244139487721914 0.003906249997923272 0.003906249997923272 0.08301493860971852 0.003906249997923272 0.003906249997923272 0.003906249997919109 0.02343749994672674 0.003906249997923272 0.007812499995846545 0.007812499995846545 0.0117187499733634 0.003906249997923272 0.003906249997923272 0.003906249997923272 0.003906249997923272 0.003906249997923272 1:156 2:6 3:19 4:10 5:16 6:30 7:18 8:156 9:6 10:19 11:25 12:25 13:25 14:25 
-0.004882812499999944 -0.1382813954574221 0.2734374719439416 0.2179845149897945 0.4111277157031043 0.03613281278701347 0.1865808563291748 0.03193327394573259 0.01630827394614098 0.004882812474528542 0.03515625052796229 0.004882812499998723 0.01171903507938599 0.01953125028636687 0.02343749999998973 0.0048828125 0.0048828125 0.08304749012714718 0.0048828125 0.0048828125 0.004882812499994726 0.02343807015877192 0.0048828125 0.0087890625 0.0087890625 0.01171903507938599 0.0048828125 0.0048828125 0.0048828125 0.0048828125 0.0048828125 1:70 2:5 3:19 4:24 5:30 6:0 7:32 8:70 9:5 10:19 11:0 12:25 13:0 14:32 
-0.0048828125 -0.1386820573034434 0.2734375767540302 0.2179141569370765 0.4109389343090994 0.03515627089093598 0.1865266938442321 0.03213847988691393 0.01562499999999989 0.003906249979622876 0.03613281250773437 0.003906249999999001 0.01269531250000003 0.01953125402439301 0.02344778277145415 0.003906250000000021 0.003906250000000021 0.08301700098748982 0.003906250000000021 0.003906250000000021 0.003906249999995857 0.02441406250015411 0.003906250000000021 0.007812499999999985 0.007812499999999985 0.01269531250000003 0.003906250000000021 0.003906250000000021 0.003906250000000021 0.003906250000000021 0.003906250000000021 1:70 2:5 3:19 4:18 5:23 6:7 7:18 8:70 9:5 10:19 11:32 12:32 13:7 14:10 
-0.004589523946149809 -0.1388335562728384 0.272722535019529 0.2179141959411174 0.4110649739859074 0.0360919603354718 0.1865813484576883 0.03125279824117555 0.01658113603499928 0.004882812474528542 0.03515625045268422 0.004882812499998723 0.0117190221101609 0.01953125324815913 0.02343749999989347 0.0048828125 0.0048828125 0.08319906032475827 0.0048828125 0.0048828125 0.004882812499994726 0.02343804422032186 0.0048828125 0.008495773946149865 0.0087890625 0.0117190221101609 0.0048828125 0.0048828125 0.0048828125 0.0048828125 0.0048828125 1:70 2:5 3:19 4:32 5:32 6:7 7:10 8:70 9:5 10:19 11:20 12:25 13:0 14:0 
-0.004862386035017041 -0.1387113381913724 0.2727233694046571 0.2179198834298802 0.411125812937214 0.03613281314493783 0.1865813708999088 0.03125094399850242 0.01586142921958589 0.004589523922208238 0.03515625039237702 0.004589523946148533 0.01171898599312782 0.01953125324815913 0.02343749999989347 0.004589523946149809 0.004589523946149809 0.08390365700261815 0.004589523946149809 0.004589523946149809 0.004589523946144924 0.02343797198625569 0.004589523946149809 0.008768636035016986 0.008495773946149865 0.01171898599312782 0.004589523946149809 0.004589523946149809 0.004589523946149809 0.004589523946149809 0.004589523946149809 1:70 2:5 3:19 4:20 5:25 6:0 7:0 8:70 9:5 10:19 11:18 12:25 13:0 14:32 
-0.00396535730491443 -0.1386863589043529 0.2726080858186175 0.2182174963454155 0.411063948052906 0.03609153314243674 0.1865813708997115 0.03125081830955756 0.01586091733907519 0.004862386009652053 0.03515625038283077 0.004862386035015653 0.01171887414129347 0.01964959303389485 0.02343749999988148 0.004862386035016986 0.004862386035016986 0.08301493913077529 0.004862386035016986 0.004862386035016986 0.004862386035011768 0.02343774828258693 0.004862386035016986 0.007930714609828804 0.008768636035016986 0.01171887414129347 0.004862386035016986 0.004862386035016986 0.004862386035016986 0.004862386035016986 0.004862386035016986 1:67 2:5 3:19 4:-1 5:23 6:7 7:18 8:67 9:5 10:19 11:18 12:25 13:0 14:32 
-0.00396522933478638 -0.1386797919558194 0.2734375641765822 0.2179150834964315 0.4109841036296685 0.03515625604848055 0.1865814930830155 0.03125021343733342 0.01566455792264815 0.003965357284228865 0.03515625022963786 0.003965255944174628 0.01171885229577369 0.01964946460982947 0.02343749999985723 0.00396535730491443 0.00396535730491443 0.08301325727862552 0.00396535730491443 0.00396535730491443 0.003965357304910211 0.02343770459154731 0.00396535730491443 0.007930458669572926 0.007930714609828804 0.01171885229577369 0.00396535730491443 0.00396535730491443 0.00396535730491443 0.00396535730491443 0.00396535730491443 1:246 2:6 3:19 4:29 5:25 6:19 7:20 8:246 9:6 10:19 11:20 12:25 13:19 14:18 
-0.003916139480679703 -0.1386789993449501 0.2725171489287572 0.2179141569370813 0.4105964415677893 0.03515625804878708 0.186581470616993 0.03125004074135401 0.01563955255749061 0.003965229314101593 0.03515625017013485 0.003965229334785381 0.0117188522887326 0.01964920873906567 0.0234374999998565 0.003965229334786491 0.003965229334786491 0.08301212889286091 0.003965229334786491 0.003965229334786491 0.003965229334782217 0.02343770457746525 0.003965229334786491 0.007832278961359407 0.007930458669572926 0.0117188522887326 0.003965229334786491 0.003965229334786491 0.003965229334786491 0.003965229334786491 0.003965229334786491 1:33 2:3 3:19 4:21 5:3 6:18 7:10 8:33 9:3 10:19 11:13 12:32 13:18 14:32 
-0.003906249957469299 -0.1387026617349009 0.2725171429788836 0.2179141539238397 0.4109615554992473 0.03613281186281386 0.1857398833368718 0.03124999965975434 0.01562499982987597 0.003906249937092154 0.03515624948961077 0.0039062499574683 0.01171874987239156 0.01953124974479953 0.02441394599180474 0.003906249957469299 0.003906249957469299 0.08312588990760311 0.003906249957469299 0.003906249957469299 0.003906249957465135 0.02343749974478296 0.003906249957469299 0.007812499914938598 0.007812499914938598 0.01171874987239156 0.003906249957469299 0.003906249957469299 0.003906249957469299 0.003906249957469299 0.003906249957469299 1:155 2:6 3:19 4:25 5:25 6:32 7:24 8:155 9:6 10:19 11:0 12:25 13:32 14:29 
-0.003909888139389806 -0.1386738451212377 0.2727212511570472 0.2179142069504033 0.4104785668778734 0.0351562629926368 0.186582053368068 0.03125001856974863 0.01563854934021597 0.003916139460250934 0.03515625017011842 0.003916139480678649 0.01171877667970467 0.01964920866957298 0.02343749999985628 0.003916139480679703 0.003916139480679703 0.08301174118937632 0.003916139480679703 0.003916139480679703 0.00391613948067554 0.02343755335940922 0.003916139480679703 0.007819776278779611 0.007832278961359407 0.01171877667970467 0.003916139480679703 0.003916139480679703 0.003916139480679703 0.003916139480679703 0.003916139480679703 1:163 2:6 3:16 4:18 5:4 6:25 7:11 8:163 9:6 10:16 11:32 12:4 13:25 14:0 
-0.003909637333663372 -0.1386763055424975 0.2725303008262371 0.2179177615091807 0.4109422544676323 0.03515625804878697 0.1857395595399374 0.03220613603417682 0.01630827394614082 0.003909888118993621 0.03539216733912753 0.003906365980867236 0.0117187614854215 0.01953182159859456 0.02343844199997449 0.003909888139389806 0.003909888139389806 0.08302618998392808 0.003909888139389806 0.003909888139389806 0.003909888139385642 0.02343752297084284 0.003909888139389806 0.007819274667326681 0.007819776278779611 0.0117187614854215 0.003909888139389806 0.003909888139389806 0.003909888139389806 0.003909888139389806 0.003909888139389806 1:100 2:4 3:18 4:20 5:21 6:25 7:23 8:100 9:4 10:18 11:20 12:21 13:6 14:0 
-0.003906249999848677 -0.1386732756850423 0.2734375080644538 0.2179156658649548 0.4109624406556994 0.03613281251595563 0.1865793885623831 0.03124999999878936 0.01562499999939065 0.003906249979622879 0.03595664730190661 0.003906249999848321 0.0117187499995432 0.02050781249955203 0.02343749999887884 0.003906249999848677 0.003906249999848677 0.08301076493352466 0.003906249999848677 0.003906249999848677 0.003906249999844513 0.02441406249862899 0.003906249999848677 0.007812499999697353 0.007812499999697353 0.0117187499995432 0.003906249999848677 0.003906249999848677 0.003906249999848677 0.003906249999848677 0.003906249999848677 1:100 2:4 3:18 4:20 5:21 6:6 7:0 8:100 9:4 10:18 11:20 12:21 13:13 14:18 
-0.003906250000006217 -0.138673855819795 0.2734374719438027 0.2179142386658096 0.4104270489335097 0.03613281253538669 0.1857652716246826 0.03185034080216803 0.01562500125652944 0.003906249979622777 0.03515626360904095 0.00390625000014957 0.01240202394614904 0.02050781250095769 0.02441394891516047 0.003906250000006217 0.003906250000006217 0.08312589173698726 0.003906250000006217 0.003906250000006217 0.003906250000002054 0.02412077394999446 0.003906250000006217 0.007812500000012434 0.007812500000012434 0.01240202394614904 0.003906250000006217 0.003906250000006217 0.003906250000006217 0.003906250000006217 0.003906250000006217 1:100 2:4 3:18 4:20 5:21 6:25 7:0 8:100 9:4 10:18 11:18 12:21 13:7 14:18 
-0.003906132003436258 -0.1385829578903521 0.2727074448583337 0.2179045990743261 0.4109140935305607 0.03515518807370061 0.1857283985814843 0.03124999999999994 0.01562499999999994 0.00390624998287224 0.035155188073691 0.003906250190538577 0.01171839602393693 0.01953066003856851 0.02343654371971961 0.003906250003249375 0.003906250003249375 0.0830104009928273 0.003906250003249375 0.003906250003249375 0.003906249999995782 0.02343679204787393 0.003906250003249375 0.007812499999999944 0.007812499999999944 0.01171839602393693 0.003906250003249375 0.003906250003249375 0.003906250003249375 0.003906250003249375 0.003906250003249375 1:46 2:5 3:19 4:20 5:23 6:32 7:25 8:46 9:5 10:19 11:20 12:25 13:13 14:18 
-0.003906250000000052 -0.1386845606164651 0.2734374807574977 0.2177859381924409 0.4107604114450194 0.03595664470652749 0.185711145565406 0.03124999847568266 0.0156249992377796 0.003906249789083255 0.03515624828510255 0.003906249809459313 0.01171874961891296 0.01953124904729409 0.02430550402473158 0.003906249809460399 0.003906249809460399 0.08302616354724834 0.003906249809460399 0.003906249809460399 0.003906249809456236 0.0234374992378258 0.003906249809460399 0.007812499618920853 0.007812499618920853 0.01171874961891296 0.003906249809460399 0.003906249809460399 0.003906249809460399 0.003906249809460399 0.003906249809460399 1:55 2:4 3:18 4:25 5:25 6:18 7:18 8:55 9:4 10:18 11:23 12:25 13:18 14:18 
-0.003906250001739553 -0.1386935136192552 0.273437675152104 0.2179177614829926 0.4104269612796265 0.03613281251424613 0.1865300037183777 0.03125000001215114 0.01562500000592913 0.003906249981122707 0.03613281250324343 0.003906249999767686 0.01171875000102906 0.02050781249996407 0.02343750000051008 0.003906250001499908 0.003906250001499908 0.08328078754264412 0.003906250001499908 0.003906250001499908 0.003906250001495745 0.02439363603463333 0.003906250001499908 0.007812500002999871 0.007812500002999927 0.01171875000102906 0.003906250001499908 0.003906250001499908 0.003906250001499908 0.003906250001499908 0.003906250001499908 1:100 2:4 3:18 4:6 5:21 6:18 7:18 8:100 9:4 10:18 11:25 12:21 13:0 14:32 
-0.003908795507802765 -0.1387091399826698 0.2734375549102523 0.2179845346653942 0.4111277157031042 0.0351562636057326 0.1865820533681494 0.03125000329139255 0.0156351820311405 0.003909637313268488 0.03516643202817749 0.003909888139388751 0.0117187601853006 0.01958054717979052 0.02412067072720014 0.003909637333663341 0.003909637333663341 0.08301076984460531 0.003909637333663341 0.003909637333663341 0.003909637333659177 0.02343752037060121 0.003909637333663341 0.007817591015605529 0.007819274667326681 0.0117187601853006 0.003909637333663341 0.003909637333663341 0.003909637333663341 0.003909637333663341 0.003909637333663341 1:140 2:5 3:18 4:32 5:19 6:32 7:18 8:140 9:5 10:18 11:32 12:19 13:0 14:32 
-0.003906250004411589 -0.1388249262238176 0.2727062791097821 0.2179046059686371 0.41088746941767 0.03515483399899688 0.186575495030551 0.03124905600149708 0.01562452800067798 0.003906249976373415 0.03515483399898689 0.003906132000180307 0.01171851399387457 0.0195305419978738 0.023436779664174 0.003906249996750625 0.003906249996750625 0.08300705516782542 0.003906249996750625 0.003906249996750625 0.003906132000182916 0.02343702798774909 0.003906249996750625 0.007812264000374269 0.007812264000374269 0.01171851399387457 0.003906249996750625 0.003906249996750625 0.003906249996750625 0.003906249996750625 0.003906249996750625 1:40 2:5 3:18 4:18 5:25 6:32 7:23 8:40 9:5 10:18 11:25 12:25 13:18 14:18 
-0.003906250011779328 -0.1386878094638243 0.272576319867096 0.2179142467078863 0.4105960585279061 0.03613281241973437 0.1858663008664304 0.03125000000010619 0.01562500000226051 0.003906249979636081 0.03595664719399766 0.003906250000012226 0.01171874998148745 0.01953124997530814 0.02343749997384298 0.003906250000013281 0.003906250000013281 0.08302160658858289 0.003906250000013281 0.003906250000013281 0.003906250000009118 0.02343749996297501 0.003906250000013281 0.007812499999999944 0.007812499999999944 0.01171874998148745 0.003906250000013281 0.003906250000013281 0.003906250000013281 0.003906250000013281 0.003906250000013281 1:119 2:6 3:19 4:13 5:18 6:32 7:32 8:119 9:6 10:19 11:25 12:25 13:32 14:25 
-0.003906250001237344 -0.1387047253711545 0.273437421810693 0.2179141939638244 0.4104269144712896 0.03613281251141599 0.1865272891957276 0.03124999999999995 0.01562499999999878 0.003906249979622815 0.03613281249122514 0.00390624999999896 0.01171874999855002 0.02050781249485712 0.02343749999566175 0.003906250000000015 0.003906250000000015 0.08398439994580499 0.003906250000000015 0.003906250000000015 0.003906249999995851 0.02430566089298153 0.003906250000000015 0.007812499999999974 0.007812499999999974 0.01171874999855002 0.003906250000000015 0.003906250000000015 0.003906250000000015 0.003906250000000015 0.003906250000000015 1:215 2:6 3:19 4:13 5:18 6:32 7:18 8:215 9:6 10:19 11:18 12:25 13:32 14:25 
-0.003908229177344624 -0.1389001878979059 0.2734375232718169 0.2177792719132332 0.4110639479982598 0.03515626811093275 0.1865814325398238 0.03125000152431728 0.01562500057273208 0.003908795487412298 0.03515821969931954 0.003909637333662286 0.01171875836171504 0.01955102896135941 0.02439353060833405 0.003908795507802765 0.003908795507802765 0.08312589173687596 0.003908795507802765 0.003908795507802765 0.003908795507798601 0.02343751672343009 0.003908795507802765 0.00781645835468936 0.007817591022242831 0.01171875836171504 0.003908795507802765 0.003908795507802765 0.003908795507802765 0.003908795507802765 0.003908795507802765 1:73 2:3 3:19 4:18 5:0 6:32 7:18 8:73 9:3 10:19 11:20 12:32 13:18 14:-1 
-0.003908031019480285 -0.1389443449251188 0.2734375214818396 0.2179687995676962 0.4110641412052465 0.03515626548765566 0.1859818757713402 0.03125000114546667 0.01562500022964103 0.003908229156957155 0.03515764912057795 0.003908795507801766 0.01171875696363389 0.01955102896135941 0.02441394516156359 0.003908229177344624 0.003908229177344624 0.08312613206779679 0.003908229177344624 0.003908229177344624 0.003908229177340461 0.02343751392726784 0.003908229177344624 0.007816062038960625 0.00781645835468936 0.01171875696363389 0.003908229177344624 0.003908229177344624 0.003908229177344624 0.003908229177344624 0.003908229177344624 1:202 2:6 3:19 4:-1 5:-1 6:7 7:18 8:202 9:6 10:19 11:0 12:25 13:0 14:32 
-0.003906742424832355 -0.1389006954735144 0.2724964946181878 0.2179179529477592 0.4105960598265631 0.03515626461671084 0.186340448633446 0.03125000045928444 0.01562500017012158 0.003908030999093759 0.03515672199924158 0.00390822917734357 0.01171875603697847 0.01954942056797337 0.02441394599792091 0.003908031019480285 0.003908031019480285 0.08333409715542472 0.003908031019480285 0.003908031019480285 0.003908031019476121 0.02343751207395695 0.003908031019480285 0.007813484849664765 0.007816062038960625 0.01171875603697847 0.003908031019480285 0.003908031019480285 0.003908031019480285 0.003908031019480285 0.003908031019480285 1:202 2:6 3:19 4:18 5:25 6:18 7:7 8:202 9:6 10:19 11:0 12:25 13:18 14:0 
-0.003906249999389266 -0.1384483881409687 0.2722911125811074 0.2175821119621913 0.4102240327218474 0.03512354704337478 0.1853977528452113 0.0312499999904352 0.01562499999972683 0.003906249979012344 0.03512354704334625 0.003906249999413686 0.01170784562604843 0.01951307943182412 0.02341529170954182 0.003906249999389433 0.003906249999389433 0.08287443538725858 0.003906249999389433 0.003906249999389433 0.003906249999385325 0.02341569125209697 0.003906249999389433 0.007812499998778866 0.007812499998778866 0.01170784562604843 0.003906249999389433 0.003906249999389433 0.003906249999389433 0.003906249999389433 0.003906249999389433 1:57 2:3 3:19 4:6 5:20 6:18 7:18 8:57 9:3 10:19 11:25 12:23 13:18 14:15 
-0.003906599780146902 -0.1386869302219903 0.2734375063944599 0.2179192447642113 0.4105971056823789 0.03515631131187491 0.1865266929186688 0.03125000034024561 0.01562500003289247 0.003906742404452601 0.03515668265426353 0.00390803101947923 0.01171875487223728 0.01954816904420831 0.02441394791373003 0.00390674242483241 0.00390674242483241 0.08398441114704275 0.00390674242483241 0.00390674242483241 0.003906742424828247 0.02343750974447451 0.00390674242483241 0.007813199560293971 0.007813484849664765 0.01171875487223728 0.00390674242483241 0.00390674242483241 0.00390674242483241 0.00390674242483241 0.00390674242483241 1:157 2:6 3:19 4:-1 5:-1 6:30 7:4 8:157 9:6 10:19 11:18 12:7 13:0 14:32 
-0.003906367996563742 -0.1386886967028638 0.2731072631210372 0.217919245553031 0.4105970312200062 0.03515628446065211 0.186530004734522 0.03125000010755619 0.01562500003064166 0.003906599759767815 0.03515625928486893 0.0039067424248313 0.01171875487223728 0.01954396758256671 0.02441394795852364 0.003906599780146902 0.003906599780146902 0.08390365701105618 0.003906599780146902 0.003906599780146902 0.003906599780142739 0.02343750974447451 0.003906599780146902 0.007812735999625731 0.007813199560293971 0.01171875487223728 0.003906599780146902 0.003906599780146902 0.003906599780146902 0.003906599780146902 0.003906599780146902 1:157 2:6 3:19 4:18 5:7 6:0 7:32 8:157 9:6 10:19 11:18 12:7 13:32 14:18 
-0.003906223320333357 -0.1342976109580405 0.264550934687554 0.2115911391582731 0.3989440223151865 0.03463580103888531 0.180438259291464 0.03124978656266608 0.01562489328126265 0.003906223299956268 0.03463580103916936 0.003847244055823262 0.01154438475549402 0.01924152351664971 0.02320104523020442 0.003906223320333357 0.003906223320333357 0.08089130885843493 0.003906223320333357 0.003906223320333357 0.003906223320329194 0.02308876951098826 0.003906223320333357 0.007812446640666715 0.007812446640666604 0.01154438475549402 0.003906223320333357 0.003906223320333357 0.003906223320333357 0.003906223320333357 0.003906223320333357 1:100 2:4 3:18 4:20 5:21 6:32 7:18 8:100 9:4 10:18 11:25 12:21 13:18 14:18 
-0.00390625000000222 -0.1386760596643903 0.2727220696795364 0.217919885476475 0.4109848649332639 0.03613281269217866 0.1865842916212419 0.03193327394572032 0.015625000000001 0.003906249979623063 0.03613281251576922 0.003906251224738366 0.01269531249999442 0.0205078125026662 0.02441394896299848 0.003906250000000541 0.003906250000000541 0.08329739527475288 0.003906250000000541 0.003906250000000541 0.003906249999996377 0.02441406250013722 0.003906250000000541 0.007812500000001138 0.007812500000001138 0.01269531249999442 0.003906250000000541 0.003906250000000541 0.003906250000000541 0.003906250000000541 0.003906250000000541 1:100 2:4 3:18 4:20 5:21 6:18 7:7 8:100 9:4 10:18 11:32 12:21 13:32 14:18 
