svm_type c_svc
kernel_type rbf
gamma 0.03125
nr_class 41
total_sv 791
rho 1.24039 2.56653 1.93168 1.44585 0.850438 1.22436 1.45574 0.831686 0.420644 0 1.18464 0 0.411799 0.649654 0 0 0.768583 0 0 0 0.727272 0 0 0.34306 0.0907738 0 0.201703 0.201703 0.598691 0 0 0 0.116201 0 0 0 0 0.0884323 0 0 2.2204 3.16197 0.569399 -0.284146 0.466123 0.553395 -0.277409 -0.249675 -1.21028 -1.7205 -3.00583 -1.5818 -1.20713 -2.55464 -0.636316 0.188518 -0.673486 -0.90828 -1.78097 -0.92974 -0.979851 -0.739201 -2.89911 -4.39503 -1.46468 -0.875546 -0.875546 -0.255799 -1.75943 -1.65224 -1.84094 -0.952652 -2.17176 -2.61481 -1.21894 -1.21894 -2.3505 -1.26525 -2.06668 -2.36016 -7.54963 -7.68566 -1.51933 -10.0258 -0.796474 -1.80464 -2.09616 -2.79725 -2.01317 -4.42274 -2.71323 -3.31032 -2.3382 0.616256 -2.58058 -2.21138 -3.16284 -2.51216 -2.26909 -2.39518 -2.0302 -4.71089 -1.66058 -1.29186 -1.29186 -1.9155 -3.05781 -2.90422 -2.23214 -2.90223 -3.45943 -2.65934 -1.85956 -1.85956 -3.76878 -3.08621 -1.00162 -4.40399 -2.14114 -1.17841 -5.11561 -0.426062 -0.729351 -1.577 -0.540458 -3.03286 -2.49239 0.0750653 -3.08318 -1.15016 3.68459 -1.2481 -1.04127 -1.83357 -1.56809 -1.86966 -1.6827 -3.93538 -4.06562 -1.26695 -1.25077 -1.25077 0.11948 -2.41899 -1.91153 -1.79729 -1.84006 -2.98848 -3.59381 -2.1341 -2.1341 -2.6483 -2.56684 -2.47057 0.323574 0.0637304 0.886658 -0.356863 -0.74043 -1.90624 -3.53899 -2.78638 -1.4325 -2.51002 -1.48885 -1.2803 2.0786 -1.21718 -1.10145 -1.81937 -1.9799 -0.666551 -1.04121 -2.93729 -3.90272 -1.1836 -1.01818 -1.01818 -0.461087 -1.8149 -1.69217 -2.88812 -1.298 -1.20561 -2.35603 -0.793211 -0.793211 -2.27144 -1.54011 -1.71449 -0.271001 -1.19812 -0.477381 -0.43764 -1.39707 -1.64568 -1.35685 -2.12607 -0.426411 -2.34465 -0.553671 -0.214861 -0.702447 -0.836938 -0.872289 -1.04224 -1.4178 -0.555266 -0.789054 -1.12798 -1.15933 -1.02712 -1.02712 -0.646221 -1.83472 -0.930138 -1.10602 -0.716636 -2.56031 -2.16378 -1.51884 -1.51884 -2.52409 -1.03966 -1.89838 -0.700297 0.72383 -0.158432 -1.03464 -1.11168 -1.06621 -0.784092 -0.917563 -0.430717 -0.772758 0.393965 -0.395129 -0.701896 -0.576301 -0.597924 -0.387915 -0.658208 -0.447525 -1.04121 -0.444499 -1.12794 -1.12794 -0.334672 -0.920112 -0.309202 -1.50521 -0.598498 -0.703042 -1.07815 -0.420556 -0.420556 -0.67752 -0.637055 -0.658373 -0.412953 -0.10303 -2.00662 -0.804309 -2.65055 -0.702352 -0.182549 -1.39533 -1.52132 2.15704 -1.24343 -1.10181 -1.64494 -0.77735 -0.483253 -1.31241 -1.69793 -2.88839 -0.849678 -0.888255 -0.888255 -0.253291 -1.80643 -1.63564 -1.97849 -1.40787 -1.41129 -2.23363 -0.655198 -0.655198 -1.35399 -1.9134 -1.11123 -0.0285392 -0.336859 -0.110261 -0.594743 -0.598543 -0.251723 -0.335131 -0.327216 0.212053 -0.212281 -0.383938 -0.509387 -0.335285 -0.312811 -0.375438 -0.410982 -0.305826 -0.525236 -1.29056 -1.29056 -0.268594 -0.428713 -0.311887 -0.756992 -0.159099 -0.681351 -0.494952 -0.155753 -0.155753 -0.35228 -0.396134 -0.428283 -0.584019 -0.118543 -0.563545 0.310091 -0.288418 -0.747191 -0.513772 0.298652 -0.358315 -0.395863 -0.687833 0.00633381 -0.00434808 -0.918638 -0.664933 -0.661485 -0.166129 -0.12042 -0.12042 0.0455436 -0.439395 -0.593039 -0.672944 -0.485783 -0.327289 -0.65191 -0.367023 -0.367023 -0.544326 -0.768116 -0.194717 0.935315 0 0.30071 0.702642 0 0 1.50662 0 0 0 0.638498 0 0 0.264271 0.171194 0 0.267655 0.267655 0.186838 0 0 0 0.156902 0 0 0 0 0.0104305 0 0 -1.72502 -1.3555 -0.11324 -1.63357 -0.474753 1.41198 -0.501091 -0.383112 -1.0342 0.113879 -0.849521 -0.4989 -0.426065 -2.66994 -0.634161 -0.689924 -0.689924 -0.155194 -1.24488 -1.01744 -2.04173 0.118551 -0.910594 -1.35185 -0.832211 -0.832211 -1.36338 -0.716884 -1.05296 0.368044 1.08003 0 0 1.81822 0 0 0 0.924149 0 0 0.389508 0.168276 0 0.107305 0.107305 1.06935 0 0 0 0.316057 0 0 0 0 0.107868 0 0 0.370235 -0.0642005 -0.25611 0.484169 -0.223823 -0.188524 -0.31607 0.428182 -0.265203 -0.235333 0.0571795 -0.304069 -0.360054 0.314419 0.314419 0.503548 -0.413872 -0.238788 -0.477306 0.00667054 -0.432294 -0.386859 -0.154494 -0.154494 -0.14938 -0.194373 -0.29077 -0.560401 -0.704584 1.4197 -0.432915 -0.264568 -1.7528 0.0128177 -0.352446 -0.379143 -2.99165 -1.4979 -0.680933 -0.486179 -0.486179 0.115854 -0.515052 -1.16069 -1.89022 -0.175607 -0.626029 -0.815912 -0.31369 -0.31369 -0.457429 -0.586756 -0.480102 0 0.794557 0 0 0 0.674343 0 0 0.41462 0.0613531 0 0.163853 0.163853 0.422172 0 0 0 0.414614 0 0 0 0 0.00207064 0 0 2.33133 0 0 0 0.330432 0 0 0.0364005 0.100953 0 0.228221 0.228221 1.50329 0 0 0 0.164991 0 0 0 0 0.0477719 0 0 -0.326881 -0.60663 -2.28251 -0.382739 -0.341351 -0.737447 -2.12249 -1.91351 -0.713847 -0.572613 -0.572613 -1.82972 -0.829954 -1.2064 -2.7494 -0.495786 -0.682763 -0.882682 -0.329155 -0.329155 -0.645739 -0.766903 -0.523277 0 0 0.492529 0 0 0.192158 0.0514941 0 0.0729859 0.0729859 0.248391 0 0 0 0.0788652 0 0 0 0 0 0 0 0 0.447357 0 0 0.220622 0.0602531 0 0.124981 0.124981 0.39949 0 0 0 0.271574 0 0 0 0 0.0545881 0 0 0.546532 0 0 0.999571 0.118237 0 0.129281 0.129281 1.04679 0 0 0 0.261478 0 0 0 0 0.116477 0 0 -0.33056 -0.335996 -0.18337 -1.62492 -0.298341 -0.180348 -0.180348 -0.131529 -0.804062 -0.567081 -1.39624 -0.229915 -0.937303 -1.25924 -0.663578 -0.663578 -0.38631 -0.383054 -0.697187 0 0.152064 0.0852107 0 0.109819 0.109819 0.237719 0 0 0 0.156634 0 0 0 0 0.0172994 0 0 0.228228 0.0103498 0 0.130004 0.130004 0.544477 0 0 0 0.336194 0 0 0 0 0.0861625 0 0 -0.736114 -0.270058 -0.203174 -0.203174 1.35495 -0.245894 -0.679402 -0.894861 0.0606263 -0.25544 -0.459803 -0.221778 -0.221778 -0.220243 -0.45416 -0.265975 -0.0334675 0.188382 0.188382 1.16454 0 -0.171384 -0.520766 0.33852 0 -0.155386 -0.0967348 -0.0967348 0.41964 0 -0.0933695 0.0425057 0.0425057 0.224837 0 0 0 0.204819 0 0 0 0 0.0706599 0 0 0 0.12883 -0.325886 -0.149652 -0.30586 -0.00216211 -0.268402 -0.25093 -0.141346 -0.141346 -0.134847 -0.169924 -0.101505 0.12883 -0.325886 -0.149652 -0.30586 -0.00216211 -0.268402 -0.25093 -0.141346 -0.141346 -0.134847 -0.169924 -0.101505 -0.707173 -0.518596 -1.98646 -0.178135 -0.542919 -0.916701 -0.318835 -0.318835 -0.267479 -0.53026 -0.562291 0 0 0.199506 0 0 0 0 0.0725493 0 0 0 0.206564 0 0 0 0 0.117097 0 0 0.284207 0 0 0 0 0.183448 0 0 -0.150715 -0.242492 -0.243526 -0.243526 -0.23124 -0.457532 -0.185662 0 0 0 0.0729207 0 0 0 0 0.132149 0 0 0 0.0854143 0 0 0.0854143 0 0 -0.142041 -0.08826 0
label 23 22 1 15 0 14 6 39 8 24 30 35 38 7 2 28 40 16 19 21 17 18 37 31 26 32 10 5 34 25 12 13 11 29 36 3 20 27 9 33 4
nr_sv 1 37 312 87 71 107 9 63 7 6 1 8 1 5 8 1 1 20 1 1 1 9 1 2 3 3 1 2 2 7 1 1 1 2 1 1 1 1 2 1 1
SV
19.43932899685408 25.21504203373836 22.10407896591027 19.34336867348955 16.52423901662393 21.16944373893366 18.86332076605187 11.98797272732255 6.116360213566393 5.768018422216126 14.53754380141619 8.716704767446693 9.452844246212189 9.469812072747573 8.210232488945177 4.876670965709105 10.26848152319498 6.801749612726491 3.053146299820675 6.807128302796254 8.320327018385516 4.609717952747771 5.035664000043221 7.969708188222476 9.640705646482497 3.873325397624274 6.959392822080573 6.959392822080573 12.06064520090218 17.18109192795033 6.751098643962901 7.386366678172174 5.472806347369487 7.506507091873328 10.01745045226323 6.925382104699598 6.925382104699598 7.404762930629357 6.488296311421838 7.139058577227815 1:0.636364 2:-0.333333 3:0.1875 4:0.151515 5:1 6:0.125 7:0.1875 8:-0.5 9:1 10:0.1875 11:0.1875 12:0.125 13:-0.69697 14:0.030303 
-0 32 32 0 0 0 0 0 2.552132726375775 0 16.54185198497339 0 4.926307909669541 0 0 0 0 0 0 5.064979596773034 0 0 0 20.28830626381558 0 0 0 0 0 0 0 0 0 0 0 0 0 0 0 0 1:-0.219697 2:0.666667 3:0.1875 4:0.151515 5:0.575758 6:-0.75 8:-0.227273 9:0.428571 10:0.1875 11:1 12:-0.9375 13:0.151515 14:-0.030303 
-0 32 32 15.48497247821945 10.62985406412033 0 0 0 0 0 0 0 0 0 0 0 0.8911199545980361 0 0 0 0 0 0 0 6.381525822372573 0 0 0 0 0.1581905040623525 0 0 0.4398927705911895 0 0 0 0 0 0.08237414634829747 0 1:-0.121212 2:0.666667 3:0.125 4:1 5:-0.878788 6:1 7:0.25 8:-0.121212 9:0.714286 10:0.125 11:-1 12:1 13:0.272727 14:0.454545 
-0 32 32 0 0 0 0 0 0 0 0 3.104425163977369 0 0 0 0 0 0 0 5.298092878089691 0 0 0 2.896349356663642 0 4.674053030657337 0 0 0 0 1.704216175841671 0 0 0 0 0 0 0 0 0 1:-0.212121 2:0.666667 3:0.1875 4:-0.939394 5:0.454545 6:0.5625 7:1 8:-0.212121 9:0.714286 10:0.1875 11:0.5625 12:0.25 13:0.575758 14:1 
-0 32 32 19.9784614445878 0 0 6.892755907698429 0 0 1.794286924708785 0 0 0 0 0 0 0 0 0 0 0.1106045045149901 0 0.45862161926474 0 0 0 0.6011084700309657 0.6011084700309657 0 0 0 0 0 0 0 0 0 0.02638785837188856 0 0 1:-0.174242 2:0.333333 3:0.1875 4:1 5:-0.878788 6:-0.75 7:-0.5625 8:-0.174242 9:0.714286 10:0.1875 11:0.5625 12:0.125 13:1 14:-0.939394 
-0 32 32 7.639728775015124 4.935036044949739 0.4803064402421854 0 0 0.5634304047247156 0 0 0 0 13.91038890981815 0 0 0 0 0 0 0.4626970849266037 0 1.515880649072237 0.2640129664218261 0 0.6991596147733461 0 0 0 0 0 0 0 0 0 0 0 0 0 0 1:-0.121212 2:0.666667 3:0.1875 4:0.272727 5:0.575758 6:-1 7:-1 8:-0.121212 9:0.714286 10:0.125 11:1 12:0.5625 13:1 14:1 
-0 32 32 0 14.01365029456507 0.4873344916267161 0 0 0 0 1.170962501180929 0 0 0 0 0.8080941584298279 0 0 0 0 0 0 0 0 0 0 0 0 2.75394150519892 0 0 0.1443331377388542 0 0 0 0 0 0 0 6.544410014450929 1:-0.121212 2:0.666667 3:0.125 4:0.151515 5:0.575758 6:-1 7:1 8:-0.121212 9:0.714286 10:0.1875 11:-1 12:0.5625 13:0.454545 14:1 
-0.5790885383133482 32 32 5.426267516511095 3.956776272628594 4.933410063143822 0 0.2066868766952033 0 0 27.34061154124544 9.07546014029613 0.7488210006232713 0 0 0 0 0.7407803067322586 0 0 0 0 0 0 0 0 0 0 7.343782051841188 0 0 0 0 0 0 0 0 0 0 0.4784170224820548 1:-0.121212 2:0.666667 3:0.1875 4:-0.939394 5:0.575758 6:0.4375 7:1 8:-0.121212 9:0.714286 10:0.125 11:0.25 12:0.5625 13:-0.939394 14:1 
-0 32 32 0 32 0 0 0.4116146510003927 0 0 17.484408501873 0 1.549466704341379 0 0 0 0 0 0 0 1.998034940944402 1.078521854241698 0 0 0.4035539516955032 0.6415209401292948 0.6664084318980042 0.6664084318980042 0 0.7024521912792084 0 0 0 4.73926766606448 0 5.834779886881798 5.834779886881798 0 0 0 1:0.886364 2:1 3:0.1875 4:0.151515 5:-0.515152 6:1 7:0.125 8:0.886364 9:1 10:0.1875 11:0.3125 13:-0.939394 14:0.454545 
-0 32 6.37443885672334 0 32 0 0 0 0 0 12.03755596693047 0 1.267793687319633 0 0 0 0 0 0 0 4.565865105740066 0 0 0 0 0 1.614463272204344 1.614463272204344 0 0 0 0 0 0 0 0 0 0 0 0 1:0.886364 2:1 3:0.1875 4:-0.69697 5:0.030303 6:0.4375 7:0.125 8:0.886364 9:1 10:0.1875 11:1 12:-0.9375 13:0.575758 14:0.212121 
-0 32 32 32 0 18.40397680560199 10.39404026256234 1.719255382256945 4.436671656413226 0 0 0 0.8599173254456238 0.9678867979342415 0 0.2548906035489836 3.588084087322233 0 2.359453957386572 0 0 0 1.411464831143153 0 0 0 0.9571659452814733 0.9571659452814733 10.62952910372106 0 0 0 2.625466331757416 0 4.317283724650451 0 0 0 0 0 1:-0.166667 2:0.666667 3:0.1875 4:0.575758 5:-0.939394 6:-1 7:1 8:-0.227273 9:0.428571 10:0.1875 11:-1 12:1 13:0.151515 14:0.333333 
-0.3388448918208538 32 32 32 0 1.11838234194735 32 0 0 0 8.19077842209208 0 0 20.23791494563015 9.904594302011507 0 0 0 0 5.128658079492683 0 0 5.9807102537352 3.090176890886863 3.674622552346152 0 0 0 0 1.443124495866147 0 3.288075152177115 8.866351122498807 0 0 1.802587476223088 1.802587476223088 3.711875180654457 4.375995803069705 0 1:-0.166667 2:0.333333 3:0.1875 4:0.151515 5:0.878788 6:-0.1875 7:0.125 8:-0.227273 9:0.714286 10:0.1875 11:0.125 12:1 13:0.151515 14:1 
-0 32 32 0 0 0 0 0 0 0 0 0 0 0 0 0 0 0 0 0 7.132422652085635 0 0 0.7045001399258061 0 0 0 0 0 0 0 5.685278230294692 0 0 0 0 0 0 0 0 1:-0.204545 2:0.666667 3:0.1875 4:-0.69697 5:0.030303 6:-0.1875 7:0.125 8:-0.204545 9:0.714286 10:0.1875 11:-0.75 13:0.212121 14:0.454545 
-0 32 32 19.73934462711256 0 24.28955422508001 0 0 0 0 0 0 0 0 0 0 0 0 0 0 0 0 0 0 0 0 0 0 0 0 0 0 0 0 0 0 0 0 0 0 1:-0.159091 2:0.333333 3:0.1875 4:-0.69697 5:0.030303 6:0.125 7:0.125 8:-0.227273 9:0.714286 10:0.1875 11:-0.75 13:0.151515 14:0.151515 
-2.428828946958963 32 32 28.30826690902876 0 0 8.828780799109262 0 0 0 1.550331344168437 0 0 0 3.816888518442 0 0 0 0 1.946994503792983 0 0 0 10.64177524924791 9.967643371161431 0 0 0 3.640195532930705 0 2.675560303462923 0 0 0 5.147810427175272 1.794990771706651 1.794990771706651 0 7.760500813576557 0 1:-0.166667 2:0.333333 3:0.1875 4:1 5:0.575758 6:-0.1875 7:0.125 8:-0.227273 9:0.714286 10:0.1875 11:-0.75 13:0.151515 14:1 
-0 32 6.094987112982659 32 0 0 0 0 0 0 0 0 0 0 0 0 0 0.3146302965913671 3.690388191767203 0 4.296006210400812 0 0 0 3.311788748068735 0 0 0 0 0 0 0 0 0 0 0 0 0 0 0 1:-0.166667 2:0.333333 3:0.1875 4:-0.69697 5:0.030303 6:1 7:-0.75 8:-0.227273 9:0.714286 10:0.1875 11:-0.75 13:0.151515 14:1 
-0.1428402762640158 32 32 32 0 0 22.44103389845582 0 0 0 0 0 0 2.381904161256351 0 0 0 0 0 0 0 0 0 0 0 0 0 0 0 0 0 0 0 0 3.939388769975495 0 0 0 0 0 1:-0.166667 2:0.333333 3:-0.75 4:0.575758 5:-0.151515 6:0.1875 7:0.125 8:-0.227273 9:0.714286 10:0.125 11:0.5625 12:0.125 13:-0.757576 14:0.212121 
-2.467889295466762 32 32 32 0 5.738777724189796 32 0 0 0 1.574896295493226 0.03171416099120983 0 0 0 0 0 4.198999632709313 0 0 0 0 0.6527613943681285 0 0 0 0 0 0 0 1.804003332577369 0 0 0 0.1645287679489114 0 0 0 0 0 1:-0.159091 2:0.333333 3:0.1875 4:0.151515 5:0.454545 6:-0.1875 7:0.125 8:-0.227273 9:0.428571 10:0.1875 11:1 12:-0.9375 13:0.151515 14:-0.151515 
-0 32 32 12.56800452786005 0 0 0 0 0 0 0 0 0 26.1870537561356 0 3.041430251794916 32 0 0 0 0.07583748312704611 0 0 9.138443332901433 0 4.469376596630124 0.944064594293809 0.944064594293809 17.25494345422024 0 0 0 0 0 0 0 0 0 0 0 1:-0.545455 2:0.666667 3:0.1875 4:-1 5:-1 6:0.125 7:0.125 8:-0.55303 9:0.714286 10:0.125 11:0.5625 12:0.5625 13:1 14:-0.69697 
-0.5794300616361895 32 32 0 32 0 0 0 0 0 0 0 0 0 0 0 0 0 0 0 0 0 0 0 0 0 0 0 0 3.78033139010419 0 0 0 0 6.715542483886238 2.790466816648502 2.790466816648502 0.5489974337891981 0 0 1:0.962121 2:0.333333 3:0.125 4:0.575758 5:-0.151515 6:-0.75 7:0.125 8:0.954545 9:1 10:0.125 11:0.5625 12:0.125 13:0.151515 14:0.212121 
-0 32 32 0 32 0 0 0 0 0 21.90228578428938 0 0 0 3.530475627907225 0 0 0 0 0 10.65606088857321 0 0 0 0 0 0 0 0 0 0 0.4485920460855746 0 0 0 0 0 27.07740450537143 0 0 1:0.515152 2:1 3:0.1875 4:0.575758 5:0.151515 6:0.5625 7:0.1875 8:0.515152 9:1 10:0.1875 11:0.125 12:0.5625 13:1 14:0.575758 
-0 32 32 0 32 0 0 4.093909624433007 0 0 7.504528080415183 0 0 0 0 0 0 0 0 0 10.17744094592413 0 0 0 0 0 0.8522433590945634 0.8522433590945634 0 1.124298690464745 0 0.003847704725291974 0 0 0 0 0 0 0 0 1:0.515152 2:1 3:0.1875 4:0.212121 5:0.575758 6:-1 7:-1 8:0.515152 9:1 10:0.1875 11:-1 12:0.5625 13:0.151515 14:-0.515152 
-0 32 0 22.6174005485078 32 1.356489185780236 3.904267838081193 0 0 0 11.54057448936712 0 1.451823472034904 0 7.545714061150668 0 0 2.702104216944908 0 0 0 0 0.002449002625990663 0 0 0 0 0 0 0 0 0 2.676952214617399 0 0.747491671644868 0 0 5.400166472532776 2.374131336318008 0 1:0.848485 2:0.333333 3:0.1875 4:1 5:0.575758 6:-1 7:-1 8:0.840909 9:0.428571 10:0.1875 11:0.5625 12:-1 13:0.454545 14:0.151515 
-0 32 32 0 0 0 0 0 2.04987642807508 12.86758261972243 4.869203151092216 0.4555485661059026 0 20.82884352512239 0 20.35658548131171 15.87426073660161 0 0 0 0 0 0 1.908654455209603 0 0 3.882007648649028 3.882007648649028 32 0 0 8.548941653306695 0 0 0 0 0 0 0 0 1:-0.310606 2:0.666667 3:0.1875 4:0.151515 5:0.575758 6:0.5625 7:0.1875 8:-0.318182 9:0.714286 10:0.1875 11:0.1875 12:0.5625 13:0.151515 14:-0.757576 
-0 32 32 0 0 0 6.774589783614721 0 3.329785926692616 0 0 0 1.108881795413404 16.71617906982969 5.451700956194974 0 3.368631470492327 0 0 5.452515441512606 0 0 0 4.37007065591844 19.6772556581838 0 0 0 0 0 8.86098075015259 0 0 0 1.833224576125948 6.501734015423003 6.501734015423003 11.89633833482857 0.8837491850647332 0 1:-0.212121 2:0.666667 3:0.1875 4:0.575758 5:0.454545 6:1 7:0.5625 8:-0.212121 9:0.714286 10:0.1875 11:1 12:0.5625 13:-0.69697 14:0.151515 
-6.012536307495542 32 32 23.56728941892643 23.06671227907479 1.109652964143692 0 1.434639266735113 0.3014669509029357 0 11.02777845709816 0 4.260717695344049 7.201797110954184 0 0 0 0 0 0 0 0 0 0 1.102076331380281 0 0 0 0 2.970363726081033 0 1.142149438769479 0 0 8.134484464723741 0 0 0 0 11.82863700359676 1:-0.121212 2:0.666667 3:0.125 4:0.151515 5:1 6:-0.625 7:0.125 8:-0.121212 9:0.714286 10:0.1875 11:0.25 12:0.5625 13:-0.939394 14:0.151515 
-0 32 32 20.31070739096216 17.73257990660814 0 0 0 0 0 0 0 0 6.061889510516775 0 0 1.970847839948848 0 0 0 1.586878270937796 0 1.6723801720406 0 0 1.519552514416284 0 0 0 0 0 0 0.04403293765105513 1.004016219081239 1.000245113869075 0.1848724310536266 0.1848724310536266 0 0 13.14853595947026 1:-0.121212 2:0.666667 3:0.125 4:0.151515 5:-0.515152 6:-1 7:1 8:-0.121212 9:0.714286 10:0.125 11:1 12:0.5625 13:-0.939394 14:1 
-0 32 5.013375143322485 9.680873660401828 32 6.04381228078229 5.102249682846742 0.7932588691688962 0 0 1.599886797137461 0 0 0 0 0 0 0 0.537862224061827 0 12.67747692054168 0 0 0 0 0 5.503649434221432 5.503649434221432 0 0 0 0 0 12.20137813859102 0 0 0 0 0 0 1:0.318182 2:0.333333 3:0.125 4:-0.69697 5:0.030303 6:-0.375 7:-0.1875 8:0.310606 9:0.714286 10:0.125 11:-0.75 13:0.151515 14:-0.939394 
-0 32 32 0 19.94391744225884 0 0 0 0 0 4.523730937747221 0 0 0 0 0.7544740299824726 0 0 0 0 0 0 0 6.379723616416114 19.48153356479152 0 0 0 0 0 1.876386451646583 12.66676801187883 0 0 0 0 0 0 0.7291180236958468 0 1:-0.121212 2:0.666667 3:0.125 4:0.030303 5:0.575758 6:0.875 7:0.1875 8:-0.121212 9:0.714286 10:0.125 11:0.125 12:0.5625 13:1 14:0.212121 
-4.967962824722425 32 32 1.636643443022171 18.71424808396074 0 3.697937789553847 4.123817397402523 0 5.012163218052786 16.26288708393568 5.554039618359736 6.015539516384651 0 0 0 0 1.315199498921295 0 0 0.3080274910745129 4.936871700316527 0 0 32 0 0.7721759182350618 0.7721759182350618 0 21.82123900214232 0 0 0 11.39678130484519 0 0 0 0 0 0 1:-0.121212 2:0.666667 3:0.125 4:0.151515 5:0.575758 6:1 7:0.125 8:-0.121212 9:0.714286 10:0.125 11:0.125 12:0.5625 13:-0.939394 14:-0.69697 
-0 32 32 32 0 0.3085704965505665 16.56427853564209 2.115464733292353 0 1.031134868416429 0 7.884488046234535 0 0 0 0 13.42590124681322 0 0 0 11.01344001152499 0 0 0 0 0 0 0 2.876529046484554 0 0 0.07201462502346727 0 0 0 0 0 0 0 0 1:-0.310606 2:0.333333 3:0.1875 4:-1 5:0.272727 6:0.4375 7:-0.75 8:-0.318182 9:0.714286 10:0.1875 11:-1 12:1 13:0.454545 14:0.151515 
-0 32 11.08271431734643 27.4828972113272 26.51729000735265 6.67049393131335 0 0 0 0 0 0.06567081451452045 0 0 0 0 0 0 2.084960436350673 0 0 0 0 0 0 4.455355204124804 1.926616840767969 1.926616840767969 0 0 0 0 0 2.658556671418066 0 0 0 0 0 0 1:-0.121212 2:0.666667 3:0.125 4:-1 5:-1 6:0.125 7:0.125 8:-0.121212 9:0.428571 10:0.125 11:1 12:-0.75 13:0.272727 14:-0.151515 
-0 32 32 27.836102904126 0 1.81125128576972 29.92866146781024 0.3408352836516854 1.173244576801377 0 0 3.160962989562599 0 0 0 0 0 0 1.846560082675478 1.000195714356196 0 0.4937336319569965 0 0 0 2.928958470567042 0 0 0 0 0 0 0 0 0 0 0 0 0 0 1:-0.189394 2:0.333333 3:1 4:-1 5:-1 6:1 7:0.125 8:-0.227273 9:0.428571 10:0.1875 12:0.4375 13:0.151515 14:-0.515152 
-1.354417593961253 32 32 20.76609310145097 32 0 0 0 0 0 32 0 18.2744822799983 0 0 0 0 0 0 0 0 12.94585233443162 0 0 0 0.4524902685092411 0 0 0 0 0 0 3.936914163499614 0 0 0 0 6.788165050664738 0 0 1:0.939394 2:0.333333 3:0.1875 4:-0.69697 5:0.575758 6:0.5625 7:0.1875 8:0.931818 9:0.714286 10:0.1875 11:0.1875 12:0.5625 13:1 14:0.151515 
-0 32 22.34375028709603 0 0 0 0 0 0 0 0 0 0 0 0 0 11.2377361729857 0 0 1.83426754962274 0 0 0 24.031672142895 0 0 0 0 0 0 2.750384482874622 0 0 0 0 0 0 0 2.538854401814231 0 1:-0.30303 2:0.333333 3:0.1875 4:0.151515 5:-0.515152 6:0.125 7:1 8:-0.318182 9:0.714286 10:0.1875 11:0.125 12:-0.8125 13:1 14:0.151515 
-0 32 30.12634959540118 25.27376183764144 11.02224407538491 1.010356799235339 15.16798915675701 3.624964965117677 3.896814079351179 3.371502554004585 0 0.2209169544924985 0 31.5842533299149 1.750626534293626 0 8.2746836224222 0 0 0 0 0 0 12.28631492969778 0 0 0 0 0 0 4.628641568638988 0 0.7904779184021697 0 0 0 0 0 0.9409135853248226 0 1:-0.19697 2:0.666667 3:0.1875 4:0.151515 5:0.575758 6:0.125 7:-1 8:-0.227273 9:0.428571 10:0.1875 11:1 12:-0.9375 13:0.151515 14:1 
-0.5674902602147207 32 32 0 0 14.61077114592809 4.907007814834546 1.267668025924692 0 0 0 2.446773545465498 0 0 0 0 0 0 0 0 0 0 0 0 0 0 0.8571832296313553 0.8571832296313553 0 0 0 0 0 0 0 0 0 0 0 0 1:-0.280303 2:0.333333 3:0.1875 4:-0.939394 5:0.575758 6:-0.8125 7:0.1875 8:-0.318182 9:0.714286 10:0.1875 11:0.125 12:-0.8125 13:0.151515 14:-0.515152 
-0 32 0 0 0 0 2.400229087861419 0 0 0 0 0 0 19.41846007173183 0 0 4.15754150253516 0 0 0 0 0 0 0 0 0 0 0 0 0 0 0 0 0 0 0 0 0 0 0 1:-0.310606 2:0.333333 3:0.1875 4:-0.939394 5:0.575758 6:-0.8125 7:0.1875 8:-0.318182 9:0.714286 10:0.1875 11:0.1875 12:-0.8125 13:0.212121 14:0.454545 
-0 -0 0 32 0 0 32 0 0 0 0 0 0 0 0 0 0 0 0 0 0 0 0 0 0 0 0 0 0 0 0 0 0 0 0.6129635289304187 0 0 0 0 0 1:-0.242424 2:0.333333 3:0.125 4:0.575758 5:0.333333 6:0.125 7:1 8:-0.242424 9:0.428571 10:0.125 11:-0.375 12:0.3125 13:-0.151515 14:0.151515 
-0 -6.588929733365051 0 32 0 3.949777543393665 32 0 0 0 0 0 0 0 0 0 0 0 4.226025877328537 0 0.3624815967411321 0 0.8941045688699517 0 0 0 0 0 0 0 0 0 2.085969716190855 0 0 0 0 0 0 0 1:0.242424 2:-0.666667 3:0.1875 4:-0.69697 5:0.030303 6:-0.8125 7:-0.75 8:0.242424 9:-0.428571 10:0.1875 11:-0.75 13:0.575758 14:0.454545 
-0 -0 0 20.82420107058652 0 0 26.61112566506128 0 0 0 0 0.08851203088758641 0 0 0 0 0 2.156197619249731 0 0 0 0 0 0 0 0 0 0 0 0 0 0 0 2.720341883296625 0 0 0 0 0 0 1:0.242424 2:-0.666667 3:0.1875 4:-0.69697 5:0.030303 6:0.5625 7:0.4375 8:0.242424 9:-0.428571 10:0.1875 11:-0.75 13:-1 14:-1 
-0 -0 32 0 0 0 0 0 0 0 0 0 0 32 0 0 0 0 0 0 0 0 0 0 0 0 0 0 0 0 0 0 0 0 0 0 0 0 0 0 1:-0.530303 2:1 3:0.1875 4:1 5:1 6:-0.1875 7:-0.375 8:-0.530303 9:1 10:0.125 11:1 12:1 13:-0.151515 14:-0.151515 
-0 -7.362828600990789 0 0 0 5.307430282940897 0 0 0 0 0 0 0 0 0 0 0 0 0 0 0 0 0 0 0 0 0.9537000912412943 0.9537000912412943 0 0 0 0 0 0 0 0 0 0 0 0 1:-0.727273 2:0.333333 3:0.125 4:-0.939394 5:-0.939394 6:0.25 7:0.4375 8:-0.727273 9:0.428571 10:0.125 11:-0.375 13:0.272727 14:-0.939394 
-0 -0 32 0 32 0 0 0 0 0 0 0 0 0 0 0 0 0 0 0 0 0 0 0 0 0 0 0 0 0 0 0 0 0 0 0 0 0 0 0 1:0.954545 2:1 3:0.1875 4:-1 5:-1 6:-0.1875 7:0.125 8:0.954545 9:0.714286 10:0.1875 11:0.125 12:0.875 13:0.151515 14:-0.515152 
-0 -16.81809246390439 0 0 0 0 0 0 0 0 0 0 0 0 0 0 0 0 0 0 0 0 0 0 0 0 0 0 0 0 0 0 0 0 0 0 0 0 0 0 1:-0.439394 2:0.333333 3:0.1875 4:-0.030303 5:0.575758 6:-1 7:1 8:-0.439394 9:0.714286 10:0.1875 11:0.125 12:0.5625 13:0.151515 14:1 
-0 -0 0 0 32 0 0 0 0 0 0 0 0 0 0 0 0 0 0 0 0 0 0 0 0.7198483820758462 0 0 0 0 0 0 0 0 0 0 0 0 0 0 0 1:0.166667 2:1 3:0.1875 4:0.151515 5:0.151515 6:1 7:0.5625 8:0.166667 9:1 10:0.1875 11:0.125 12:0.125 13:0.454545 14:0.212121 
-0 -5.886145688678652 15.63125408836107 32 0 0 32 0 0 0 0 7.227711608696772 0 0 0 0 0 0 0 0 0 0 0 0 0 0 0 0 0 0 0 0 0 0 0 0 0 0 0 0 1:-0.44697 3:0.1875 4:-0.939394 5:0.454545 6:1 7:0.125 8:-0.44697 9:0.142857 10:0.1875 11:0.25 12:1 13:0.151515 14:0.575758 
-0 -32 0 32 32 0 3.74216607415035 0 0 0 0 0 0 0 0 0 0 0 0 0 9.691547078734553 0 0 0 0 0 0 0 0 0 0 0 0 0 0 0 0 0 0 0 1:0.356061 2:0.666667 3:0.125 4:-0.69697 5:0.030303 6:0.125 7:0.125 8:0.356061 9:0.714286 10:0.125 11:-0.75 13:-0.030303 14:1 
-0 -3.651441636135944 23.72124657712211 0 32 0 0 0.8680707075631049 0 0 0 0 0 0 0 0 0 0 0 0 0 0 0 0 6.208808465088334 0 0 0 0 2.962427927602615 0 0 0 0 0 0 0 0 0 0 1:0.643939 2:1 3:0.1875 4:0.212121 5:0.454545 6:1 7:-0.9375 8:0.643939 9:1 10:0.1875 11:-1 12:1 13:-0.69697 14:0.030303 
-0 -0 32 0 32 0 0 0 0 0 0 0 1.861076959937338 0 0 0 0 0 0 0 0 0 0 0 0 0 0 0 0 0 0 0 0 0 0 0 0 0 0 0 1:0.954545 2:1 3:0.1875 4:0.030303 5:0.575758 6:-0.375 8:0.954545 9:0.714286 10:-0.1875 11:0.4375 12:0.1875 13:-0.515152 14:0.151515 
-0 -0 0 0 32 0 0 0.08923456041537267 0 0 3.068103253033343 0 0 0 0 0 0 0 0 0 0 0 0 0 0 0 0 0 0 0 0 0 0 1.559517866438416 0 0 0 0 0 0 1:0.954545 2:1 3:0.1875 4:-0.333333 5:0.030303 6:1 7:-0.625 8:0.954545 9:1 10:0.1875 11:1 12:-0.9375 13:-0.151515 14:-0.515152 
-0 -0 7.290343654851947 0 32 0 0 0 0 0 0 0 0 0 0 0 0 0 0 0 0 0 0 0 0 0 0 0 0 0 0 0 0 0 0 0 0 0 0 0 1:0.272727 2:1 3:0.1875 4:-1 5:-1 6:-0.75 8:0.272727 9:0.714286 10:0.1875 11:0.125 12:0.5625 13:-0.939394 14:1 
-0.5878379922462077 -9.655251240473104 0 22.10723259376062 0 0 16.84598058880202 0 0 0 0 0 0 0 0 0 0 0 0 0 3.07934800465422 2.984923540461579 0 0 0 0 0 0 0 1.324635738385213 0 0 0 0 0 0 0 0 0 0 1:0.954545 2:-1 3:0.1875 4:-1 5:-1 6:0.1875 7:0.125 8:0.954545 9:1 10:0.1875 11:0.1875 12:0.875 13:0.151515 14:-0.515152 
-0 -9.324050263996059 14.80642066284549 0 0 0 0 0 0 0 0 0 0 13.12692620823472 0 0 32 0 0 0 0 0 0 0 0 0 1.091006632618757 1.091006632618757 0 0 0 0 0 1.824199534426557 0 0 0 0 0 0 1:-0.772727 2:0.666667 3:0.125 4:-1 5:-1 6:0.125 7:-0.75 8:-0.772727 9:0.714286 10:0.125 11:0.125 12:-0.75 13:0.151515 14:-0.69697 
-0 -0 4.899000566805625 0 0 0 0 0 0 0 0 0 0 1.043899705019512 0 0 0 0 0 0 0 0 0 0 0 0 0 0 0 0 0 0 0 0 0 0 0 0 0 0 1:-0.863636 2:0.333333 3:-0.75 4:0.151515 5:1 6:0.125 7:0.5625 8:-0.863636 9:0.428571 10:-0.75 11:0.125 12:1 13:0.030303 14:0.575758 
-0 -0.8002034744836233 32 0 0 0 0 0 0 0 0 0 0 0 0 0 13.24224175466632 0 0 0 0 0 0 0 0 0 0 0 0 0 0 0 0 0 0 0 0 0 0 0 1:-0.80303 2:0.666667 3:0.1875 4:1 5:0.575758 6:-1 7:0.4375 8:-0.80303 9:0.714286 10:0.1875 11:1 12:-0.9375 13:0.151515 14:0.151515 
-0 -9.428880266163745 19.08452694110839 32 32 0 32 0 0 0 0 0 0 0 0 0 0 0 0 0 0 0 0 0 0 0 0 0 0 0.1280999919456426 0 0 0 0 0 0 0 0 0 0 1:0.30303 2:0.333333 3:0.1875 4:1 5:-0.69697 6:0.5625 7:0.125 8:0.30303 9:0.428571 10:0.1875 11:0.125 12:0.875 13:0.151515 14:-1 
-0 -0 0 0 0 0 0 0 0 0 0 0 0 0 0 0 0 0 0 0 0 0 0 0 0 0 0.5793343945460204 0.5793343945460204 0 0 0 0 0 0 2.175047025222715 0 0 0 0 0 1:0.30303 2:0.333333 3:0.1875 4:1 5:-0.69697 6:0.5625 7:1 8:0.30303 9:0.428571 10:0.1875 11:0.4375 12:0.25 13:0.151515 14:-1 
-0 -1.728454989361933 0 32 32 0 32 0 0 0 0 0 0 0 0 0 0 0 0 0 0 0 0 0 0 1.494300998098647 0 0 0 0 0 0 0 0 0 0 0 0 0 0 1:0.30303 2:-0.333333 3:0.1875 4:-0.333333 5:0.030303 6:0.125 7:-1 8:0.30303 9:0.428571 10:0.1875 11:1 12:0.5625 13:0.151515 14:0.151515 
-0 -0 0 0 23.01498343110832 0 0 0 0 0 0 0 0 0 0 0 0 0 0 0 0 0 0 0 0 0 0 0 0 0 0 0 0 0 0 12.39359455938001 12.39359455938001 0 0 0 1:0.954545 2:1 3:0.1875 4:0.575758 5:0.454545 6:0.125 7:0.125 8:0.954545 9:1 10:0.1875 11:0.125 12:0.5625 13:-0.939394 14:1 
-0 -0 0 0 0 0 0 0 0 0 0 0 0 0.9300126437960409 0 0 23.44846136451606 0 0 0 0 0 0 0 0 0 0 0 0 0 0 0 0 0 0 0 0 0 0 0 1:-0.893939 2:0.333333 4:-0.515152 5:-0.69697 6:0.125 7:0.5625 8:-0.893939 9:0.428571 11:0.5625 12:-0.75 13:0.818182 14:0.151515 
-0 -0 12.12468582138361 13.90060982705275 32 3.961491874146616 18.86348571121453 1.040281387524299 0 0 8.857775993568811 0 3.262122353047791 0 0 0 0 0 1.780026235861577 0 0 0 0 0 0 0 0 0 0 0 0 0 0 0 0 0 0 0 0 0 1:0.954545 2:1 3:0.1875 4:-0.939394 5:0.272727 6:-0.5625 7:0.125 8:0.954545 9:-0.428571 10:0.1875 11:-1 12:1 13:-0.515152 14:0.151515 
-0 -0 0 7.602310759226645 0 0 27.91022355637904 0 0 0 0 0 0 0 0 0 0 0 0 0 0 0 0 0 0 0 0 0 0 0 0 0 0 0 0 0 0 1.497662880971899 0 0 1:-0.44697 3:0.1875 4:0.272727 5:0.454545 6:0.125 7:1 8:-0.44697 9:0.142857 10:0.1875 11:1 12:1 13:0.151515 14:0.212121 
-0 -0 0.9365054762370191 0 10.06326182147258 0 0 0 0 0 0 0 0 0 0 0 0 0 0 0 0 0 0 0 0 0 0 0 0 0 0 0 0 0 0 0.04068108659180462 0.04068108659180462 0 0 0 1:0.954545 2:1 3:0.1875 4:0.878788 5:0.272727 6:0.125 7:1 8:0.954545 9:1 10:0.1875 11:-1 12:0.875 13:-0.151515 14:0.151515 
-0 -32 32 0 32 3.060713711657854 0 1.776371193476246 0 0 2.20350644716103 2.22869774204484 0 0 0 0 0 0 0 0 0 0 0 0 0 0 0 0 0 0 0 0.8719520227445107 0 0 0 0 0 0 0 0 1:-0.181818 2:0.666667 3:0.1875 4:-1 5:0.575758 6:0.125 7:0.125 8:-0.181818 9:0.714286 10:0.1875 11:-1 12:0.5625 13:-0.69697 14:0.030303 
-0 -18.89146624553267 32 0 32 0 0 0 0 0 17.25452176587324 7.066542699020301 0 0 0 0 0 0 0 0 0 0 0 0 0 0 0 0 0 0 0 0 0 2.619062008147548 0 0 0 0 0 0 1:-0.181818 2:0.666667 3:0.1875 4:-1 5:0.575758 6:0.125 7:0.125 8:-0.181818 9:0.714286 10:0.1875 11:0.125 12:0.5625 13:-0.69697 14:0.030303 
-0 -0 0 0 0 0 0 0 0 0 0 0 0 0 0 0 15.91950289156959 0 0 0 0 0 0 0 0 0 0 0 0 0 0 0 0 0 0 0 0 0 0 0 1:-0.80303 2:0.333333 3:-1 4:-0.939394 5:1 6:1 7:0.1875 8:-0.80303 9:0.714286 10:-1 11:0.8125 12:0.5625 13:0.454545 14:0.212121 
-0 -8.70978053847235 0 0 13.13347433402233 0 0 0 0 0 0 0 0 0 0 0 0 0 0 4.388127128122027 0 0 0 0 0 0 0 0 0 0 0 0 0 0 0 0 0 0 0 0 1:-0.113636 2:0.666667 3:1 4:0.151515 5:-0.939394 6:1 7:1 8:-0.113636 9:0.714286 10:0.1875 11:0.5625 12:0.25 13:-0.939394 14:1 
-0 -0 3.524507442593236 0 32 0 0 0 0 0 0 0 0 0 0 0 0 0 0 0 0.9692579611748581 0 0 0 0 0 0 0 0 0 0 0 0 0 0 0 0 0 0 0 1:0.954545 2:1 3:0.1875 4:0.575758 5:0.454545 6:-0.1875 7:-0.1875 8:0.954545 9:1 10:0.1875 11:0.125 12:-0.5625 13:0.151515 14:0.212121 
-0 -10.37293964538646 0 0 0 0 0 0 0 0 0 0.1014447049136804 0 0 0 0 0 0 0 0 0 0 0 0 0 0 0 0 0 0 0 2.378681331108447 0 0 0 0 0 0 0 0 1:-0.181818 2:0.666667 3:0.1875 4:-0.939394 5:1 6:0.125 7:0.5625 8:-0.181818 9:0.714286 10:0.1875 11:-0.75 13:0.151515 14:1 
-0 -22.36787288753422 0 0 32 0 0 0 0 0 0 0 0 0.6887056400578943 0 0 0 0 0 0 8.015794722357464 0 0 0 0 0 0 0 0 0 0 0 0 0 0 0 0 0 0 0 1:0.787879 2:1 3:0.1875 4:-1 5:0.454545 6:0.375 7:-0.4375 8:0.787879 9:1 10:0.1875 11:0.125 12:-0.8125 13:0.151515 14:0.151515 
-0 -0 32 0 32 0 0 0 0 0 12.50412913776207 0 0 0 0 0 0 0 0 0 0 0 0 0 0 0 0 0 0 0 0 0 0 0 0 0 0 0 0 0 1:0.787879 2:1 3:0.1875 4:0.151515 5:0.575758 6:0.125 7:1 8:0.787879 9:1 10:0.1875 11:0.5625 12:0.4375 13:-0.515152 14:0.151515 
-0 -0 0 0 0 0 0 0.2112308436774751 0 0 0 0 0 0 0 0 0 0 0 0 0 0 0 0 0 0 0 0 0 0 0 0 0 0 0 0 0 0 0 0 1:-0.181818 2:0.666667 3:0.1875 4:0.030303 5:-0.515152 6:0.5625 7:-1 8:-0.181818 9:0.714286 10:0.1875 11:-0.75 13:-0.939394 14:1 
-0 -0.3282494866997762 32 0 32 4.649411261498597 0 1.127422902602511 0 0 0 0 0 0 0 0 0 0 0 0 0 0 0 0 0 0 1.751925876594147 1.751925876594147 0 0 0 0 0 7.630103716609086 0 0 0 0 0 0 1:-0.0227273 2:1 3:0.1875 4:-1 5:-1 6:-1 7:1 8:-0.0227273 9:1 10:0.1875 11:0.125 12:0.5625 13:-0.939394 14:-0.939394 
-0 -0 0 32 0 0 32 0 0 0 0 1.9140192151817 0 0 0 0 0 0 0 0 0 0 0 0 0 3.523577010254186 0 0 0 0 0 0 0 0 0 0 0 0 0 0 1:-0.568182 3:0.1875 4:-1 5:0.151515 6:0.3125 7:0.125 8:-0.568182 9:0.142857 10:0.1875 11:0.4375 12:0.5625 13:0.333333 14:0.151515 
-0 -0 8.928699968987763 0 0 0 0 0 0 1.968503550607648 0 0 0 0 0 0 0 0 0 0 0 0 0 0 0 0 0 0 0 0 0 0 0 0 0 0 0 0 0 0 1:-0.0833333 2:1 3:0.1875 4:0.575758 5:0.151515 6:0.1875 7:-1 8:-0.0833333 9:1 10:0.1875 11:0.125 12:0.5625 13:0.575758 14:-0.939394 
-5.718988864443545 -29.86370930378479 17.3321097034815 0 20.31688600490604 0 0 0 0 0 0 0 0 0 0 0 0 3.46851625247199 0 0 0 0 0 0 0 0 0 0 0 0 0 0 0 0 0 0 0 0 0 0 1:0.992424 2:-0.333333 3:0.1875 4:0.212121 5:1 6:0.125 7:0.125 8:0.992424 9:0.714286 10:0.1875 11:0.5625 12:-1 13:0.151515 14:-0.939394 
-0 -0 0 12.98044692361007 2.082723674974906 0 7.422724698469349 0 3.996124045699157 0 0 0 0 0 0 0 0 0 0 0 0 0 0 0 0 0 0 0 0 0 0 0 7.314339075789515 0 0 0 0 0 0 0 1:0.992424 2:1 3:0.125 4:-0.333333 5:0.030303 6:0.125 7:-1 8:0.992424 9:-0.142857 10:0.1875 11:0.5625 12:0.4375 13:0.151515 14:1 
-0 -2.418130509913643 32 32 32 0 19.92275100946095 0 0 0 0 0 3.841591509180513 0 0 0 0 0 0 0 0 0 0 0 0 0 0 0 0 0 0 0 0 0 0 0 0 0 0 0 1:0.348485 2:0.666667 3:0.1875 4:0.151515 5:1 6:-0.5625 7:0.5625 8:0.348485 9:0.714286 10:0.1875 11:0.5625 12:1 13:-0.151515 14:0.151515 
-0 -0 4.253674374864719 0 32 0 0 0 0 0 0.0009433718458054783 0 0 0 0 0 0 0 0 0 0 0 0 0 0 0 0 0 0 0 0 0 0 0 0 0 0 0 0 0 1:0.174242 2:1 3:0.1875 4:-0.030303 5:0.575758 6:1 7:0.5625 8:0.174242 9:1 10:0.1875 11:-0.0625 12:0.5625 13:-0.939394 14:1 
-0 -0 27.65482088393469 0 32 0 0 0 0 0 9.542407011253234 0 0 0 0 0 0 0 0 0 0 0 0 0 7.592624022158371 0 0 0 0 0 0 0 0 0 0 0 0 0 0 0 1:0.174242 2:1 3:0.1875 4:-0.030303 5:0.575758 6:1 7:0.5625 8:0.174242 9:1 10:0.1875 11:-0.0625 12:0.5625 13:-0.939394 14:1 
-0 -0.2536445790627077 0 0 0 0 0 0 0 0 0 0 0 0 0 0 0 0 0 0 0 0 0 0 0 0 0 0 0 0 0 0 0 0 0 0 0 0 0 0 1:-0.25 2:1 3:0.1875 4:1 5:-0.878788 6:1 7:0.125 8:-0.25 9:1 10:1 11:1 12:0.0625 13:-0.757576 14:0.212121 
-0 -6.165123017950229 0 0 12.78470655117482 0 0 0 0 0 0 0 0 0 0 0 0 0 0 0 0 0 0 0 0 0 0 0 0 0 0 0 0 0 0 0 0 0 0 0 1:-0.25 2:1 3:0.1875 4:1 5:-0.878788 6:1 7:0.125 8:-0.25 9:1 10:1 11:1 12:0.0625 13:-0.757576 14:0.212121 
-0 -0 0 0 0 0.07404976317160983 0 0 0 0 0 0 0 0 0 0 0 0 0 4.604886668054654 0 0 0 0 0 0 0.145538973551937 0.145538973551937 0 0 0 0 0 0 0 0 0 0 0 0 1:-0.772727 2:0.666667 3:1 4:-1 5:0.454545 6:-0.0625 7:0.5625 8:-0.772727 9:0.714286 10:1 11:-0.875 12:-0.875 13:-0.515152 14:0.151515 
-0 -0 1.873818994398032 0 0 0 0 0 0 0 0 0 0 0 0 0 0 0 0 0 0 0 0 0 0 0 0 0 0 0 0 0 0 0 0 0 0 0 0 0 1:-0.242424 2:0.333333 3:0.125 4:0.272727 5:0.333333 6:1 7:-0.625 8:-0.242424 9:0.428571 10:0.125 11:0.25 12:0.3125 13:0.575758 14:0.212121 
-0 -32 0 16.79977007201908 0 0 0 0 0 0 0 0 0 10.50308256811343 0 0 0 0 0 0 0 0 0 0 0 0 0 0 0 0 0 0 0 0 0 0 0 0 0 0 1:-0.242424 2:0.333333 3:0.125 4:-0.69697 5:0.333333 6:-1 7:-1 8:-0.242424 9:0.428571 10:0.125 11:0.5625 12:0.3125 13:1 14:0.151515 
-0 -0 0 0 7.703857114919638 0 0 0 0 0 0 0 0 0 0 0 0 0 0 0 0 0 0 0 0 0 0 0 0 0 0 0 0 0 0 0 0 0 0 0 1:0.734848 2:1 3:0.1875 4:-0.69697 5:0.575758 6:0.5625 7:0.125 8:0.734848 9:1 10:0.1875 11:0.125 12:0.125 13:1 14:0.575758 
-0 -0 0 0 0 0 0 0 0 0 0 0 0 0.1697077147959918 0 0 0 0 0 4.897992268109176 0 0 0 0 0 0 0 0 0 0 0 0 0 0 0 0 0 0 0 0 1:-0.522727 2:1 3:0.1875 4:0.151515 5:0.878788 6:0.125 7:1 8:-0.522727 9:1 10:0.1875 11:0.125 12:0.5625 13:0.575758 14:1 
-0 -0 0 32 0 0 32 0 0 0 0 0 0 0 0 0 0 0 0 0 0 0 0 0 0 0 0 0 0 0 0 0 0 0 0 0 0 0 0 0 1:-0.44697 3:0.1875 4:0.030303 5:1 6:0.125 7:0.5625 8:-0.44697 9:0.142857 10:0.1875 11:0.5625 12:1 13:0.151515 14:-0.69697 
-0 -0 0 0 32 0 0 0 0 0 0 0 0 0 0 0 0 0 0 0 0 0 0 0 0 0 0 0 0 0 0 0 0 0 0 0 0 0 0 0 1:0.734848 2:1 3:0.1875 4:0.515152 5:0.454545 6:-0.5625 7:0.125 8:0.734848 9:1 10:0.1875 11:0.125 12:0.5625 13:0.575758 14:1 
-0 -0 0 32 0 0 32 0 0 0 0 0 0 0 0.310650544060276 0 0 0 0 0 0 0 0 0 0 0 0 0 0 0 0 0 1.805423985007611 0 0 0.2757036476667159 0.2757036476667159 0 4.853353536456825 0 1:0.825758 2:-0.666667 3:0.1875 4:0.515152 5:0.454545 6:0.5625 7:0.4375 8:0.825758 9:-0.428571 10:0.1875 11:0.5625 12:-1 13:0.575758 14:0.515152 
-0 -32 32 0 8.538135379360462 0 0 0 0 0 1.898389313754069 0 0 24.5989955955911 0 0 0 0 0 0 0 0 0 0 0 0 0 0 0 0 0 0 0 0 0 0 0 0 0 0 1:-0.030303 2:1 3:0.1875 4:0.515152 5:0.454545 6:-0.5625 7:0.125 8:-0.030303 9:1 10:0.1875 11:0.125 12:0.5625 13:0.575758 14:1 
-0 -0 0 0 0 0 0 0 0 0 0 0 0 0 0 0 0 0 0 0 0 2.795432725033254 0 0 0 0 0 0 0 0 0 0 0 0 0 0 0 0 0 0 1:0.780303 2:1 3:0.1875 4:-1 5:-1 6:1 7:0.5625 8:0.780303 9:1 10:0.1875 11:0.125 12:0.5625 13:1 14:-0.151515 
-0 -0 22.66002809399115 0 0 0 0 0 0 0 0 0 0 15.31107240144444 0 0 0 0 0 0 0 0 0 0 0 0 0 0 0 0 0 0 0 0 0 0 0 10.03222668803459 0 0 1:-0.575758 2:0.333333 3:0.125 4:0.818182 5:0.575758 6:0.5625 7:0.4375 8:-0.575758 9:0.428571 10:0.125 11:0.8125 12:0.5625 13:0.575758 14:0.575758 
-0 -0 0 0 0 0 0 0.07687973482834731 12.97205177420237 0 0 0 0 0 0 0 0 0 0.7551514756524745 0 0 0 2.110256658767995 0 0 0 0 0 0.7022385810111225 0 0 0 5.267850254588141 0 0 0 0 0 0 0 1:-0.863636 2:0.333333 4:1 5:-0.69697 6:0.5625 7:-0.1875 8:-0.863636 9:-1 10:-0.75 11:0.125 12:1 13:0.030303 14:0.575758 
-0 -0 0 0 32 0 0 0 0 0 0 0 0 0 0 0 0 0 0 0 0 0 0 0 0 0 0 0 0 0 0 0 0 0 0 0 0 0 0 0 1:0.575758 2:1 3:0.1875 4:0.151515 5:0.151515 6:0.5625 7:0.1875 8:0.575758 9:1 10:0.1875 11:0.1875 12:0.5625 13:0.454545 14:0.151515 
-0 -9.313176992428975 0 0 0 0 0 0 0 0 0 0.9767556953830759 0 0 0 0 0 0 0 0 0 0 0 0 0 0 0 0 0 0 0 0 0 0 0 0 0 0 0 0 1:0.174242 2:1 3:0.1875 4:-1 5:0.454545 6:1 7:0.5625 8:0.174242 9:1 10:0.1875 11:0.25 12:0.5625 13:1 14:0.575758 
-0 -0 29.82240458156081 0 0 0 0 0 0 0 0 0 0 0 0 3.461964220271224 5.115237386121506 0 0 0 0 0 0 0 0.002931717037309379 0 0 0 1.174807511801359 3.243451126348015 0 0 0 0 0 0 0 0 0 0 1:-0.613636 2:0.666667 3:0.1875 4:0.151515 5:1 6:0.4375 7:0.125 8:-0.613636 9:0.714286 10:0.1875 11:-1 12:1 13:-1 14:-1 
-0 -4.370754236333329 10.49152196056023 0 0 0.03046926717889746 0 0 0 0 0 0 0 0 0 0 0 0 0 0 0 0 0 0 0 0 0 0 0 0 0 0 0 0 0 0 0 0 0 0 1:-0.613636 2:0.666667 3:0.1875 4:-1 5:0.575758 6:-1 7:0.9375 8:-0.613636 9:0.714286 10:0.1875 11:1 12:-0.625 13:0.151515 14:0.151515 
-0 -32 32 0 0 1.979781339359777 0 0 0 0 0 0 0 5.731467180504762 0 0 0 0 0 0.9172813124498298 0 0 0 0 0 0 0.1413320786155381 0.1413320786155381 0 0 0 0 0 0 0 0 0 0 0 0 1:-0.613636 2:0.666667 3:0.1875 4:-1 5:0.575758 6:-1 7:0.9375 8:-0.613636 9:0.714286 10:0.1875 11:1 12:-0.625 13:0.151515 14:0.151515 
-0 -0 32 0 32 0 0 0 0 0 0 0 0 5.833837178217196 0 0 0 0 0 0 0 0 0 0 0 0 0 0 0 0 0 0 0 0 0 0 0 0 0 0 1:-0.0227273 2:1 3:0.1875 4:0.151515 5:0.575758 6:0.4375 7:-0.375 8:-0.0227273 9:1 10:0.1875 11:1 12:1 13:0.454545 14:0.212121 
-0 -0 0 32 0 0 32 0 0 0 0 0 0 0 0 0 0 0 0 0 0 0 4.524117330822276 0 0 0 0 0 0 0 0 0 13.0952538842296 0 0 0 0 6.344553476746962 1.736205254487159 0 1:0.121212 2:-0.333333 3:0.1875 4:0.151515 5:0.272727 6:0.125 7:0.4375 8:0.121212 9:-0.142857 10:0.1875 11:0.125 12:0.5625 13:0.151515 14:0.151515 
-0 -14.32283756547615 0 0.5353236938946502 0 0 0 0 0 0 0 0 0 0 0 0 0 0 0 0 0 0 0 0 0 0 0 0 0 0 0 0 0 0 0 0 0 3.969949431448323 0 0 1:0.992424 2:-0.333333 3:0.1875 4:-0.939394 5:0.575758 6:0.125 7:0.125 8:0.992424 9:1 10:0.125 11:1 12:0.5625 13:1 14:0.151515 
-0 -0 32 0 0 0 0 0 0 0 0 0 0 0 0 0 0 0 0 0 0 0 0 0 2.577792624402786 0 0 0 0 1.783716635405326 0 0 0 0 0 2.627412329257206 2.627412329257206 7.231329706638415 0 0 1:0.992424 2:1 3:0.125 4:1 5:0.575758 6:1 7:0.125 8:0.992424 9:1 10:0.1875 11:0.5625 12:0.875 13:-0.151515 14:0.151515 
-0 -0 25.13703563873398 32 0 0 32 0 0 0 0 0 0 0 0 0 0 0 0 0 0 0 0 0 0 0 0 0 0 0 0 0 0 0 0 0 0 0 0 0 1:-0.242424 2:0.333333 3:0.125 4:0.151515 5:0.333333 6:0.125 7:0.125 8:-0.242424 9:0.428571 10:0.125 11:0.125 12:0.3125 13:0.151515 14:0.151515 
-0 -0 0 0 0 0 0 0 0 0 0 0 0 0 0 0 0 0 0 0 0 0 0 0 0 0 0 0 0 0 4.980812125583645 0 0 0 0 0 0 0 0 0 1:-0.0681818 2:1 3:0.1875 4:0.575758 5:0.575758 6:1 7:0.5625 8:-0.0681818 9:1 10:0.1875 11:0.5625 12:0.5625 13:1 14:0.575758 
-0 -0 5.53663386402631 13.92738878383553 0 0 23.05186926027022 0 0 0 0 0 0 0 0 0 0 0 3.615039509735979 0 0 0 0 0 0 0 0 0 0 0 0 0 1.336616391483536 0 0 0 0 0 0 0 1:0.818182 2:-0.666667 3:0.1875 4:-1 5:-1 6:0.4375 7:1 8:0.818182 9:-0.428571 10:0.1875 11:-0.0625 12:0.5625 13:-0.939394 14:1 
-0 -0 0 0 32 0 0 0 0 0 0 0 0 0 0 0 0 0 0 0 0 0 0 0 0 0 0 0 0 0 0 0 0 0 0 0 0 0 0 0 1:0.757576 2:1 3:0.1875 4:0.454545 5:0.454545 6:1 7:-1 8:0.757576 9:1 10:0.1875 11:0.125 12:1 13:0.454545 14:0.212121 
-0 -0 0 0 32 0 0 0 0 0 0 0 0 0 0 0 0 0 0 0 0 0 0 0 0 0 0 0 0 0 0 0 0 0 0 0 0 0 0 0 1:0.757576 2:1 3:0.1875 4:0.151515 5:1 6:0.4375 7:0.1875 8:0.757576 9:1 10:0.1875 11:1 12:0.25 13:0.575758 14:0.454545 
-0 -0 32 0 0 0 0 0 0 0 0 0 0 0 0 0.5687219828371913 4.689381686136164 0 0 0 0 0 0 0 0 0 0 0 5.466680140792164 0 0 0 0 0 0 0 0 0 0 0 1:-0.613636 2:0.666667 3:0.1875 4:-0.939394 5:0.878788 6:0.125 7:0.125 8:-0.613636 9:0.714286 10:0.1875 11:0.5 12:1 13:0.151515 14:0.151515 
-0 -15.36719509842797 32 0 10.63310025977562 0 0 0 0 0 0 0 0 0 0 0 0 0 0 0 0 0 0 0 0 0 0 0 0 0 0 0 0 0 0 0 0 0 0 0 1:0.181818 2:1 3:0.1875 4:-1 5:-1 6:1 7:0.5625 8:0.181818 9:1 10:0.1875 11:0.5625 12:0.5625 13:0.454545 14:0.151515 
-0 -0 19.21268044107709 0 9.323070274844167 0 0 0 0 0 0 0 0 0 0 0 0 0 0 0 0 0 0 0 0 0 0 0 0 0 0 0 0 0 0 0 0 0 0 0 1:0.181818 2:1 3:0.1875 4:0.575758 5:0.575758 6:0.5625 7:0.5 8:0.181818 9:1 10:0.1875 11:0.5625 12:0.5625 13:1 14:-0.575758 
-0 -0 9.19207317144336 0 32 0 0 0 0 0 0 0 0 0 0 0 0 0 0 0 0 0 0 0 0 2.38950861195084 0 0 0 0 0 0 0 0 0 0 0 0 0 0 1:0.181818 2:1 3:0.1875 4:-1 5:-1 6:-0.5625 7:0.125 8:0.181818 9:1 10:0.1875 11:0.5625 12:0.5625 13:1 14:0.575758 
-0 -0 25.82802230793553 0 0 0 0 0 0 0 0 0 0 0 0 0 0 0 0 0 0 0 0 0 0 18.56005071058368 0 0 0 0 0 0 0 0 0 0 0 0 0 0 1:0.181818 2:1 3:0.1875 4:-1 5:-1 6:0.5625 7:0.5625 8:0.181818 9:1 10:0.1875 11:0.5625 12:0.5625 13:0.575758 14:0.515152 
-0 -0 14.49956741258138 0 0 0 0 0 0 0 0 0 0 0 0 0 0 0 0 0 0 0 0 0 0 0 0 0 4.962456252221704 0 0 0 0 0 0 0 0 0 0 0 1:-0.469697 2:0.666667 3:0.1875 4:0.515152 5:0.878788 6:-1 7:1 8:-0.469697 9:0.714286 10:0.1875 11:-1 12:0.5625 13:-0.939394 14:1 
-0 -0 32 0 0 0 0 0 0 0 0 0 0 0 0 0 0 0 0 0 0 0 0 0 0 0 0 0 0 0 0 0 0 0 0 0 0 0 0 0 1:-0.469697 2:0.666667 3:0.1875 4:0.151515 5:0.454545 6:-0.5625 7:0.125 8:-0.469697 9:0.714286 10:0.1875 11:1 12:1 13:-0.515152 14:-0.333333 
-0 -2.091633728967369 32 0 2.847670666442072 0 0 0.4236382140448324 0 0 0 0 0 0 0 0 0 0 0 0 0 0 0 0 0 0 0 0 0 2.847822189953181 0 0 0 0 0 0 0 0 0 0 1:-0.469697 2:0.666667 3:0.1875 4:1 5:1 6:-0.5625 7:-0.375 8:-0.469697 9:0.714286 10:0.1875 11:0.25 12:0.5625 13:-0.939394 14:-0.939394 
-0 -0 21.03947595447944 0 0 0 0 0.8915431949551479 0 0 0 0 0 2.336393609959892 0 0 0 0 0 0 0.8471941567461488 0 0 0 0 0 0 0 0 0 0 0 0 0 0 0 0 0 0 0 1:-0.469697 2:0.666667 3:0.1875 4:0.272727 5:0.575758 6:-1 7:-1 8:-0.469697 9:0.714286 10:0.1875 11:0.125 12:0.5625 13:-0.939394 14:1 
-0 -0 8.316700400275021 0 32 0 0 0 0 0 0 0 0 0 0 0 0 0 0 0 0 0 0 0 0 0 0 0 0 0 0 0 0 0 0 0 0 0 0 0 1:0.863636 2:1 3:0.1875 4:0.818182 5:0.575758 6:0.1875 7:0.25 8:0.863636 9:1 10:0.1875 11:0.25 12:0.5625 13:0.212121 14:0.151515 
-0 -0 0 0 1.321696407308257 0 0 0 0 0 0.1201102960534872 0 0 0 0 0 0 0 0 0 0 0 0 0 0 0 0 0 0 0 0 0 0 0 0 0 0 0 0 0 1:0.234848 2:1 4:0.151515 5:-0.69697 6:0.5625 7:-0.3125 8:0.234848 9:1 11:1 12:-0.75 13:0.575758 14:-0.939394 
-0 -0 0 0 0 0 0 0 0 0 0 0 0 0 0 0 0 0 0 0 0 0 0 0 0 0 0 0 0.2765917285017245 0 0 0 0 0 0 0 0 0 0 0 1:-0.75 3:0.1875 4:0.333333 5:-0.757576 6:0.125 7:-0.375 8:-0.75 9:0.142857 10:0.1875 11:-0.1875 12:1 13:0.151515 14:1 
-0 -15.84633505065189 0.3718624244764138 0 30.79680598956944 0 0 0 0 0 1.196990103469816 0 0 0 0 0 0 0 0 0 0 0 0 1.447012018222205 0 0 1.389798815917814 1.389798815917814 0 0 0 0 0 0 0 0 0 0 0 0 1:0.234848 2:1 4:0.151515 5:-0.69697 6:0.5625 7:-0.3125 8:0.234848 9:1 11:1 12:-0.75 13:0.575758 14:-0.939394 
-0 -11.22213356619529 0 0 0 0 0 0 0 0 0 0 4.448440585201969 0 0 0 0 0 0 0 0 0 0 0 0 0 0 0 0 1.684040070475131 0 0 0 3.021467395777474 0 0 0 0 0 0 1:-0.242424 2:0.333333 3:0.125 4:0.272727 5:0.333333 6:0.5625 7:0.4375 8:-0.242424 9:0.428571 10:0.125 11:0.25 12:0.3125 13:-0.575758 14:-0.939394 
-0 -32 32 32 12.7593175471846 0.4550155651920482 21.46474270646423 0 0 0 0 0 0 0 0 0 0 0 0 0 0 0 0 0 0 0 0 0 0 0 0 0 0 0 0 0 0 0 0 0 1:-0.242424 2:0.333333 3:0.125 4:0.272727 5:0.333333 6:-0.625 7:-1 8:-0.242424 9:0.428571 10:0.125 11:0.25 12:0.3125 13:-0.151515 14:0.151515 
-0.05770179483542077 -0 0 32 0 1.027126546597509 0 0 0 0 0 0 0 0 0 0 0 0 0 0 0 0 0 0 0 0 0 0 0 0 0 0 0 0 0 0 0 0 0 0 1:-0.242424 2:0.333333 3:0.125 4:0.272727 5:0.333333 6:0.5625 7:-1 8:-0.242424 9:0.428571 10:0.125 11:0.125 12:0.3125 13:-0.515152 14:0.151515 
-0 -0 32 0 0 0 0 0 0 0 0 0 0 0 0 0 0 0 0 0 0 0 0 0 0 0 0 0 7.725588043325769 0 0 4.243575045094148 0 0 0 0 0 0 0 0 1:-0.651515 2:0.666667 3:0.1875 4:0.272727 5:0.454545 6:1 7:0.5625 8:-0.651515 9:0.714286 10:0.1875 11:0.25 12:0.5625 13:-0.151515 14:0.151515 
-0.8942558844505493 -5.648966467370948 2.366976948729004 0 32 0 0 0 0 0 0 0 0 0 0 0 0 0 0 0 0 0 0 0 0 0 0 0 0 0 0 0 0 0 0 9.425308866445388 9.425308866445388 0 0 0 1:0.0606061 2:0.666667 3:0.125 4:1 5:0.212121 6:1 7:0.125 8:0.0606061 9:0.714286 10:0.125 11:1 12:0.1875 13:-0.939394 14:1 
-0 -0 0 0 0 0 0 0 0 0 0 0 0 0 0 1.838197029152472 0 0 0 0 0 0 0 0 0 0 0 0 0 0 0 0 0 0 0 0 0 0 0 0 1:-0.44697 3:0.1875 4:0.151515 5:-0.939394 6:1 7:0.125 8:-0.44697 9:0.142857 10:0.1875 11:0.25 12:1 13:0.151515 14:-1 
-0 -0 6.325999094136839 0 19.17366786989287 3.190167021395162 0 0.4511837572436211 0 0 0 0 0 0 0 0 0 0 0 0 0 0 0 0 0 0 0 0 0 0 0 0 0 0 0 0 0 0 0 0 1:0.530303 2:1 3:0.1875 4:-1 5:-1 6:-0.5625 7:0.125 8:0.530303 9:1 10:0.1875 11:-1 12:0.5625 13:-0.939394 14:1 
-0 -14.24853493103113 0 0 32 0 0 0 0 0 0 0 0 0 0 0 0 0 0 0 18.09617938469443 0 0 0 0 0 1.806919270381238 1.806919270381238 0 0 0 0 0 0 0 0 0 0 0 0 1:0.530303 2:1 3:0.1875 4:0.151515 5:0.575758 6:0.125 7:-0.5625 8:0.530303 9:1 10:0.1875 11:-1 12:0.5625 13:0.151515 14:-0.939394 
-0 -0 0 0 6.112219794435589 0 0 0.1557892121743297 0 0 0 0 0 4.228785177853286 0 0 0 0 0 0 0 0 0 0 0 0 0 0 0 0 0 0 0 0 0 0 0 0 0 0 1:0.189394 2:1 3:0.1875 4:-1 5:-1 6:0.875 7:-0.75 8:0.189394 9:1 10:0.1875 11:0.125 12:-0.5625 13:-0.939394 14:1 
-0 -23.66690328399078 11.2808276670225 0 32 0 0 0 0 0 0 0 0 0 0 0 0 0 0 0 0 0 0 2.556161249451762 0 0 0.3696366142638067 0.3696366142638067 0 0 0 0 0 0 0 0 0 0 0 0 1:0.189394 2:1 3:0.1875 4:0.151515 5:-0.515152 6:-1 7:1 8:0.189394 9:1 10:0.1875 11:0.125 12:-0.5625 13:1 14:0.151515 
-0 -0 32 0 0 0 0 0 0 0 0 0 0 0 0 0 0 0 0 0 0 0 0 0 0 0 0 0 0 0 0 0 0 0 0 0 0 0 0 0 1:-0.242424 2:0.333333 3:0.125 4:0.272727 5:0.333333 6:1 7:0.125 8:-0.242424 9:0.428571 10:0.125 11:0.5625 12:0.3125 13:0.151515 14:0.151515 
-0 -14.39567709566191 0 24.19475282018772 0 0 10.25367418153646 0 0 0 0 0 0 0 0 0 0 0 0 0 0 0 0 0 0 0 0 0 0 0 0 0 0 0 0 0 0 0 0 0 1:-0.242424 2:0.333333 3:0.125 4:0.272727 5:0.333333 6:0.125 7:-0.5625 8:-0.242424 9:0.428571 10:0.125 11:1 12:0.3125 13:1 14:0.151515 
-0 -0 32 0 0 0 0 0 0 0 0 4.771856102602336 0 0 0 0 0 0 0 0 0 0 0 0 0 0 0 0 0 0 0 0 0 0 0 0 0 0 0 0 1:-0.242424 2:0.333333 3:0.125 4:-0.515152 5:0.333333 6:0.125 7:0.5625 8:-0.242424 9:0.428571 10:0.125 11:0.25 12:0.3125 13:-0.515152 14:0.151515 
-0 -16.25781975149647 15.95791266067713 0 19.01414976329017 0 0 0.8960597286966419 0 0 0 0 0 0 0 0 0 0 0 0 0.9213844514758849 0 0 0 0 0 0.8215193043577498 0.8215193043577498 0 0 0 0 0 0 0 0 0 0 0 0 1:0.174242 2:1 3:0.1875 4:0.575758 5:-0.939394 6:-1 7:-1 8:0.174242 9:1 10:0.1875 11:-1 12:0.875 13:0.69697 14:-1 
-0 -0 30.12538056034504 0 0 0 0 0.08825577287381249 0 0 0 0 0 0 0 0 1.971721407702005 0 0 0 0 0 0 0.2058052565187383 0 0 0 0 1.162826882676139 0 0 0 0 0 0 0 0 0 0 0 1:-0.401515 2:1 3:0.1875 4:0.515152 5:1 6:0.5625 7:0.5625 8:-0.401515 9:1 10:0.1875 11:-1 12:1 13:1 14:1 
-0 -0 0 0 0 0 0 0 0 0 0 0 0 0 0.6900274584555673 0 0 0 0 1.008825411969424 0 0 4.781700301610672 1.063932208969827 0 0 0 0 0 0 0 0 8.378334645565735 0 0 0 0 0 4.281356299117016 0 1:-0.689394 3:0.1875 4:0.151515 5:1 6:0.125 7:0.5625 8:-0.689394 9:0.142857 10:0.1875 11:0.1875 12:0.4375 13:0.818182 14:1 
-0 -3.646756743604928 32 0 0 0 0 0 0 0 0 0 0 0 0 0 14.57813797410324 0 0 0 0 0 0 0 0 0 0 0 0 0 0 0 0 0 0 0 0 0 0 0 1:-0.0984848 2:1 3:0.1875 4:-1 5:-1 6:1 7:0.5625 8:-0.0984848 9:1 10:0.125 11:0.125 12:0.5625 13:-0.939394 14:1 
-0 -19.56067285287893 0.6874441960542058 0 0 0 0 0 0 0 3.396982629934224 0 0 0 0 0 0 0 0 0 0 0 0 0 0 0 0 0 0 0 0 0 0 0 0 0 0 0 0 0 1:0.174242 2:1 3:0.1875 4:0.151515 5:0.151515 6:1 7:0.5 8:0.174242 9:1 10:0.1875 11:-1 12:1 13:1 14:0.212121 
-0 -0 0 0 0 0 0 0 0 0 1.690623116485829 0 0 0 0 0 0 0 0 0 0 0 0 0 0 0 0 0 0 0 0 0 0 0 0 0 0 0 0 0 1:0.174242 2:1 3:0.1875 4:0.151515 5:0.575758 6:1 7:0.1875 8:0.174242 9:1 10:0.1875 11:-1 12:1 13:1 14:-0.939394 
-0 -7.204943054034216 24.75912190915729 32 31.57880426272073 0 32 0 0 0 0 0 0 0 0 0 0 0.3827549771094357 0 0 0.4701150396425708 0 0 0 0 0 0 0 0 0 0 0 0 0 4.705905858280402 0 0 0 0 0.006344472811437723 1:0.742424 2:0.333333 3:0.125 4:0.454545 5:0.272727 6:-0.8125 7:0.25 8:0.742424 9:0.428571 10:0.125 11:-0.8125 12:0.25 13:-0.939394 14:1 
-0 -0 0 0 0 0 0 0 5.20738935619214 0 0 0 0 0 0 0 0 0 0 0 0 0 0 0.07790709238377511 0 1.856882786143648 0 0 0 0 0 0 0 0 0 0 0 0 0 0 1:-0.863636 2:0.333333 4:1 5:-0.69697 6:0.5625 7:-0.1875 8:-0.863636 9:-1 11:0.875 12:-0.75 13:0.575758 14:1 
-0 -0 2.858902351631682 0 0 0 0 0 0 0 0 0.9816428997270966 5.788750211718992 0 0 0 0 0 0 0 0 0.4738931540333374 0 0 0 0 0 0 0 0 0 0 0 0 0 0 0 0 0 0 1:-0.44697 3:0.1875 4:-0.939394 5:1 6:0.125 7:1 8:-0.44697 9:0.142857 10:0.1875 11:0.25 12:1 13:0.151515 14:-1 
-0 -0 15.24089554972076 0 0 0 0 0 0 0 0 0 0 0.1566449590980936 0 0 6.261081953913799 0 0 0 0 0 0 5.974057271375907 0 0 0 0 0 0 0 0 0 0 0 0 0 0 0 0 1:-0.848485 2:0.666667 3:0.1875 4:1 5:-0.151515 6:0.125 7:-0.5625 8:-0.848485 9:0.714286 10:0.1875 11:0.5625 12:-0.6875 13:0.151515 14:0.272727 
-0 -0 0 32 1.383223840255469 0 32 0 0 0 14.31999669984366 0 0 0 5.47482721256238 0 0 0 0 0 0 0 0 0 0 0 0 0 0 0 0 0 0 0 0 0 0 0 0 0 1:0.227273 3:0.1875 4:0.151515 5:0.575758 6:0.5625 7:0.125 8:0.227273 9:0.142857 10:0.1875 11:1 12:0.1875 13:0.151515 14:0.575758 
-0 -0 0 0.3669739257166436 0 0 8.869586380307009 0 0 0 0 0 0 0 0 0 0 0 0 0 0 0 0 0 0 0 0 0 0 0 0 0 0 0 0 0 0 0 0 0 1:-0.106061 2:-0.333333 3:0.1875 4:1 5:-0.878788 6:0.125 7:0.125 8:-0.106061 9:-0.142857 10:0.1875 11:1 12:-0.9375 13:0.151515 14:0.151515 
-0 -0 0 32 0 0 32 0 0 0 4.105020727793762 0 1.046852301769646 0 0 0 0 0 0 0 0 0 0 0 0 0 0 0 0 0 0 0 0 0 0 0 0 9.382218566210911 0 0 1:0.742424 2:0.333333 3:0.125 4:0.454545 5:0.272727 6:0.5625 7:0.1875 8:0.742424 9:0.428571 10:0.125 11:0.4375 12:0.25 13:1 14:-0.69697 
-0 -0 0 0 0 0 0 0 0 0 0 0 0 0 0 0 0 0 0 0 0.4797689666831554 0 0 0 0 0 0 0 0 0 0 0 0 0 0 0 0 0 0 0 1:-0.893939 2:0.333333 4:1 5:-0.69697 6:-0.8125 7:-0.75 8:-0.893939 9:0.428571 10:0.1875 11:-0.8125 12:-0.75 13:-0.69697 14:0.030303 
-0 -0 0 8.9924820331404 2.137823945779532 0 3.213450250238467 0 0 0 0 0 0 0 0 0 0 0 0 0 0 0 0 0 0 0 0 0 0 0 0 0 0 0 0 0 0 0 0 0 1:0.613636 2:0.333333 3:-1 4:-1 5:0.272727 6:0.5625 7:0.1875 8:0.613636 9:0.428571 10:1 11:0.4375 12:0.25 13:0.575758 14:0.212121 
-0 -0 21.74171623533681 0 0 0 0 0 0 0 0 0 0 0 0 0 0 0 0 0 0 0 0 0 0 0 0.8683462793932317 0.8683462793932317 0 0 0 0 0 0 0 0 0 0 0 0 1:-0.613636 2:0.666667 3:0.1875 4:1 5:-0.575758 6:0.5625 7:-1 8:-0.613636 9:0.714286 10:0.1875 11:-1 12:1 13:-0.515152 14:-0.333333 
-0 -1.231404618661625 0 31.55738365332929 0 3.514619594883419 32 0 0 0 5.02872923034374 0 0 0 0 0 0 0 0 0 0 0 0 0 0 0 0 0 0 0 0 0 0 0 0 0 0 0 0 0 1:0.00757576 2:-0.333333 3:0.1875 4:0.151515 5:0.454545 6:0.125 7:-0.0625 8:0.00757576 9:-0.142857 10:0.1875 11:0.5625 12:-1 13:0.151515 14:-0.939394 
-0 -0 0 0 0 0 0 0 0 0 0.06537675270540144 0 0 0 0 0 0 0 0 0.0179689050863732 0 0 0 0 0 0 0 0 0 0 3.989510149779597 0 0 0 0 0 0 0 0 0 1:-0.613636 2:0.666667 3:0.1875 4:-0.939394 5:0.878788 6:0.4375 7:1 8:-0.613636 9:0.714286 10:0.1875 11:0.5625 12:-1 13:-0.939394 14:1 
-0 -0 4.037666878615519 0 0 0 0 0 0 0 7.741758727234836 0 0 0 0 0 0 0 0 0 23.6596307437955 0 0 0 17.59545955130008 0 0 0 0 0 0 0 0 0 0 0 0 0 0 0 1:-0.901515 2:0.666667 3:0.1875 4:0.212121 5:0.575758 6:0.5625 7:0.5625 8:0.0681818 9:0.714286 10:0.1875 11:1 12:1 13:0.212121 14:-0.515152 
-0 -18.33883168349339 32 32 0 0 0 0 0 0 0 0 0 4.364523610481776 0 0 0 0 0 0 0 0 0 0 0 0 0 0 0.7495324833276965 0 0 0 0 0 0 0 0 0 0 0 1:-0.325758 2:0.333333 3:0.1875 4:0.575758 5:-0.818182 6:0.125 7:1 8:-0.325758 9:0.428571 10:0.1875 11:0.5625 12:1 13:0.151515 14:0.575758 
-0 -0 0 9.880563830561842 0 0 9.283616397796147 0 0 0 1.168767220549276 0 3.316588535685128 0 0 0 0 10.64977158875454 0 0 0 0 0 0 0 0 0 0 0 0 0 0 0 0 0 0 0 0 0 0 1:0.818182 2:-0.666667 3:0.1875 4:-0.030303 5:0.575758 6:0.125 7:0.125 8:0.818182 9:-0.428571 10:0.1875 11:1 12:-0.9375 13:0.272727 14:-0.515152 
-0 -0 0 30.6641507555996 0 0 26.20716080021645 0 0.4296017011067138 0 0 0 0 0 0 0 0 0 0 0 0 0 2.302392614000953 0 0 0 0 0 0 0.5339873370383365 0 0 0 0 0 0 0 0 0 0 1:-0.371212 3:0.125 4:0.030303 5:0.575758 6:-0.75 8:-0.371212 9:0.142857 10:0.125 11:1 12:1 13:-0.69697 14:0.151515 
-0 -0 32 0 0 0 0 0 0 0 0 0 0 0 0 0 0 0 0 0 0 0 0 0 15.56106859264372 0 0 0 0 0 0 0 0 0 0 0 0 0 0 0 1:-0.242424 2:0.333333 3:0.125 4:0.272727 5:0.333333 6:1 7:0.125 8:-0.242424 9:0.428571 10:0.125 11:0.125 12:0.3125 13:0.151515 14:0.151515 
-0 -0 0 0 0 0 0 0 0 0 0 0 0 0 0 0 0 0 0 0 0 0 0 0 0 0 0 0 0 0 1.082359497166159 0 0 0 0 0 0 0 0 0 1:-0.80303 2:0.666667 3:0.1875 4:0.272727 5:0.575758 6:0.125 7:0.125 8:-0.80303 9:0.714286 10:0.1875 11:0.1875 12:-0.8125 13:-0.939394 14:0.818182 
-0 -0 0 0 0 0 0 0 0 0 0 0 0 0.370514566049332 0 0 18.06356066352103 0 0 0 0 0 0 0 0 0 0 0 0 0 0 0 0 0 0 0 0 0 0 0 1:-0.795455 2:0.666667 3:0.1875 4:1 5:-0.878788 6:-0.5625 7:0.125 8:-0.795455 9:0.714286 10:0.1875 11:1 12:0.5625 13:0.454545 14:0.151515 
-0 -0 0 0 32 0 0 0 0 0 0 0 0 0 0 0 0 0 0 0 0 0 0 0 0 0 0 0 0 0 0 0 0 0 0 0 0 0 0 0 1:-0.242424 2:0.333333 3:0.125 4:0.272727 5:0.333333 6:-0.5625 7:-0.375 8:-0.242424 9:0.428571 10:0.125 11:1 12:0.3125 13:-0.69697 14:0.151515 
-0 -22.57971247670549 29.93633519239491 31.546715825234 11.12111568790063 0 5.577370392439212 0 0 0 0 0 0 0 0 0 0 0 0 0 0 0 0 0 0 0 0 0 0 0 0 0 0 0 5.044218750465961 0 0 0 0 0 1:-0.242424 2:0.333333 3:0.125 4:1 5:0.333333 6:-0.75 7:0.125 8:-0.242424 9:0.428571 10:0.125 11:-1 12:0.3125 13:-0.515152 14:-0.151515 
-0 -0 0 32 0 0 21.58890676838712 0 0 0 0 0 0 0 0 0 0 0 2.664349988974921 0 0 0 0 0 0 0 0 0 0 0 0 0 0 0 0 0 0 0 0.6098371975943581 0 1:-0.44697 3:0.1875 4:0.575758 5:-0.939394 6:0.125 7:-0.5625 8:-0.44697 9:0.142857 10:0.1875 11:-1 12:0.4375 13:1 14:0.575758 
-0 -6.691094300167053 14.25645699906728 0 0 0 0 0 0 0 0 0.4955758501893037 3.16166469655634 0 0 0 0 0 0 0 0 0.2161134507233562 0 0 0 0 0 0 0 0 0 0 0 0 0 0 0 0 0 0 1:-0.44697 3:0.1875 4:-0.939394 5:0.454545 6:1 7:0.5625 8:-0.44697 9:0.142857 10:0.1875 11:1 12:0.25 13:-0.636364 14:-0.333333 
-0 -0 22.76578291615524 3.700603961225096 0 0 0 0 0 0 0 0 0 0 0 0 0 0 0 0 0 0 0 0 0 0 0 0 0 0 0 0 0 0 0 0 0 0 0 0 1:-0.44697 3:0.1875 4:0.575758 5:-0.939394 6:1 7:-1 8:-0.44697 9:0.142857 10:0.1875 11:0.125 12:0.5625 13:0.151515 14:1 
-0 -0 0 12.23283091303456 0 0 32 0 0 0 0 0 0 0 0 0 0 0 0 0 0 0 0 0 0 0 0 0 3.314668688828924 0 0 0 0 0 0 0 0 0 0 0 1:-0.44697 3:0.1875 4:0.575758 5:0.454545 6:-0.0625 7:0.5625 8:-0.44697 9:0.142857 10:0.1875 11:0.4375 12:1 13:0.151515 14:-0.939394 
-2.251058711058686 -0 0 23.08808383012358 0 0 25.43055939390523 0 0 0 0.6105167173617587 0 0 0 0 0 0 0 0 0 0 0 0 0 0 0 0 0 0 0.8460032069753836 0 0 0 0 0 0 0 0 0 0 1:-0.44697 3:0.1875 4:0.454545 5:1 6:0.125 7:-1 8:-0.44697 9:0.142857 10:0.1875 11:-1 12:1 13:-0.757576 14:0.212121 
-0 -0 0 0 0 7.091169048023655 0 0 0 0 0 0 0 0 0 0 0 0 0 0 0 0 0 0 0 0 0 0 0 0 0 0 0 0 0 0 0 0 0 0 1:-0.242424 2:0.333333 3:0.125 4:0.272727 5:0.333333 6:0.4375 7:-0.75 8:-0.242424 9:0.428571 10:0.125 11:0.5625 12:0.3125 13:0.151515 14:-0.939394 
-0 -0 0 0 0 0 0 0 0 0 0 0 0 20.91523394098722 0 0 0 0 0 0 0 0 0 0 0 0 0 0 0 0 0 0 0 0 0 0 0 0 0 0 1:-0.80303 2:0.333333 3:0.1875 4:0.151515 5:1 6:0.5625 7:-0.75 8:-0.80303 9:0.428571 10:0.1875 11:0.125 12:1 13:-0.030303 14:0.575758 
-0 -0 23.81158284763542 0 0 0 0 0 0 0 0 0 0 0 0 0 21.12013980118089 0 0 0 0 0 0 0 0 0 0 0 0 0 0 0 0 0 0 0 0 0 0 0 1:-0.80303 2:0.333333 3:0.1875 4:0.575758 5:0.454545 6:0.125 7:-1 8:-0.80303 9:0.428571 10:0.1875 11:0.125 12:1 13:0.575758 14:0.515152 
-0 -0 0 0 0 0 0 0 0 0 0 0 0 0 0 1.604827115992791 0 0 0 0 0 0 0 0 0 0 0 0 0 0 0 0 0 0 0 0 0 0 0 0 1:-0.80303 2:0.333333 3:0.1875 4:0.151515 5:1 6:0.5625 7:0.5 8:-0.80303 9:0.714286 10:0.1875 11:0.5 12:0.4375 13:0.272727 14:-0.757576 
-0 -0 30.05503055620381 8.743714199747608 0 2.79368928242765 10.93164623890772 0 0 0 0 0 0 0 0 0 0 0 0 0 0 0 0 0 0 0 0 0 0 0 0 0 0 0 3.733927674563214 0 0 0 0 0 1:-0.242424 2:0.333333 3:0.125 4:0.272727 5:0.333333 6:-1 7:1 8:-0.242424 9:0.428571 10:0.125 11:0.25 12:0.3125 13:-0.333333 14:0.151515 
-0 -0 0 0 0 9.063893106608694 14.19405219379171 0 0 0 0 0 0 0 0 0 0 0 0 0 0 0 0 0 0 0 0 0 0 0 0 0 0 0 0 0 0 0 0 0 1:-0.242424 2:0.333333 3:0.125 4:0.272727 5:0.333333 6:-0.375 7:0.125 8:-0.242424 9:0.428571 10:0.125 11:-1 12:0.3125 13:1 14:-0.575758 
-0 -0 0 0 32 0 0 0 0 0 0 0 0 0 3.199867158889116 0 0 0 0 0 0 0 0 0 0 0 0 0 0 0 0 0 0 0 0 0.2256856298410972 0.2256856298410972 4.398210953501273 0 0 1:0.75 2:1 3:0.1875 4:1 5:0.575758 6:0.125 7:0.5625 8:0.75 9:1 10:0.1875 11:0.125 12:0.5625 13:0.151515 14:0.575758 
-0 -0 0 0 32 0 0 0 0 0 6.522248853039881 0 0 0 0 0 0 0 0 0 0 0 0 0 0 0 0 0 0 0 0 0 0 0 0 0 0 0 0 0 1:0.75 2:1 3:0.1875 4:-0.575758 5:0.575758 6:0.125 7:0.5625 8:0.75 9:1 10:0.1875 11:0.125 12:0.5625 13:0.151515 14:0.575758 
-0 -0 0 0 32 0 0 0 0 0 0 0 0 0 0 0 0 0 0 0 0 0 0 0 0 0 0 0 0 0 0 0 0 0 0 0 0 0 0 0 1:0.75 2:1 3:0.1875 4:1 5:0.575758 6:0.125 7:0.5625 8:0.75 9:1 10:0.1875 11:-1 12:0.5625 13:0.151515 14:0.575758 
-0 -0 0 0 32 0 0 0 0 0 15.05067719727293 0 0 0 0 0 0 0 0 0 0 0 0 0 0 0 0 0 0 0 0 0 0 0 0 0 0 0 0 0 1:0.75 2:1 3:0.1875 4:-0.939394 5:0.575758 6:0.125 7:0.5625 8:0.75 9:1 10:0.1875 11:0.875 12:0.5625 13:0.151515 14:0.575758 
-0 -0 0 0 32 0 0 0 0 0 0 0 0 0 0 0 0 0 0 0 0 0 0 0 0 0 0 0 0 0 0 0 0 0 0 0 0 0 0 0 1:0.75 2:1 3:0.1875 4:0.878788 5:0.575758 6:0.125 7:0.5625 8:0.75 9:1 10:0.1875 11:-0.9375 12:0.5625 13:0.151515 14:0.575758 
-0 -0 0 0 32 0 0 0 0 0 0 0 0 0 0 0 0 0 0 0 0 0 0 0 0 0 0 0 0 0 0 0 0 0 0 0 0 0 0 0 1:0.75 2:1 3:0.1875 4:0.818182 5:0.575758 6:0.125 7:0.5625 8:0.75 9:1 10:0.1875 11:0.1875 12:0.5625 13:0.151515 14:0.575758 
-0 -7.514971789894596 9.550056769702334 0 2.620306385650736 0 0 0 0 0 0 0 0 0 0 0 7.075361221134648 0 0 0 2.585263315791127 0 0 0 0 0 0 0 0 0 0 1.21695527569114 0 0 0 0 0 0 0 0 1:-0.0378788 2:1 3:0.1875 4:0.151515 5:0.151515 6:1 7:-0.9375 8:-0.0378788 9:1 10:0.1875 11:-1 12:0.5625 13:0.636364 14:1 
-0 -6.417489757254182 0 0 30.54568710764541 0 0 0 0 8.940676540277867 0 0 0 0 0 0 0 0 0 0 0 0 0 0 0 0 0 0 6.09987917230784 0 0 0.5870253720368729 0 0 0 0 0 0 0 0 1:-0.0378788 2:1 3:0.1875 4:-0.69697 5:0.454545 6:0.8125 7:-0.625 8:-0.0378788 9:1 10:0.1875 11:0.5625 12:0.4375 13:0.575758 14:-0.757576 
-0 -0 0 0 0 0.4537440390823153 0 0 0 0 0 0 0 0 0 0 0 0 0 0 0 0 0 0 0 0 0 0 0 0 0 0 0 0 0 0 0 0 0 0 1:-0.984848 2:0.333333 3:0.1875 4:0.212121 5:-0.757576 6:-0.75 7:0.5625 8:-0.984848 9:0.428571 10:0.1875 11:0.1875 12:-0.8125 13:0.272727 14:-1 
-0 -8.092014621902578 6.282829610798874 0 32 0 0 0 0 0 0 0 0 0 0 0 0 0 0 0 0 0 0 0 0 0 0 0 0 0 0 0 0 1.049539452540534 0 0 0 0 0 0 1:0.378788 2:0.333333 4:-1 5:-0.69697 6:0.5625 7:0.25 8:0.378788 9:0.428571 11:0.4375 12:-0.75 13:-0.515152 14:0.151515 
-0 -32 12.64570136733391 13.5515880666245 32 0 9.897039286763412 0 0 0 2.356814982042583 0 0 0 0 0 0 0 0 0 0 0 0 0 0 0 0 0 0 0 0 0 0 0 0 0 0 0 0 0 1:0.378788 2:0.333333 4:0.454545 5:-0.69697 6:-0.5625 7:0.125 8:0.378788 9:0.428571 11:1 12:-0.75 13:0.151515 14:0.575758 
-0 -0 32 0 0 0 0 0 0 0 0 0 0 0 0 0 0 0 0 0 0 0 0 0 0 0 0 0 0 0 0 0 0 0 0 0 0 0 0 0.003629344015884958 1:0.954545 2:1 3:0.1875 4:-0.878788 5:0.575758 6:-1 7:1 8:0.954545 9:1 10:0.1875 11:-0.8125 12:0.5625 13:-0.939394 14:0.454545 
-0 -0 0 0 16.12354381364431 0 0 0 0 0 0 0 0 0 0 0 0 0 0 0 0 0 1.996635432738638 0 0 0 0 0 0 0 0 0 1.017983542552586 0 0 0 0 0 0 0 1:0.954545 2:1 3:0.1875 4:-0.757576 5:0.575758 6:-1 7:0.4375 8:0.954545 9:0.428571 10:0.1875 11:0.5625 12:0.5625 13:0.878788 14:1 
-0 -0 0 0 12.68144385866945 0 0 0 0 0 0 0 0 0 0 0 0 0 0 0 0 0 0 0 0 0 0 0 0 0 0 0 0 0 0 0 0 0 0 0 1:0.954545 2:1 3:0.1875 4:0.575758 5:-0.757576 6:0.8125 7:-0.625 8:0.954545 9:1 10:0.1875 11:0.5625 12:0.5625 13:-0.939394 14:1 
-0 -0 0 0 21.27204031555119 0 0 0 0 0 0 0 0 0 0.5677100135600882 0 0 0 0 0 0 0 0 0 0 0 0 0 0 0 0 0 0 0 0 0 0 0 0 0 1:0.954545 2:1 3:0.1875 4:0.575758 5:1 6:-0.5625 7:0.125 8:0.954545 9:1 10:0.1875 11:-1 12:0.8125 13:-0.939394 14:1 
-0 -0 0 2.778611435716575 0 0 0 2.004521240276861 0 0 0 0 0 0 0 0 0 0 0 0 0 0 0 0 0 0 0 0 0 0 0 0 2.194007470627903 0 0 0 0 0 0 0 1:0.954545 2:1 3:0.1875 4:-0.939394 5:0.818182 6:-1 7:1 8:0.954545 9:-0.142857 10:0.1875 11:-1 12:1 13:1 14:0.212121 
-0 -32 0 0 0 4.235512377217963 0 0 0 0 0 0 0 0 0 0 0 0 0 0 0 0 0 7.746275521467769 0 0 0 0 0 0 0 0 0 0 0 0 0 0 0 0 1:-0.583333 2:0.333333 3:0.125 4:-0.575758 5:0.575758 6:0.125 7:0.125 8:-0.583333 9:0.428571 10:0.125 11:0.125 12:-0.5625 13:0.151515 14:0.151515 
-0 -20.88047658386101 0 0 0 0 0 0 0 0 0 0 0 17.04838571921468 0 0 0 0 0 0 0 0 0 12.15217279679588 0 0 0 0 0 0 0 0 0 0 0 0 0 0 0 0 1:-0.583333 2:0.333333 3:0.125 4:0.151515 5:-0.515152 6:0.125 7:0.125 8:-0.583333 9:0.428571 10:0.125 11:1 12:-0.625 13:0.151515 14:0.151515 
-0 -0 0 0 16.58859898305349 0 0 0 0 0 0 0 0 0 0 0 0 0 0 0 0 1.20978839881993 0 0 0 0 0 0 0 0 0 0 0 0 0 0 0 0 0 0 1:0.954545 2:1 3:0.1875 4:-0.030303 5:0.575758 6:1 7:-1 8:0.954545 9:0.714286 10:0.1875 11:1 12:0.4375 13:0.151515 14:-0.515152 
-0 -2.205447341879275 25.12754476548117 0 0 0 0 0 0 0 0 0 0 0 0 0 0 0 0 0 0 0 0 0 0 0 0 0 0 0 0 0 0 0 0 0 0 0 0 0 1:0.219697 2:1 3:0.1875 4:0.212121 5:0.151515 6:1 7:0.5 8:0.219697 9:1 10:0.1875 11:0.5 12:0.875 13:0.151515 14:1 
-0 -32 0 0 0 0 0 0 0 0 0 0 0 0 0 0 0 0 0 0 0 0 0 0 0 0 0 0 0 0 0 0 0 0 0 0 0 0 0 0 1:-0.113636 2:0.666667 3:0.1875 4:-0.030303 5:0.575758 6:1 7:-0.9375 8:-0.113636 9:0.714286 10:0.1875 11:-0.0625 12:0.5625 13:0.454545 14:1 
-0 -0 0 0 0 0 0 0 0 0 0 0 0 1.17989470098437 0 0 0 0 0 0 0 0 0 0 0 0 0 0 0 0 0 0 0 0 0 0 0 0 0 0 1:-0.113636 2:0.666667 3:0.1875 4:-0.939394 5:1 6:-1 7:0.8125 8:-0.113636 9:0.714286 10:0.1875 11:0.5625 12:0.4375 13:0.151515 14:1 
-0 -16.62514606381422 32 0 0 1.488374209939332 0 0 0 0 6.318534426031468 0 0 0 0 0 0 0 0 0 0 0 0 0 0 0 0 0 0 0 0 0 0 0 0 0 0 0 0 0 1:-0.613636 2:0.666667 3:0.1875 4:1 5:0.454545 6:-0.1875 7:-0.75 8:-0.613636 9:0.714286 10:0.1875 11:0.1875 12:-0.8125 13:0.878788 14:-0.939394 
-0 -0 32 0 0 0 0 0 0 0 0 0 0 0 0 0 3.324913847679402 0 0 0 0 0 0 0 15.26036819381668 0 0 0 0 3.80437247450647 0 0 0 0 0 0 0 0 0 0 1:-0.613636 2:0.666667 3:0.1875 4:0.575758 5:0.454545 6:1 7:-0.625 8:-0.613636 9:0.714286 10:0.1875 11:0.125 12:0.5625 13:-0.939394 14:0.454545 
-0 -0 3.604382075939933 0 0 0 0 0 0 0 0 0 0 0 0 0 5.804178891485557 0 0 0 0 0 0 0 0 0 0 0 0 0 0 0 0 0 0 0 0 0 0 0 1:-0.613636 2:0.666667 3:0.1875 4:-0.939394 5:0.575758 6:-1 7:1 8:-0.613636 9:0.714286 10:0.1875 11:1 12:1 13:0.151515 14:0.151515 
-0 -0 12.2192717111587 0 0 0 0 0 0 0 0 0 0 0 0 0 0 0 0 0 0 0 0 0 0 0 0 0 0 0 0 0 0 0 0 0 0 0 0 0 1:-0.613636 2:0.666667 3:0.1875 4:0.575758 5:-0.636364 6:0.4375 7:-0.375 8:-0.613636 9:0.714286 10:0.1875 11:1 12:1 13:0.151515 14:-0.515152 
-0 -0 0 32 32 0 32 0 0 0 4.951335736081096 0 0 0 0 0 0 0 0 0 0 0 0 0 0 0 0 0 0 0 0 0 0 0 0 0 0 0 0 0 1:0.537879 2:0.333333 3:0.1875 4:0.151515 5:0.575758 6:0.125 7:0.5625 8:0.537879 9:0.428571 10:0.1875 11:-0.75 13:0.272727 14:0.454545 
-0 -3.236641634697345 14.56262393277894 17.68376813431652 32 0 28.79470374078979 0 0 0 0 0 0 0 0 0 0 0 0 0 0 0 0 0 0 0 0 0 0 0 0 0 0 0 0 0 0 0 0 0 1:0.704545 2:0.333333 3:1 4:0.151515 5:0.575758 6:-0.75 8:0.704545 9:0.428571 10:1 11:0.25 12:0.25 13:-0.69697 14:0.030303 
-0 -0 1.191263721394449 0 31.2295046600093 0 0 0 0 0 4.251360357582247 0 0.4380151229842477 0 0 0 0 0 0 0 0 0 0 0 0 0 0.9177317050344276 0.9177317050344276 0 0 0 0 0 0 0 0 0 0 0 0 1:0.742424 2:0.333333 3:0.125 4:0.575758 5:0.272727 6:0.5625 7:1 8:0.742424 9:0.428571 10:0.125 11:-0.375 12:-0.75 13:0.454545 14:-0.69697 
-0 -0 32 1.785350546087989 32 0 0 0 0 0 0 0 0 0 0 0 0 0 0 0 0 0 0 0 0 0 0 0 0 0 0 0 0 0 0 0 0 0 0 0 1:0.265152 2:0.666667 3:0.1875 4:0.030303 5:-0.030303 6:-1 7:1 8:0.265152 9:0.714286 10:0.1875 11:0.125 12:0.875 13:1 14:-0.575758 
-0 -0 24.20210400806399 0 0 0 0 1.32813552310031 0 0 0 0 0 0 0 0 4.193925440028082 0 0 0 0 0 0 0 0 0 0 0 0 0 0 0 0 0 0 0 0 0 0 0 1:-0.80303 2:0.333333 3:0.1875 4:-0.939394 5:1 6:-0.75 7:-0.5625 8:-0.80303 9:0.428571 10:0.1875 11:-1 12:1 13:-0.151515 14:0.151515 
-2.411549622784722 -14.29780091565394 0 0 0 0 0 0 0 0 0 0 0 8.851263173266769 0 0 17.64463060721306 3.522171667040949 0 0 0 0 0 0 0 0 0 0 0 0 0 0 0 0 0 0 0 0 0 0 1:-0.80303 2:0.333333 3:0.1875 4:-0.939394 5:1 6:-0.1875 7:0.125 8:-0.80303 9:0.714286 10:0.1875 11:0.5625 12:-1 13:-0.939394 14:1 
-0 -0 0 0 0 0 0 0 0 0 0 0 0 0 0 0 0 0 0 0 0 0 2.967902930740401 0 0 0 0 0 0 0 0 0 0 0 0 0 0 0 10.01536045817341 0 1:-0.44697 3:0.1875 4:0.878788 5:0.212121 6:0.125 7:0.125 8:-0.44697 9:0.142857 10:0.1875 11:0.875 12:0.1875 13:0.151515 14:1 
-0 -0 0 32 0 0 32 0 0 0 1.635341582173709 0 0 0 0 0 0 0 0 0 0 0 0 0 0 0 0 0 0 0 0 0 0 0 0 0 0 0 0 0 1:-0.44697 3:0.1875 4:0.151515 5:0.454545 6:0.125 7:-0.5625 8:-0.44697 9:0.142857 10:0.1875 11:-1 12:0.4375 13:0.151515 14:0.212121 
-0 -0 0 0 0 0 32 0 0 0 0 0 0 0 0 0 0 0 0 0 0 0 0 0 0 0 0 0 0 0 0 0 0 0 0 0 0 0 0 0 1:-0.44697 3:0.1875 4:0.878788 5:0.212121 6:0.125 7:0.125 8:-0.44697 9:0.142857 10:0.1875 11:0.875 12:0.1875 13:0.151515 14:0.151515 
-0 -0 0 0 0 0 0 0 0 0 0 0 0 0 0 0 0 0 0 0 0 0 0 0 0 0 0.5392378117372769 0.5392378117372769 1.239885370594467 0 0 0 0 0 0 0 0 0 0 0 1:-0.772727 2:0.666667 3:1 4:0.575758 5:0.575758 6:-0.5625 7:0.3125 8:-0.772727 9:0.714286 10:0.125 11:-1 12:0.25 13:-0.515152 14:-0.69697 
-0 -0 32 0 0 0 0 0.09573917792481199 0 0 0 0 0 0 0 0 32 0 0 0 0 0 0 0 0 0 0 0 0 0 0 0 0 0 0 0 0 0 0 0 1:-0.772727 2:0.666667 3:0.125 4:-0.939394 5:0.272727 6:-0.5625 7:-0.75 8:-0.772727 9:0.714286 10:0.125 11:0.5625 12:0.4375 13:-0.515152 14:0.151515 
-0 -4.46439326751941 0 0 0 0 0 0 0 0 0 0 0 0 0 0 5.23822522789923 0 0 0 0 0 0 1.088266358032464 0 0 0.6183183336965447 0.6183183336965447 0 0 1.92085794767377 0.07146498130372593 0 0 0 0 0 0 0 0 1:-0.772727 2:0.666667 3:0.125 4:0.151515 5:0.575758 6:0.4375 7:0.25 8:-0.772727 9:0.714286 10:1 11:0.125 12:-1 13:0.151515 14:-0.69697 
-0 -0 0 0 0 0.3736639466820236 0 0 0 1.398115002286759 0 0 0 0 0 0 18.66347052078179 0 0 0 0 0 0 0 0 0 0 0 0 0 0 0 0 0 0 0 0 0 0 0 1:-0.772727 2:0.666667 3:0.125 4:-0.030303 5:0.575758 6:0.125 7:-0.75 8:-0.772727 9:0.714286 10:1 11:0.25 12:0.5625 13:0.151515 14:-0.69697 
-0 -0 6.186009741979902 0 0 0 0 0 0 0 1.632830303022723 0 0 9.890472071307672 0 0 0 0 0 4.5811877659037 0 0 0 1.982917054617565 0 0 0 0 0 0 0 0 0 0 0 0 0 0 0 0 1:-0.772727 2:0.666667 3:1 4:1 5:0.575758 6:-0.5625 7:-0.375 8:-0.772727 9:0.714286 10:0.125 11:-0.0625 12:0.5625 13:0.878788 14:0.272727 
-0 -7.06930511557873 0 0 0 0 0 0 0 0 0 0 0 0 0 0 28.38159219387408 0 0 0 0 0 0 0 0 0 0 0 0 0 0 0 0 0 0 0 0 0 0 0 1:-0.772727 2:0.666667 3:0.125 4:0.575758 5:0.454545 6:1 7:1 8:-0.772727 9:0.714286 10:0.125 11:0.125 12:0.5625 13:-0.939394 14:0.454545 
-0 -0 0 0 0 0 0 0 0 0 0 0 0 0 0 0 32 0 0 0 0 0 0 7.350410856421553 0 0 0 0 0 0 3.178740758839488 0 0 0 0 0 0 0 0 0 1:-0.772727 2:0.666667 3:0.125 4:0.272727 5:0.575758 6:1 7:0.125 8:-0.772727 9:0.714286 10:0.125 11:0.875 12:0.5625 13:0.454545 14:0.272727 
-0 -0 32 0 32 0 0 0 0 0 0 0 0 0 0 0 0 0 0 0 0 0 0 0 0 0 0 0 0 0 0 0 0 0 0 0 0 0 0 0 1:-0.113636 2:0.666667 3:0.1875 4:-0.757576 5:1 6:-0.5625 7:0.125 8:-0.113636 9:0.714286 10:0.1875 11:0.125 12:0.5625 13:-0.939394 14:0.454545 
-0 -0 25.74114925760438 0 32 0 0 0 0 0 18.98330161379273 0 2.224266521888613 0 1.982244485672262 0 0 0 0 2.763220722473972 0 0 0 0 0 0 0 0 0 0 9.702755956821997 0 0 0 0 0 0 0 0 0 1:-0.113636 2:0.666667 3:0.1875 4:1 5:1 6:0.125 7:1 8:-0.113636 9:0.714286 10:0.1875 11:1 12:-0.625 13:-0.151515 14:0.151515 
-0 -0 32 0 0 0 0 0 0 0 0 0 0 0 0 0 0 0 0 0 0 0 0 0 0 0 0 0 0 0 0 0 0 0 0 0 0 0 0 0 1:-0.242424 2:0.333333 3:0.125 4:0.454545 5:0.333333 6:-0.5625 7:0.125 8:-0.242424 9:0.428571 10:0.125 11:0.5625 12:0.3125 13:-0.515152 14:0.151515 
-1.583369715788609 -0 0 0 0 0 0 0 0 0 0 0 0 0 0 0 0 0 0 0 0 0 0 0 0 0 0 0 2.983533382724587 0 0 0 0 0 0 1.067167409815011 1.067167409815011 0 0 0 1:-0.75 3:0.1875 4:1 5:1 6:0.5625 7:1 8:-0.75 9:0.142857 10:0.1875 11:-1 12:0.4375 13:-0.757576 14:0.212121 
-0 -0 0 0 0 0 0 0 0 0 0 0 4.764540952592934 0 0 0 0 0 0 0 0 0 0 0 0 0 0 0 0 0 0 0 0 0 0 0 0 0 0 0 1:0.954545 2:1 3:0.1875 4:0.151515 5:0.151515 6:0.25 7:0.5625 8:0.954545 9:0.714286 10:0.1875 11:0.25 12:0.5625 13:1 14:-0.878788 
-0 -0 4.349663293300551 0 9.591995677596419 0 0 0 0 0 0 0 0 0 0 0 0 0 0 0 0 0 0 0 0 0 0 0 0 0 0 0 0 0 0 0 0 0 0 0 1:0.954545 2:0.333333 3:0.1875 4:-1 5:-1 6:0.25 7:0.25 8:0.954545 9:1 10:0.1875 11:0.25 12:0.5625 13:-0.939394 14:1 
-0 -0 0 0 0 0.1038710165274432 0 0 0 0 0 0 0 0 0 0 0 0 0 0 1.70767096840021 0 0 0 0 0 0 0 0 0 0 0 0 0 0 0 0 0 0 0 1:-0.75 3:0.1875 4:-0.939394 5:1 6:0.125 7:-1 8:-0.75 9:0.142857 10:0.1875 11:-1 12:-0.375 13:0.151515 14:-0.939394 
-0 -0 0 0 0 0 0 0 0 0 0 0 0 0 0 0 0 0 0 0 0 0 0 0 0 0 0 0 2.953218890639381 0 0 0 0 0 0 0 0 0 0 0 1:-0.856061 2:0.333333 3:0.125 4:0.030303 5:0.575758 6:0.125 7:0.125 8:-0.856061 9:0.428571 10:0.125 11:-1 12:0.5625 13:0.151515 14:0.151515 
-0 -0 0 0 30.078569616034 0 0 0.1112526800658744 0 0 0 0 0 0 0 0 0 0 0 0 0 0 0 0 0 0 1.37765683534328 1.37765683534328 0 0 0 0 0 3.335790390050203 0 0 0 0 0 0 1:0.954545 2:1 3:0.1875 4:0.151515 5:-0.757576 6:0.1875 7:-0.75 8:0.954545 9:1 10:0.1875 11:-1 12:0.5625 13:-0.939394 14:-0.69697 
-0 -0.6317706168088149 8.291446264112334 0 24.21821812674366 0 0 0 0 0 0 0 0 0 0 0 0 0 0 0 1.063178451383908 0 0 0 0 0 0 0 0 0 0 0 0 0 0 0 0 0 0 0 1:0.454545 2:0.333333 3:0.1875 4:0.878788 5:-0.69697 6:0.5625 7:-1 8:0.454545 9:0.428571 10:0.1875 11:-0.5625 12:-0.75 13:-0.151515 14:0.151515 
-0 -0 32 11.63920600956042 0 0 0 0 0 0 0 5.868878334167886 0 0 0 0 0 0 0 0 0 0 0 0 0 0 0 0 0 0 0 0 0 0 0 0 0 0 0 0 1:-0.242424 2:0.333333 3:0.125 4:-1 5:0.333333 6:1 7:-0.625 8:-0.242424 9:0.428571 10:0.125 11:0.25 12:0.3125 13:-0.515152 14:0.151515 
-0 -0 0 0 0 0 0 0 0 0 0 0 0 0 0 4.770090304996638 0 0 0 0 0 0 0 0 0 0 0 0 0 0 0 0 0 0 0 0 0 0 0 0 1:-0.818182 2:0.333333 3:0.125 4:0.878788 5:0.575758 6:0.5625 7:0.5625 8:-0.818182 9:0.428571 10:0.1875 11:0.5625 12:0.5625 13:0.575758 14:-0.939394 
-0 -0 32 0 32 0 0 0 0 0 11.44395129717345 0 0 0 0 0 0 0 0 0 0 6.488659317426438 0 0 0 0 1.660964071663709 1.660964071663709 0 0 0 0 0 1.294829563161212 0 0 0 0 0 0 1:0.719697 2:1 3:0.1875 4:-1 5:0.212121 6:0.125 7:0.125 8:0.719697 9:1 10:0.1875 11:-0.0625 12:0.5625 13:0.151515 14:-0.939394 
-0 -0 0 32 0 0 14.51274874597816 0 0 0 0 0 0 0 0 0 0 0 0 0 0 0 0 0 0 0 0 0 0 0 0 0 0 0 0 0 0 0 0 0 1:-0.242424 2:0.333333 3:0.125 4:0.151515 5:0.333333 6:0.125 7:1 8:-0.242424 9:0.428571 10:0.125 11:0.125 12:0.3125 13:0.151515 14:0.878788 
-0 -0 32 32 32 0 32 0 0 0 0 0 1.218593024133948 0 0 0 0 0 0 0 0 0 0 0 0 0 0 0 0 0 0 0 0 0 0 0 0 0 0 0 1:0.772727 2:0.333333 3:0.1875 4:-1 5:0.272727 6:-1 7:0.875 8:0.772727 9:0.428571 10:0.125 11:1 12:0.5625 13:0.454545 14:-0.151515 
-0 -0 0 0 32 0 0 0.6919591557677774 0 0 0 0 0 0 1.21256976476284 0 0 0 0 0 0 0 0 0 0 0 0 0 0 0 0 0 0 0 0 0 0 0 0 0 1:0.954545 2:1 3:0.1875 4:0.272727 5:0.575758 6:0.4375 7:-0.75 8:0.954545 9:0.428571 10:0.1875 11:0.5625 12:0.25 13:-0.939394 14:1 
-0 -0 0 0 10.81047902328316 0 0 0 0 0 0 0 0 0 0 0 0 0 0 0 0 0 0 0 0 0 0 0 0 0 0 0 0 0 0 0 0 0 0 0 1:0.719697 2:1 3:0.1875 4:-1 5:-1 6:0.125 7:0.5625 8:0.719697 9:1 10:0.1875 11:0.125 12:0.5625 13:0.272727 14:1 
-0 -0 0 32 0 0 32 0 0 0 0 0 0 0 0 0 0 0 0 0 0 0 0 0 0 0 0 0 0 0 0 0 0 0 0 0 0 0 0 0 1:0.0984848 2:-0.333333 3:0.125 4:0.151515 5:0.151515 6:0.125 7:0.125 8:0.0984848 9:-0.142857 10:0.125 11:0.125 12:0.125 13:0.151515 14:0.151515 
-0 -0 32 0 0 0 0 0 0 0 0 0 0 0 0 0 1.263584975334507 0 0 0 0 0 0 0 0 0 0 0 0 0 0 6.648094397858345 0 0 0 0 0 0 0 0 1:-0.522727 2:1 3:0.1875 4:0.151515 5:0.151515 6:-0.375 8:-0.522727 9:1 10:0.1875 12:0.5625 13:0.454545 14:0.151515 
-0 -0.7573521556566514 12.29675696114425 0 0 0 0 0.07736246480788357 0 0 0 0 0 0 0 0.2072613111410262 32 0 0 0 0 0 0 0 0 0.1661663390981432 0 0 0 0 0 0 0 0 0 0 0 0 0 0 1:-0.80303 2:0.666667 3:0.1875 4:-1 5:-1 6:0.5625 7:1 8:-0.80303 9:0.714286 10:0.1875 11:0.125 12:0.5625 13:0.575758 14:1 
-0 -27.51034861053048 32 0 0 0 0 0 0 0 0 0 0 0 0 0 25.10382740562374 0 0 0 0.7140386207984951 0 0 0 0 0 0 0 0 0 0 0 0 0 0 0 0 0 0 0 1:-0.80303 2:0.333333 3:0.1875 4:0.212121 5:-0.757576 6:-0.5625 7:0.125 8:-0.80303 9:0.714286 10:0.1875 11:-1 12:0.5625 13:0.454545 14:0.212121 
-0 -0 5.427865178214167 0 0 0 0 0 0 0 0 0 0 0 0 0 0 0 0 0 0 0 0 15.88475652457334 0 0 0 0 0 0 0 0 0 0 0 0 0 0 0 0 1:-0.80303 2:0.666667 3:0.1875 4:0.151515 5:0.575758 6:-1 7:0.8125 8:-0.80303 9:0.428571 10:0.1875 11:0.25 12:-0.5625 13:0.575758 14:0.151515 
-0 -0 0 0 0 0 0 0 0 0 0 0 0 0 0 0 0 0 0 0 0 0 0 0 5.214204173994324 0 0 0 0 0 2.258126270036409 0.2427124972589934 0 0 0 0 0 0 0 0 1:-0.80303 2:0.333333 3:0.1875 4:0.454545 5:1 6:1 7:0.125 8:-0.80303 9:0.428571 10:0.1875 11:-0.8125 12:0.4375 13:-0.333333 14:0.151515 
-0 -13.604756718656 0 0 0 0 0 0 0 0 0 0 0 0 0 0 0 0 0 0 0 0 0 0 0 0 0 0 0 0 0 0 0 0 0 0 0 0 0 0 1:-0.0909091 2:1 3:0.1875 4:0.575758 5:0.151515 6:1 7:0.5625 8:-0.0909091 9:1 10:0.1875 11:0.5625 12:0.4375 13:-0.030303 14:0.575758 
-0 -0 32 4.515229116399782 0 0 32 0 0 0 0 0 0 0 0 0 0 0 0 0 0 0 0 0 12.68448107944957 0 0 0 0 0 0 0 0 0 0 0 0 0 0 0 1:-0.242424 2:0.333333 3:0.125 4:0.272727 5:0.333333 6:0.5625 7:0.5 8:-0.242424 9:0.428571 10:0.125 11:-0.375 12:0.3125 13:-0.151515 14:0.151515 
-0 -0 32 11.26546399321046 0 0 4.417420504564908 0 0 0 0 0 0 0 0 0 0 0 0 0 0 0 0 0 0 0.8204614783057803 0 0 0 0 0 0 0 0 0 0 0 0 0 0 1:0.242424 2:0.666667 3:0.1875 4:0.151515 5:-0.939394 6:1 7:-0.375 8:0.242424 9:0.714286 10:0.1875 11:0.5625 12:1 13:1 14:0.878788 
-0 -32 0 14.05868973466722 20.6672123552258 0 0 0 0 0 0 0 0 0 0 0 0 0 0 0 0 0 0 0 0 0 0 0 0 0 0 0 0 0 10.91607221125899 0 0 0 0 0 1:-0.242424 2:0.333333 3:0.125 4:1 5:0.333333 6:-0.5625 7:0.125 8:-0.242424 9:0.428571 10:0.125 11:1 12:0.3125 13:-0.515152 14:0.151515 
-0.0676681694663928 -0 0 0 0 0 0 0 0 0 2.219673073152156 0 0 1.379660836675731 5.217592973055948 0 0 0 0 0 0 0 0 0 0 0 0 0 0 0 0 0 0 0 0 0 0 0 0 0 1:-0.242424 2:0.333333 3:0.125 4:1 5:0.333333 6:-0.5625 7:0.125 8:-0.242424 9:0.428571 10:0.125 11:1 12:0.3125 13:-0.939394 14:1 
-0 -0 0 0 0 0 0 0 0 0 0 0 0 0 3.66856846414412 0 0 5.939479141853473 0 0 0 0 0.493330381487749 0 0 0 0 0 0 0 1.618521008516334 0 0 0 0 0 0 0 3.681676932891764 0 1:-0.643939 2:-1 3:0.125 4:1 5:0.939394 6:0.5625 7:-1 8:-0.643939 9:-0.714286 10:0.125 11:0.125 12:-0.5625 13:0.151515 14:1 
-0 -0 0 0 32 0 0 0 0 1.382387776250472 2.894744053907041 0 0 0 0 0 0 0 0 0 4.30311053638701 0 0 0 0 0 0 0 0 0 0 0 0 0 0 0 0 0 0 0 1:0.151515 2:1 3:0.1875 4:0.151515 5:1 6:1 7:-0.75 8:0.151515 9:1 10:0.1875 11:-1 12:0.5625 13:1 14:-0.939394 
-0 -0 0 0 0 3.009018378531697 8.003799283530455 1.401988876880589 7.111663175821093 0 0 0 1.886081851783434 0 0 0 0 0 0 0 0 0 0.03781395944135713 0 0 0 0.6513595859107525 0.6513595859107525 2.987453037243374 0 0 0 0 0 0 0 0 0 0 0 1:-0.439394 2:0.666667 3:0.1875 4:0.151515 5:0.878788 6:-1 7:1 8:-0.439394 9:-0.714286 10:0.1875 11:-1 12:0.875 13:0.151515 14:-0.939394 
-0 -0 0 0 0 0 0 0 0 0 0 0 0 0.1056556343058092 0 0 0 0 0 0 0 0 0 0 0 0 0 0 0 0 0 0 0 0 0 0 0 0 0 0 1:-0.787879 2:0.333333 3:-0.375 4:0.575758 5:0.454545 6:-0.375 7:0.125 8:-0.787879 9:0.428571 10:0.125 11:0.5625 12:1 13:-0.333333 14:0.151515 
-0 -0 0 0 0 0 0 0 0 0 0 0 0 10.92512663308146 0 0 0 0 0 0 0 0 0 0 0 0 0 0 4.165803604264795 0 0 0 0 0 0 0 0 0 0 0 1:-0.787879 2:0.333333 3:-0.375 4:0.575758 5:0.454545 6:-0.375 7:0.125 8:-0.787879 9:0.428571 10:0.125 11:0.5625 12:1 13:-0.333333 14:0.151515 
-0 -32 32 0 32 0 0 0 0 0 0 0 0 0 0 0 0 0 0 0 0.3168055176303505 0 0 0 0 0 0 0 0 0 0 0 0 0 0 0 0 0 0 0 1:0.598485 2:0.666667 3:0.1875 4:0.333333 5:0.030303 6:0.125 7:0.125 8:0.598485 9:0.714286 10:0.1875 11:-0.375 13:0.151515 14:0.151515 
-0 -0 0 0 0 1.677596967469639 0 0.1855183589306616 0 0.4869756071526237 0 0 0 0 0 0 11.82132970549091 0 0 0 0 0 0 0 0 0 0 0 0 0 0 0 0 0 0 0 0 0 0 0 1:-0.772727 2:0.666667 3:1 4:0.515152 5:1 6:0.5625 7:-1 8:-0.772727 9:0.714286 10:0.125 11:-0.0625 12:0.5625 13:-0.515152 14:0.151515 
-0 -0 32 0 0 0 0 0 0 0 0 0 0 0 0 0 1.826485588594403 0 0 0 0 0 0 0 0 0 0 0 8.311751700754565 0 0 0 0 0 0 0 0 0 0 0 1:-0.772727 2:0.666667 3:0.125 4:0.151515 5:0.575758 6:-1 7:1 8:-0.772727 9:0.714286 10:0.125 11:-1 12:0.4375 13:-0.515152 14:0.151515 
-0 -0 0 0 0 0 0 0 3.092073581585593 0 0 0 0 0.804062177868845 0 0 0 0 0 1.891644284510137 0 0 0 0 0 0 0 0 0 0 0 0 0 0 0 0 0 0 0 0 1:-0.772727 2:0.666667 3:0.125 4:1 5:1 6:-0.8125 7:0.125 8:-0.772727 9:0.714286 10:1 11:0.8125 12:0.5625 13:-0.515152 14:0.151515 
-0 -2.865369286986607 0 0 0 0 0 0 0 0 0 0 0 0 0 2.40004006242816 19.69773006520447 0 0 0 0 0 0 2.623243256547016 0 0 0 0 0.3708810335035551 0 0 0 0 0 0 0 0 0 0 0 1:-0.772727 2:0.666667 3:0.125 4:-0.878788 5:0.575758 6:1 7:1 8:-0.772727 9:0.714286 10:0.125 11:0.125 12:0.5625 13:1 14:1 
-0 -0 0 0 0 0 0 0 0 0 0 0 0 0 0 0 7.634552096540867 0 0 0 0 0 0 0 0 0 0 0 0 0 0 0 0 0 0 0 0 0 0 0 1:-0.772727 2:0.666667 3:0.125 4:0.151515 5:0.575758 6:1 7:1 8:-0.772727 9:0.714286 10:1 11:-1 12:0.5625 13:-0.939394 14:1 
-0 -0 32 0 32 0 0 0 0 0 0 0 4.272996495193947 0 0 0 0 0 0 0 0 4.757457571219915 0 0 0 0 0 0 0 4.606777470017303 0 0 0 6.945148189552344 0 0 0 0 0 0 1:0.954545 2:1 3:0.1875 4:0.212121 5:0.575758 6:0.4375 7:0.125 8:0.954545 9:1 10:0.1875 11:0.8125 12:0.5625 13:-0.939394 14:-0.939394 
-0 -0 0 0 32 0 0 0 0 0 14.94674775207925 0 9.910923241250488 0 0 0 0 0 0 0 0 8.294052692419763 0 0 0 0 0 0 0 0 0 0 0 0 0 0 0 0 0 0 1:0.954545 2:1 3:0.1875 4:-0.939394 5:1 6:0.125 7:1 8:0.954545 9:1 10:0.1875 11:1 12:0.5625 13:0.333333 14:0.030303 
-0 -0 16.5646418679832 0 6.832444812788532 7.167761243840897 0 0 0 0 0 0 0 0 0 0 0 0 0 0 0 0 0 0 0 0 0 0 0 0 0 0 0 0 0 0 0 0 0 0 1:0.954545 2:1 3:0.1875 4:-1 5:-1 6:-1 7:1 8:0.954545 9:1 10:0.1875 11:0.125 12:-0.5625 13:1 14:0.212121 
-0 -21.56746609393301 32 9.845628678315881 4.266372686636203 0 0 0 0 0 0 0 0 0 0 0 0 0 0 0 0 0 0 0 0 0 0 0 0 0 0 0 0 0 0 0 0 0 0 0 1:-0.113636 2:0.666667 3:0.1875 4:0.272727 5:0.575758 6:-1 7:1 8:-0.113636 9:0.714286 10:0.1875 11:-1 12:1 13:0.151515 14:0.151515 
-0 -0 0 32 0 0 32 0 0 0 0 0 0 0 0 0 0 0 0 0 0 0 0 0 0 0 0 0 0 0 0 0 0 0 0 0 0 0 0 0 1:0.992424 2:-0.333333 3:0.1875 4:0.575758 5:0.454545 6:0.125 7:0.125 8:0.992424 9:-0.142857 10:0.1875 11:-0.75 12:0.5625 13:0.272727 14:-0.939394 
-0 -0 0 32 0 0 32 0 0 0 0 0 0 0 0 0 0 0 0 0 0 0 0 0 0 0 0 0 0 0 0 0 0 0 0.02497367516814585 0 0 0 0 0 1:0.992424 2:-0.333333 3:0.1875 4:0.575758 5:0.454545 6:0.125 7:0.125 8:0.992424 9:-0.142857 10:0.1875 11:-0.75 12:0.5625 13:0.272727 14:-0.939394 
-0 -4.866285615571224 0 32 0 3.548507553111328 32 0 0 0 0 0 0 0 0 0 0 0 6.342712969729102 0 0 0 0 0 0 0.6933029262642769 0 0 0 0 0 0 0 0 0 0 0 0 0 0 1:0.393939 2:-0.333333 3:0.1875 4:-1 5:-1 6:0.125 7:0.125 8:0.393939 9:-0.142857 10:0.1875 11:0.1875 12:-0.8125 13:0.151515 14:0.151515 
-0 -0 0 0 32 0 0 0 0 0 0 0 0 0 0 0 0 0 0 0 0 0 0 15.53883245990064 0 0 0 0 0 0 0 0 0 0 0 0 0 0 0 0 1:-0.0530303 2:1 3:0.1875 4:0.151515 5:0.151515 6:0.125 7:-0.0625 8:-0.0530303 9:1 10:0.1875 11:0.125 12:0.125 13:0.454545 14:0.575758 
-0 -0 0 0 0 0 0 0 0 0 0 0 0 0 0 0 0 0 0 0 0 0 0 0 0 0 0 0 0 0 0 0 0 0 0 0 0 0 2.423539567697908 0 1:-0.643939 2:-1 3:0.125 4:0.818182 5:-0.575758 6:0.125 7:0.125 8:-0.643939 9:-0.714286 10:0.125 11:-0.1875 12:-0.5625 13:0.151515 14:0.575758 
-0 -0 0 13.39006648901649 0 2.493776487579755 32 0 0 0 0 0 0 5.917321752947901 0 0 0 0 0 0 0 0 0 0.2666848675832971 0 0 0 0 0 0 0 0 0 0 0 0 0 0 0 0 1:-0.44697 3:0.1875 4:0.272727 5:1 6:0.5625 7:-1 8:-0.44697 9:0.142857 10:0.1875 11:0.125 12:0.125 13:0.575758 14:0.454545 
-0 -0 23.79367227257559 0 32 0 0 1.711911380324577 0 0 0 0 0 0 0 0 0 0 0 0 0 0 0 0 0 0 0 0 0 0 0 0 0 0 0 0 0 0 0 0 1:-0.0227273 2:1 3:0.1875 4:-0.575758 5:0.575758 6:-1 7:0.4375 8:-0.0227273 9:1 10:0.1875 11:0.125 12:0.5625 13:1 14:0.151515 
-0 -0 0 0 0 0 0 0 0 0 0 0 0 0 0 0 0 0 0 0 0 0 0 0 0 0 0 0 0 0 0 1.654260534996124 0 0 0 0 0 0 0 0 1:-0.0227273 2:1 3:0.1875 4:0.151515 5:0.575758 6:1 7:0.125 8:-0.0227273 9:1 10:0.1875 11:0.125 12:0.5625 13:1 14:0.575758 
-0 -0 0 0 0 0 0 0 0 0 0 0 0 0 0 0 28.34369178570535 0 0 0 0 0 0 0 0 0 0 0 0 0 0 1.500957838555476 0 0 0 0 0 0 0 0 1:-0.590909 2:1 3:0.1875 4:0.151515 5:0.151515 6:0.125 7:0.125 8:-0.590909 9:1 10:0.1875 11:0.125 12:0.125 13:1 14:-0.878788 
-0 -0 0 0 0 0 0 0 0 0 0 0 0 0 0 0 4.91239382519964 0 0 0 0 0 0 0 0 0 0 0 0 0 0 0 0 0 0 0 0 0 0 0 1:-0.795455 2:0.666667 3:0.1875 4:0.818182 5:-0.757576 6:1 7:0.125 8:-0.795455 9:0.714286 10:0.1875 11:0.125 12:0.5625 13:-0.939394 14:1 
-0 -0 0 0 0 0 0 0 0 0 0 0 0 0 0 0 32 0 0 0 0 0 0 0 0 0 0 0 0 0 0 0 0 0 0 0 0 0 0 0.01369349981306338 1:-0.795455 2:0.666667 3:0.1875 4:0.151515 5:0.575758 6:-1 7:1 8:-0.795455 9:0.714286 10:0.1875 11:0.5625 12:0.4375 13:-0.939394 14:1 
-0 -0 0 0 0 0 0 0 0 0 0 0 0 0 0 0 10.63645907290023 0 0 0 0 0 0 0 0 0 0 0 3.383753024888839 0 0 0 0 0 0 0 0 0 0 0 1:-0.795455 2:0.666667 3:0.1875 4:0.575758 5:0.454545 6:-1 7:1 8:-0.795455 9:0.714286 10:0.1875 11:0.5625 12:0.5625 13:0.151515 14:0.151515 
-0 -0 0 0 22.83070287316252 0 0 0 0 0 0 0 0 0 0 0 0 0 0 0 0 0 0 0 0 0 0 0 0 0 0 0 0 0 0 0 0 0 0 0 1:0.954545 2:1 3:0.1875 4:-1 5:-1 6:0.4375 7:-0.1875 8:0.954545 9:1 10:0.1875 11:-0.0625 12:0.5625 13:-0.939394 14:1 
-0 -0 0 0 32 0 0 0.8744517211920106 0 0 4.118046939302263 0 0 0 0 0 0 0 0 0 0 0 0 0 0 0 0.856993765204637 0.856993765204637 0 0 0 0 0 0 0 0 0 0 0 0 1:0.954545 2:1 3:0.1875 4:0.151515 5:0.575758 6:0.125 7:-1 8:0.954545 9:0.428571 10:0.1875 11:-0.0625 12:-0.5625 13:0.575758 14:-0.939394 
-0 -0 32 0 0 0 0 0 0 0 0 0 0 0 0 0 0 0 0 0 0 0 0 0 0 0 0 0 0 0 0 0 0 0 0 0 0 0 0 0 1:-0.242424 2:0.333333 3:0.125 4:0.212121 5:0.333333 6:-0.5625 7:0.125 8:-0.242424 9:0.428571 10:0.125 11:0.5625 12:0.3125 13:-0.515152 14:0.151515 
-0 -0 0 0 0 0 0 0 0 0 0 0 0 0 0 0 0.9771699928833404 0 0 0 0 0 0 0 0 0 0 0 0 0 0 0 0 0 0 0 0 0 0 0 1:-0.742424 2:0.666667 3:0.125 4:0.575758 5:-0.818182 6:0.5625 7:0.125 8:-0.742424 9:0.714286 10:0.125 11:1 12:-0.9375 13:-0.757576 14:-0.151515 
-0 -0 24.89065882083072 0 0 0 0 0 0 0 0 0 0 0 0 0 30.53764277369955 0 0 0 0 0 0 0 0 0 0 0 0 0 0 0 0 0 0 0 0 0 0 0 1:-0.80303 2:0.333333 3:0.1875 4:-1 5:-1 6:-0.375 8:-0.80303 9:0.428571 10:0.1875 11:0.1875 12:0.5625 13:-0.515152 14:0.151515 
-1.997971775423961 -0 32 0 32 0 0 0 0 0 0 0 0 0 0 0 0 0 0 0 0 0 0 0 1.834833998979031 0 0 0 0 0 0 0 0 0 0 0 0 0 0 0 1:-0.356061 2:0.666667 3:0.125 4:0.030303 5:1 6:0.125 7:0.125 8:-0.356061 9:0.714286 10:0.125 11:0.125 12:0.5625 13:-0.515152 14:-0.333333 
-0 -18.70558562562833 32 21.26749509815314 0 0 3.485577258370776 0 0 0 0 0 0 0 0 0 0 0 0 0 0 0 0 0 0 0 0 0 0 0 0 0 0 0 0 0 0 0 0 0 1:-0.113636 2:0.666667 3:0.1875 4:-1 5:-1 6:0.125 7:0.5625 8:-0.113636 9:0.714286 10:0.1875 11:0.25 12:0.5625 13:1 14:-0.878788 
-0 -0 0 0 0 0 0 0 0 0 0.4770374793014037 0 0 0 0 0 0 0 0 0 0 0 0 3.168289459411509 0 0 0 0 0 0 0 0 0 0 0 0 0 0 0 0 1:0.30303 2:0.333333 3:0.1875 4:1 5:-0.69697 6:0.5625 7:0.5625 8:0.30303 9:0.428571 10:0.1875 11:1 12:-0.75 13:0.575758 14:0.151515 
-0 -0 32 0 32 0 0 0 0 0 0 0 0 0 0 0 0 0 0 0 0 0 0 0 0 0 0 0 0 0 0 9.181042676372979 0 0 0 0 0 0 0 0 1:-0.0606061 2:1 3:0.1875 4:0.151515 5:1 6:0.5625 7:0.125 8:-0.0606061 9:1 10:0.1875 11:0.125 12:1 13:0.575758 14:0.151515 
-0 -0 0 0 0 0 0 0 0 0 0 0 0 31.14328175870644 0 0 0 0 0 0 0 0 0 0 0 0 0 0 0 0 0 0 0 0 0 0 0 0 0 0 1:-0.393939 2:1 3:0.1875 4:0.575758 5:0.575758 6:0.5625 7:0.5625 8:-0.393939 9:1 10:0.1875 11:0.5625 12:0.5625 13:-0.151515 14:0.575758 
-5.335333229065053 -0 32 0 0 0 0 0 0 0 0 0 0 0 0 0 0 0 0 0 0 0 0 0 0 0 0 0 0 0 0 0 0 0 0 0 0 0 0 0 1:-0.484848 2:0.666667 3:0.1875 4:0.515152 5:1 6:0.125 7:0.5625 8:-0.484848 9:0.714286 10:0.1875 11:0.125 12:0.5625 13:-0.515152 14:0.151515 
-0 -0 14.4405187890166 32 32 0 32 0 6.847125161990927 0 12.6173368256494 0 6.537067757858271 0 0 0 0 0 0 0 0 0 0 0 0 0 0 0 0 0 0 0 2.726656313327575 0 0 0 0 0 0 0 1:0.431818 2:1 3:0.1875 4:0.212121 5:0.575758 6:0.8125 7:-0.625 8:0.431818 9:0.142857 10:0.1875 11:0.125 12:0.4375 13:0.151515 14:1 
-0 -20.14125917208935 0 0 32 0 0 0 0 0 5.745864079498404 0 0 0 0 0 0 0 0 0 0 0 0 2.581267399980736 0 0 0 0 0 0 0 0 0 0 0 0 0 0 0 0 1:0.409091 2:1 3:0.1875 4:0.151515 5:0.575758 6:0.125 7:0.125 8:0.409091 9:1 10:0.1875 11:0.125 12:-0.5625 13:0.151515 14:0.575758 
-0 -0 5.685558111764236 0 8.095095747627093 0 0 0 0 0 0 0 0 0 0 0 0 0 0 0 0 0 0 0 0 0 0 0 0 0 0 0 0 0 0 0 0 0 0 0 1:0.94697 2:0.333333 3:-1 4:-1 5:-1 6:-0.75 8:0.94697 9:0.428571 10:-0.1875 11:1 12:0.4375 13:-0.69697 14:0.030303 
-0 -32 11.32093068476643 0 32 0 0 0 0 0 0 0 0 0 0 0 0 0 0 0 0 0 0 0 0 0 0 0 0 0.07045951698174556 0 0 0 0 0 0 0 0 0 0 1:0.409091 2:1 3:0.1875 4:0.151515 5:0.575758 6:0.4375 7:0.125 8:0.409091 9:1 10:0.1875 11:1 12:0.5625 13:-0.939394 14:0.454545 
-0 -0 0 0 32 0 0 0 0 0 0 0 0 0 0 0 0 0 0 0 0 0 0 0 0 0 0 0 0 0 0 0 0 0 0 0 0 0 0 0 1:0.409091 2:1 3:0.1875 4:0.151515 5:0.575758 6:1 7:-0.75 8:0.409091 9:1 10:0.1875 11:0.5625 12:0.5625 13:0.454545 14:0.212121 
-0 -0 32 0 32 0 0 0 0 0 0 0 0 0 0 0 0 0 0 0 0 0 0 0 3.850621967549282 0 0 0 0 4.515265313874309 0 0 0 0 0 0 0 0 0 0 1:0.621212 2:1 3:0.1875 4:0.272727 5:0.575758 6:0.4375 7:1 8:0.621212 9:1 10:0.1875 11:0.125 12:0.5625 13:-0.939394 14:-0.151515 
-0 -32 0 0 32 0 0 0 0 0 3.036485904737924 0 0 0 0 0 0 0 0 0 0 0 0 3.708372147471872 0 0 0 0 0 0 0 0 0 0 0 0 0 0 0 0 1:0.621212 2:1 3:0.1875 4:0.151515 5:0.575758 6:-1 7:-0.1875 8:0.621212 9:1 10:0.1875 11:1 12:-0.625 13:0.151515 14:0.878788 
-0 -0 0 0 0 0 0 0 0 0 0 0 0 0 0 0 0 0 0 0 4.082363719783593 0 0 0 0 0 0 0 0 0 0 0 0 0 0 0 0 0 0 0 1:0.568182 2:1 3:0.125 4:0.151515 5:0.151515 6:1 7:-1 8:0.568182 9:1 10:0.125 11:-0.1875 12:0.1875 13:1 14:0.575758 
-0 -0 0 0 0 0 0 0 0 0 0 0 0 0 0 0 0 0 0 0 0 4.753405244496825 0 0 0 0 0 0 0 0 0 0 0 0 0 0 0 0 0 0 1:0.568182 2:1 3:0.125 4:-0.151515 5:0.212121 6:1 7:0.5625 8:0.568182 9:1 10:0.125 11:0.5625 12:1 13:1 14:0.151515 
-0 -0 2.61577216171822 0 32 0 0 0 0 0 0 0 0 0 0 0 0 0 0 0 0 0 0 0 4.173647005296853 0 0 0 0 0 0 0 0 0 0 0 0 0 0 0 1:0.568182 2:1 3:0.1875 4:0.575758 5:0.454545 6:1 7:1 8:0.568182 9:1 10:0.1875 11:-0.0625 12:0.5625 13:0.212121 14:0.454545 
-0 -0 0 0 0 0 0 0 0 0 0 0 0 0 0 0 0 0 0 0 0 0 0 0 0 0 0 0 0 0 1.016982488639255 0 0 0 0 0 0 0 0 0 1:0.568182 2:1 3:0.1875 4:0.515152 5:0.454545 6:1 7:0.125 8:0.568182 9:1 10:0.125 11:0.4375 12:0.125 13:1 14:1 
-0 -0 21.72715306756761 0 0 0 0 0 0 0 0 0 0 0 0 0 0 0 0 0 0 0 0 0 0 0 0 0 0 0 0 0 0 0 0 0 0 0 0 0 1:0.568182 2:1 3:0.125 4:0.454545 5:0.151515 6:1 7:1 8:0.568182 9:1 10:0.1875 11:1 12:0.5625 13:1 14:-0.575758 
-0 -0 0 0 0 0 0 0 0 0 0 0 0 0 5.243143177839556 0 0 0 0 0 0 0 0 0 0 0 0 0 0 0 0 0 0 0 0 0 0 12.44606772348551 0 0 1:0.568182 2:1 3:0.1875 4:1 5:0.575758 6:1 7:-0.625 8:0.568182 9:1 10:0.1875 11:0.5625 12:0.5625 13:1 14:1 
-0 -0 0 0 0 0 0 0 0 0 0 0 0 0 0 0 0 0 0 0 0 0 0 0 0 0 0 0 0 0 0 0 0 0 0 0 0 5.384717433707086 0 0 1:0.568182 2:1 3:0.1875 4:0.575758 5:0.575758 6:1 7:1 8:0.568182 9:1 10:0.1875 11:0.5625 12:0.5625 13:1 14:-0.575758 
-0 -0 0 0 0 0 0 0 0 0 0 0 0 0 0 0 0 0 0 0 0 0 0 0 2.723310226207792 0 0 0 0 0 0 0 0 0 0 0 0 0 0 0 1:0.568182 2:1 3:0.1875 4:0.575758 5:0.575758 6:1 7:-0.625 8:0.568182 9:1 10:0.1875 11:-0.0625 12:0.5625 13:1 14:-0.575758 
-0 -0 8.693196112464241 32 0 0 32 0 0 0 0 0 0 0 0 0 0 0 0 0 0 0 0 0 0 0 0 0 0 0 0 0 0 0 0 0 0 0 0 0 1:0.325758 2:-0.333333 3:0.1875 4:0.212121 5:-0.757576 6:1 7:0.125 8:0.325758 9:-0.142857 10:0.1875 11:0.125 12:0.5625 13:-0.939394 14:1 
-0 -4.42804572436776 0 0 0 0 0 0.7355591646081904 0 0 0 0 0 0 0 0 32 0 1.101608579273106 0 1.020980835288048 0 0 0 0 0 0 0 0.7642695344390574 0 0 0 0 0 0 0 0 0 0 0 1:-0.772727 2:0.666667 3:1 4:-1 5:-0.939394 6:0.125 7:-0.75 8:-0.772727 9:0.714286 10:0.125 11:-0.625 12:0.125 13:0.151515 14:-0.69697 
-0 -0 0 0 0 0 0 0.1291938286681414 0 0 0 0 0 0 0 0 0 0 0 0 0 0 0 0 0 0 0 0 0 0 0 0 0 0 0 0 0 0 0 0 1:0.94697 2:0.333333 3:-1 4:-0.939394 5:1 6:-0.75 8:0.94697 9:0.428571 10:-1 11:-1 12:1 13:-0.69697 14:0.030303 
-0 -0 0 0 0 9.722448538839268 0 0.2829286221173158 0 0 0 0 0 0 0 0 0 0 2.455687264403787 0 0 0 0 0 0 0 0 0 0 0 0 0 0 0 0 0 0 0 0 0 1:-0.863636 2:0.333333 4:-0.636364 5:-0.69697 6:-0.0625 7:1 8:-0.863636 9:0.428571 10:0.125 11:-1 12:-0.75 13:-0.030303 14:1 
-0 -0 0 0 0 0 0 0 0 0 0 0 0 0 0 12.08429354285865 0 0 0 0 0 0 0 0 0 0 0 0 3.76256393453745 0 0 0 0 0 0 0 0 0 0 0 1:-0.674242 2:0.666667 3:0.1875 4:0.212121 5:1 6:0.125 7:0.5625 8:-0.674242 9:0.714286 10:0.1875 11:0.125 12:0.5625 13:1 14:-0.939394 
-3.328513085192514 -0 14.59168283632224 16.87526974520494 19.35517988142468 0 22.20136252945963 0 0 0 0 0 0 0 0 0 0 0.2466199630591632 0 0 0 0 0 0 0 0 0 0 0 0.2675998067066291 0 0 0 0 0 0 0 0 0 0 1:0.992424 2:-0.333333 3:0.125 4:-0.939394 5:0.878788 6:-0.8125 7:0.1875 8:0.992424 9:0.428571 10:0.125 11:0.5625 12:0.9375 13:-0.69697 14:0.030303 
-0 -0 0 0 0 0 0 0 0 0 0 0 0 0 0 0 3.328704870305829 0 0 0 0 0 0 0 0 0 0 0 0 0 0 0 0 0 0 0 0 0 0 0 1:-0.613636 2:0.666667 3:0.1875 4:-0.69697 5:0.030303 6:-0.1875 7:0.125 8:-0.613636 9:0.714286 10:0.1875 11:-0.0625 12:0.5625 13:-0.939394 14:0.939394 
-0 -0 32 0 0 0 0 0 0 0 0 0 0 0 0 0 0 0 0 0 0 0 0 0 0 0 0 0 0 0 0 0 0 0 0 0 0 0 0 0 1:-0.613636 2:0.666667 3:0.1875 4:0.272727 5:0.575758 6:-1 7:0.8125 8:-0.613636 9:0.714286 10:0.1875 11:0.125 12:0.5625 13:0.151515 14:0.151515 
-0 -0 0 0 0 0 0 0 0 0 0 0 0 0 0 0 0 0 0 0 0 0 0 0 0 0 0 0 0 0 0 2.140026221347144 0 0 0 0 0 0 0 0 1:-0.234848 2:1 3:0.1875 4:0.151515 5:0.151515 6:0.4375 7:0.1875 8:-0.234848 9:1 10:0.1875 11:0.125 12:0.5625 13:1 14:0.151515 
-0 -0 0 0 0 0 0 3.94178842422076 0 14.92849576545423 0 0 0 0 0 0 0 0 0 0 0 0 0 0 0 0 0 0 0 2.336506489402105 0 0 0 0 0 0 0 0 0 0 1:-0.242424 2:0.333333 3:0.125 4:0.454545 5:0.333333 6:1 7:-0.9375 8:-0.242424 9:0.428571 10:0.125 11:0.5625 12:0.3125 13:-0.575758 14:-0.939394 
-0 -0 5.243359296499032 0 32 0 0 0 0 0 0 0 0 0 0 0 0 0 0 0 0 0 0 0 0 0 0 0 0 0 0 0 0 0 2.966703739528277 0 0 0 0 0 1:0.651515 2:1 3:0.1875 4:1 5:0.454545 6:0.125 7:1 8:0.651515 9:1 10:0.1875 11:-0.0625 12:-0.5625 13:0.151515 14:0.151515 
-0 -0 0 0 0 0 0 0 0 0 0 0 0 0 0 0 0 0 0 0 0 0 0 0 0 0 0 0 0 0 0 0 0 0 0 0 0 0 1.968779459446405 0 1:0.757576 2:1 3:0.1875 4:1 5:0.575758 6:0.25 7:0.0625 8:0.757576 9:1 10:0.1875 11:-1 12:0.5625 13:1 14:0.515152 
-0 -0 0 32 0 0 32 0 0 0 0 0 0 0 0 0 0 0 0 0 0 0 0 0 0 0 0 0 0 0 0 0 0 0 0 0 0 0 0 0 1:0.954545 2:0.333333 3:0.1875 4:0.151515 5:0.454545 6:1 7:-0.625 8:0.954545 9:0.428571 10:0.1875 11:0.25 12:0.25 13:0.151515 14:0.454545 
-0 -0 0 0 32 0 0 0 0 0 0 0 6.754327873900553 0 0 0 0 0 0 0 0 0 0 0 0 0 0 0 0 0 0 0 0 0 0 0 0 0 0 0 1:0.954545 2:1 3:0.1875 4:0.151515 5:1 6:0.4375 7:1 8:0.954545 9:1 10:0.1875 11:0.5 12:0.4375 13:0.151515 14:0.151515 
-0 -12.35893731410579 0 0 0 0 0 0 0 0 0 0 0 0 4.432798746997847 0 0 0 0 0 0 0 0.4544553940151123 0 0 0 0 0 0 0 0 0 3.049934810121567 0 0 0 0 3.313063139255024 2.429891294135158 0 1:0.954545 2:1 3:0.1875 4:1 5:0.575758 6:-0.8125 7:0.125 8:0.954545 9:1 10:0.1875 11:0.125 12:0.5625 13:1 14:1 
-0 -0 0 0 12.52449275053591 0.128947415632469 0 0 3.713278715548424 0 13.37222330919494 0 15.35122748161027 0 0 0 0 0 0 0 0 0 0 0 0 0 0.2465556781147799 0.2465556781147799 0 0 0 0 0.8726315412444876 0 0 0 0 0 0 0 1:0.954545 2:1 3:0.1875 4:-0.939394 5:0.575758 6:0.4375 7:0.1875 8:0.954545 9:-0.714286 10:0.1875 11:0.125 12:-0.5625 13:0.151515 14:1 
-0 -0 32 0 32 0 0 0 0 0 0 0 0 0 0 0 0 0 0 0 0 0 0 0 0 0 0 0 0 0 0 0 0 0 1.334949997087222 0 0 0 0 0.004091207276603628 1:0.954545 2:1 3:0.1875 4:0.575758 5:0.454545 6:-0.0625 7:0.5625 8:0.954545 9:1 10:0.1875 11:0.125 12:0.5625 13:-0.939394 14:-0.030303 
-0 -0 0 0 32 0 0 0 0 0 0 0 0 0 0 0 0 0 0 0 0 0 0 0 0 0 0 0 0 0 0 0 0 0 0 0 0 0 0 0 1:0.19697 2:1 3:0.1875 4:-0.757576 5:0.151515 6:0.5625 7:1 8:0.19697 9:1 10:0.1875 11:0.875 12:0.125 13:1 14:-0.878788 
-0 -0 0 0 0 0 0 0 0 0 0 0 0 0 0 0 0 0 0 0 0 0 0 0 0 0 3.046441974337943 3.046441974337943 0 0 0 0 0 0 0 0 0 0 0 0 1:-0.0757576 2:1 3:0.1875 4:0.212121 5:0.151515 6:0.5625 7:0.4375 8:-0.0757576 9:1 10:0.1875 11:0.125 12:0.125 13:1 14:-0.878788 
-0 -0 32 0 32 0 0 0 0 0 0 0 0 0 0 0 0 0 0 0 0 0 0 0 0 0 0 0 0 0 0 0 0 0 0 0 0 0 0 0 1:0.363636 2:0.666667 3:0.1875 4:0.454545 5:0.212121 6:-1 7:1 8:0.363636 9:0.714286 10:0.1875 11:0.125 12:0.4375 13:0.575758 14:-0.939394 
-0 -6.656443362403155 0 0 32 0 0 0 0 0 0 0 0 0 0 0 0 0 0 0 0 0 0 0 0 0 0 0 0 0 0 0 0 0 0.4852375394946592 0.4202349852956925 0.4202349852956925 0 0 31.97224147608301 1:0.128788 2:0.666667 3:0.1875 4:0.272727 5:0.575758 6:-1 7:1 8:0.128788 9:0.714286 10:0.1875 11:0.25 12:0.5625 13:-0.939394 14:0.878788 
-0.9807931889826931 -4.615130065703518 17.47839414136414 0 0 0 0 0 0 0 0 0 0 0 0 0 0 0 0 0 0 0 0 0 0 0 0 0 0 1.044834704382598 0 0 0 0 0 3.387078738904295 3.387078738904295 0 0 0 1:0.159091 2:0.333333 3:-0.375 4:0.151515 5:0.575758 6:1 7:0.5625 8:0.159091 9:0.428571 10:-0.375 11:1 12:0.5625 13:-0.939394 14:1 
-0 -29.23637881209065 23.63565977047179 27.46427800836353 0 0 0 0 0 0 0 0 0 0 0 0 0 0 0 0 0 0 0 0 0 0 0 0 0 0 0 0 0 0 0 0 0 0 0 0 1:-0.242424 2:0.333333 3:0.125 4:0.212121 5:0.333333 6:1 7:1 8:-0.242424 9:0.428571 10:0.125 11:-0.625 12:0.3125 13:0.151515 14:1 
-0 -0 0 0 0 0 0 0 0 2.558051166365831 0 0 0 0 0 0 0 0 0 0 0 0 0 0 0 0 0 0 0 0 0 0 0 0 0 0 0 0 0 0 1:-0.780303 2:0.333333 3:-0.375 4:0.151515 5:0.454545 6:0.9375 7:-0.1875 8:-0.780303 9:0.428571 10:-0.375 11:0.5625 12:0.4375 13:1 14:-0.69697 
-0 -0 0 0 0 0 0 0 0 0 0 0 0 0 0 0 0 0 0 0 0 0 0 0 0 0 0.118446353701164 0.118446353701164 0 0 0 0 0 0 0 0 0 0 0 0 1:-0.780303 2:0.333333 3:-0.375 4:1 5:-0.878788 6:0.125 7:-0.5625 8:-0.780303 9:0.428571 10:-0.375 11:-1 12:0.4375 13:1 14:-0.69697 
-0 -0 0 0 0 0 0 0 0 0 0 0 0 2.844966915921439 0 0 0 0 0 0 0 0 0 0 0 0 0 0 0 0 0 0 0 0 0 0 0 0 0 0 1:-0.780303 2:0.333333 3:-0.0625 4:0.272727 5:0.151515 6:-0.625 7:0.125 8:-0.780303 9:0.428571 10:-0.375 11:0.5625 12:0.4375 13:-0.939394 14:1 
-0 -8.16887486398914 0 0 0 0 0 0 0 0 0 0.2783631171854202 0 0 0 0 0 0 0 0 0 0 0 0 0 0 0.4611355091293467 0.4611355091293467 0 0 0 1.263251805632091 0 0 0 0 0 0 0 0 1:-0.0454545 2:1 3:0.1875 4:-0.757576 5:0.151515 6:0.5625 7:0.125 8:-0.0454545 9:1 10:0.1875 11:0.125 12:0.125 13:1 14:-0.878788 
-0 -0 32 0 0 0 0 0.2641485481377593 0 0 0 0 0 0 0 0 0 0 0 0 0 0 0 0 0 0 0 0 0 0 0 0 0 0 0 0 0 0 0 0 1:-0.386364 2:1 3:0.1875 4:-0.939394 5:1 6:-0.5625 7:0.125 8:-0.386364 9:1 10:0.1875 11:0.5 12:0.4375 13:-0.515152 14:0.151515 
-0 -26.44680669833405 0 0 0 0 0 0 0 0 0 0 0 0 0 0 0 0 0 0 0 0 0 0 0 0 0 0 0 0 0 0 0 0 0 0 0 0 0 0 1:-0.242424 2:0.333333 3:0.125 4:-0.030303 5:0.333333 6:1 7:0.125 8:-0.242424 9:0.428571 10:0.125 11:0.125 12:0.3125 13:1 14:0.151515 
-0 -32 32 32 0 8.473283478618269 32 0 0 0 0 0 0 0 0 0 0 0 0 0 0 0 0 0 0 0 0 0 0 0 0 0 0 0 0 0 0 0 0 0 1:-0.242424 2:0.333333 3:0.125 4:-0.030303 5:0.333333 6:-0.5625 7:0.125 8:-0.242424 9:0.428571 10:0.125 11:-0.375 12:0.3125 13:1 14:0.151515 
-0 -25.67382925372376 32 32 28.97547161552862 0 5.465353364711382 0 0 0 0 0 0 0 0 0 0 0 0 0 0 0 0 0 0 0 0 0 0 0 0 0 0 0 0 0 0 0 0 0 1:-0.113636 2:0.666667 3:0.1875 4:-1 5:-1 6:0.25 7:0.125 8:-0.113636 9:0.714286 10:0.1875 12:0.25 13:-0.515152 14:0.151515 
-0 -0 0 0 0 0 0 0 0 0 0 0 0 0 0 0 0 0 0 0 0 0 0 2.545889043828418 0 0 0 0 0 0 0 0 0 0 0 0 0 0 0 0 1:-0.242424 2:0.333333 3:0.125 4:0.272727 5:0.333333 6:1 7:0.5625 8:-0.242424 9:0.428571 10:0.125 11:0.25 12:0.3125 13:1 14:0.575758 
-0 -10.46506906698803 3.291031422929305 0 0 0 0 0 0 0 0 0 0 0 0 0 0 0 0 0 0 0 0 0 0 0 0 0 0 0 0 0 0 0 0 0 0 0 0 0 1:0.681818 2:0.666667 3:0.1875 4:1 5:-0.878788 6:0.5625 7:-1 8:0.681818 9:0.714286 10:0.1875 11:1 12:-0.9375 13:1 14:0.454545 
-0 -0 0 0 0 0 0 0 0 0 28.65079571893698 0 0 0 0 0 0 0 0 0 0 0.02627390536560398 0 0 0 0 0 0 0 0 0 0 0 0 0 0 0 0 0 0 1:1 2:1 3:0.1875 4:-0.69697 5:0.030303 6:1 7:0.5 8:1 9:1 10:0.1875 11:1 12:0.5625 13:-0.939394 14:1 
-0 -0 0 0 0 0 0 0 0 0 0 0 0 0 0 0 0 0 0 0 0 0 0 0 0 0 0 0 0 0 0 0 0 0 0 2.137132746802773 2.137132746802773 0 0 0 1:1 2:1 3:0.1875 4:0.212121 5:1 6:-0.0625 7:1 8:1 9:1 10:0.1875 11:0.5625 12:0.5625 13:0.151515 14:0.878788 
-0 -0 0 0 0 0 0 0 0 0 0 0 0 0 0 0 0 0 0 0 0 0 0 0 0 0 0.3482484619167387 0.3482484619167387 0 0 0 0 0 0 0 0 0 0 0 0 1:-0.401515 2:1 3:0.1875 4:0.151515 5:-0.151515 6:0.1875 7:0.125 8:-0.401515 9:1 10:0.1875 11:0.125 12:-0.1875 13:-0.939394 14:0.333333 
-0 -0 0 0 0 0 0 0 0 0 0 0 0 0 0 0 0 0 0 0 0 0 0 0 0 0 0 0 2.940779928861501 0 0 0 0 0 0 0 0 0 0 0 1:-0.795455 2:0.666667 3:0.1875 4:1 5:-0.878788 6:-0.5625 7:0.125 8:-0.795455 9:0.714286 10:0.1875 11:-1 12:0.5625 13:-0.939394 14:1 
-0 -0 0 13.19706688311359 0 0 0 0 0 0 0 0 0 0 0 0 12.70890203631393 0 0 0 3.108689060609195 0 0 0 0 0 0 0 0 0 0 0 0 0 0 0 0 0 0 0 1:-0.0151515 2:1 3:0.1875 4:-1 5:-1 6:0.5625 7:-0.75 8:-0.0151515 9:1 10:0.1875 11:0.125 12:0.125 13:0.454545 14:0.151515 
-0 -9.876025780910387 0 0 0 0 0 0 0 0 0 0 0 0 0 0 1.080344669527494 0 0 0 0 0 0 0 0 0 0 0 9.386793772637581 0 0 0 0 0 0 0 0 0 0 0 1:-0.0151515 2:1 3:0.1875 4:-1 5:-0.939394 6:1 7:0.5625 8:-0.0151515 9:1 10:0.1875 11:0.125 12:0.5625 13:1 14:-0.939394 
-0 -0 0 0 0 0 0 0 0 0 0 0 0 2.387171172837799 0 0 0 0 0 0 0 0 0 0 0 0 0 0 0 0 0 0 0 0 0 0 0 0 0 0 1:-0.80303 2:0.333333 3:0.1875 4:0.818182 5:-0.575758 6:0.5625 7:-1 8:-0.80303 9:0.428571 10:0.1875 11:0.5625 12:-1 13:0.151515 14:0.636364 
-0 -0 0 0 0 0 0 0 9.223247705508843 0 0 0 0 6.161891240578659 0 0 32 0 0 6.928865533320713 0 0 0 0 0 0 0 0 0.6556273162878749 0 0 0 0 0 0 0 0 0 0 0 1:-0.80303 2:0.666667 3:0.1875 4:-0.030303 5:0.575758 6:0.4375 7:0.125 8:-0.80303 9:0.428571 10:0.1875 11:0.875 12:0.5625 13:0.454545 14:0.151515 
-0 -0 0 0 0 0 0 0 0 0 0 0 0 0 0 0 0 0 0 0 0 0 0 0.2642990695993224 0 0 0 0 0 0 0 0 0 0 0 0 0 0 0 0 1:-0.80303 2:0.333333 3:0.1875 4:0.575758 5:-0.939394 6:1 7:-0.625 8:-0.80303 9:0.428571 10:0.1875 11:0.5625 12:-1 13:0.272727 14:0.151515 
-0 -0 28.9787729099889 0 0 0 0 0 0 0.3367945916045679 0 0 0 0 0 2.704778226634597 0 0 0 0 0 0 0 0 0 0 0 0 0 0 0 0 0 0 0 0 0 0 0 0 1:-0.80303 2:0.333333 3:0.1875 4:0.454545 5:1 6:1 7:0.125 8:-0.80303 9:0.428571 10:0.1875 11:0.875 12:1 13:0.454545 14:0.212121 
-0 -0 0 0 0 0 0 0 0 0 0 0 0 0 0 0 0 0 0 0 0 0 9.848645135008738 0 0 1.050040070788881 0 0 0 0 0 0 0.8858112027029882 0 0 0 0 0 0 0 1:-0.757576 2:-0.666667 3:0.1875 4:0.151515 5:-0.757576 6:-0.5625 7:-0.1875 8:-0.757576 9:-0.428571 10:0.1875 11:0.5625 12:1 13:-0.939394 14:1 
-0 -0 0 32 0 0 32 0 0 0 0 0 11.03283027511064 0 0 0 0 0 0 0 0 0 0 0 0 0 0 0 0 0 0 0 0 0 0 0 0 0 0 0 1:0.742424 2:0.333333 3:0.125 4:0.151515 5:0.272727 6:0.125 7:0.125 8:0.742424 9:0.428571 10:0.125 11:0.4375 12:0.25 13:1 14:-0.69697 
-0 -0 0 0 0 0 0 0 0 0 0 0 0 0 0 0 0 0 0 0 0 0 0 0 0 0 0 0 0 0 0.4980508333794005 0 0 0 0 0 0 0 0 0 1:0.742424 2:0.333333 3:0.125 4:0.151515 5:0.272727 6:1 7:0.125 8:0.742424 9:0.428571 10:0.125 11:-0.375 12:-0.75 13:0.151515 14:0.818182 
-0 -0 15.67179795871373 0 32 0 0 0 0 0 0 0 0 0 0 0 0 0 0 0 0 0 0 0 0 0 0 0 0 0 0 0 0 0 0 0 0 0 0 0 1:0.757576 2:1 3:0.1875 4:-0.939394 5:1 6:-0.5625 7:-0.1875 8:0.757576 9:1 10:0.1875 11:0.5 12:0.5625 13:0.575758 14:-0.939394 
-0 -0 14.42616085442551 0 32 0 0 0 0 0 0 0 0 0 0 0 0 0 0 0 0 0 0 0 0 0 0 0 0 0 0 0 0 0 0 0 0 0 0 0 1:0.757576 2:1 3:0.1875 4:1 5:-0.878788 6:0.125 7:-0.5625 8:0.757576 9:1 10:0.1875 11:1 12:0.4375 13:0.151515 14:1 
-0 -0 20.89471629059123 0 0 0.3154907426716397 0 0 0.3996614835569683 0 0 0 0 15.05104351209774 0 0 32 0 0 0 0 0 0 0 0 0 0 0 0 0 0 0 0 0 0 0 0 0 0 0 1:-0.613636 2:0.666667 3:0.1875 4:-0.939394 5:1 6:0.125 7:-0.75 8:-0.613636 9:0.714286 10:0.1875 11:0.5625 12:1 13:0.151515 14:0.151515 
-0 -0 0 0 0 0 0 0 0 0 0 0 0 0 0 2.359826203687245 9.391416303149262 0 0 0 0 0 0 0 0 0 0 0 8.094149488503547 0 0 0 0 0 0 0 0 0 0 0 1:-0.80303 2:0.666667 3:0.1875 4:0.575758 5:-0.757576 6:0.125 7:0.5625 8:-0.80303 9:0.714286 10:0.1875 11:0.125 12:0.5625 13:0.575758 14:0.151515 
-0 -0 0 0 0 0 0 0 0 0 0 0 0 0 0 0 0 0 0 0 0 0 0 6.317764305854239 0 0 0 0 0 0 0 0 0 0 0 0 0 0 0 0 1:-0.893939 2:0.333333 4:-0.151515 5:-0.69697 6:0.125 7:0.125 8:-0.893939 9:0.428571 10:0.1875 11:0.125 12:-0.75 13:1 14:0.151515 
-0 -0 0 13.3175141349287 0 0 2.454850689650643 0 0 0 0 0 0 0 0 0 0 0 0 0 0 0 0 0 0 0 0 0 0 0 0 0 0 0 0 0 0 0 0 0 1:-0.44697 3:0.1875 4:0.575758 5:-0.757576 6:0.125 7:0.125 8:-0.44697 9:0.142857 10:0.1875 11:0.5 12:0.4375 13:-0.515152 14:0.151515 
-0 -0 0 0 0 0 0 0 0 0 0 0 0 0 0 0 0 0 0 0 0 0 0 1.455683780992166 0 0 0 0 0 0 0 0 0 0 0 0 0 0 0 0 1:-0.863636 2:0.333333 4:0.151515 5:-0.69697 6:0.125 7:1 8:-0.863636 9:0.428571 10:0.125 11:0.4375 12:-0.75 13:1 14:1 
